,0,1,2,3,4,feats
0,-0.7739733,-0.1050342,0.33425596,-0.078477815,0.14392585,8022
1,-0.11623729,-0.078474246,0.0701738,0.003202156,0.10928874,8022
2,-0.86215204,-0.14733256,0.14843057,-1.752401,1.6548266,8022
3,-0.07285126,0.07787155,0.098377675,0.3278123,-0.7890509,8022
4,-0.6419317,0.065798715,0.11180555,0.060732327,-0.030311069,8022
5,0.31234422,-0.12526718,-0.252285,0.13305293,-0.025259085,8022
6,-0.31615958,-0.42039415,0.28583854,-0.09766697,0.029085092,8022
7,0.7828228,0.735639,0.0042020655,-0.089660734,-1.1312369,8022
8,0.51382196,0.5467261,-0.15174352,-0.42537236,-0.5375996,8022
9,-0.10011853,-0.027819563,0.011163451,-0.05994262,0.06679592,8022
10,0.57427704,0.44564193,0.079051495,0.22633196,-1.159647,8022
11,0.4609176,0.4016293,0.11042894,0.12801021,-0.9218711,8022
12,-0.44273612,-0.2088571,-0.04801803,0.2316186,0.39924586,8022
13,-0.58308625,-0.43644634,0.034388162,-0.33827466,0.9494524,8022
14,-0.44029474,-0.50391793,0.15960991,-0.05937201,0.381934,8022
15,7.059145,5.4532166,-1.1715702,-1.0527629,-3.3805532,8022
16,-0.023746656,0.12794873,-0.119220674,-0.092432395,0.05604949,8022
17,-0.1529687,0.06505963,-0.25713497,0.24101026,-0.03604764,8022
18,0.023115115,0.038270272,-0.034655437,-0.05461809,0.01849841,8022
19,0.08741906,-0.12557715,0.16847487,-0.2650224,0.1972414,8022
20,0.071390346,-0.37343565,0.46819183,-0.31163162,0.19195256,8022
21,0.063124456,-0.2505916,0.36451277,-0.08690171,0.058494125,8022
22,-0.07982128,0.2034993,-0.001336218,0.08340763,-0.2046169,8022
23,0.007170646,-0.05821643,0.05765485,0.033892505,-0.053680085,8022
24,-0.16178127,-0.027460953,-0.3409445,0.38385648,-0.075041845,8022
25,-0.11154258,0.10789861,-0.028229186,0.011041477,0.003548343,8022
26,0.07499945,-0.30441663,0.034822393,-0.10724311,0.22183448,8022
27,0.049785517,-0.04153232,-0.034661736,-0.048911136,0.09234991,8022
28,0.018372007,-0.029588819,0.11114416,-0.013613346,-0.06114576,8022
29,0.070476495,-0.17684582,0.26495853,-0.07324976,0.0016478777,8022
30,-0.16481647,0.038959153,0.13242914,-0.015068456,0.0026197003,8022
31,-0.14452374,0.09725854,0.18801063,-0.010633512,-0.062687285,8022
32,-0.06948547,0.018618599,-0.21380389,0.123434775,-0.0051157377,8022
33,-0.12385562,-0.09697646,-0.11882901,0.20308466,-0.0050406824,8022
34,0.02225245,-0.12099144,0.29190004,0.047099736,-0.17521584,8022
35,-0.025842687,0.070164286,-0.17365654,-0.096217886,0.11530152,8022
36,0.026544344,0.02762857,-0.54963046,0.27729562,-0.01583768,8022
37,-0.05775039,-0.092594765,0.036857136,0.09267037,-0.022737995,8022
38,0.08532358,-0.01760668,-0.21333775,0.11505162,-0.082281515,8022
39,-0.09047924,0.13048606,-0.062095143,-0.033199504,-0.008470791,8022
40,-0.27503213,-0.12440144,0.21336596,0.11252563,0.0074852696,8022
41,-0.060085904,0.11501952,-0.3725698,0.3384813,-0.15585557,8022
42,-0.27771732,0.36056033,-0.20283727,-0.1440577,0.121743985,8022
43,0.08255423,-0.027436461,0.21767071,-0.2948822,0.15017574,8022
44,-0.17286713,-0.04512482,0.13080887,0.1587412,-0.12855557,8022
45,0.02308028,-0.068112545,-0.0035445306,0.008107643,-0.015297135,8022
46,-0.036495365,0.018379744,-0.03543366,0.02264466,0.03609207,8022
47,-0.065507405,-0.04996633,0.19771929,-0.1871659,0.1365057,8022
48,-0.22634059,0.4531333,-0.14171699,-0.0009145392,-0.06810594,8022
49,-0.006921008,0.06256637,-0.1778588,0.012297846,0.0030871318,8022
50,-0.043203317,-0.2191454,0.45176178,-0.060497656,-0.0400479,8022
51,-0.09478731,-0.19023977,0.03831592,0.1408071,-0.007435455,8022
52,-0.060329463,0.057269342,-0.052220933,0.007388443,-0.017646976,8022
53,0.14938964,-0.3216356,0.018735444,-0.051454578,0.115069434,8022
54,-0.05573466,0.14980122,-0.42417395,0.10274486,0.056348447,8022
55,-0.09436582,-0.17199233,-0.16040255,0.17352928,0.059419077,8022
56,0.014959602,-0.067913674,0.6350934,-0.5066357,0.15745172,8022
57,0.12699062,-0.039722167,0.07768446,-0.17450267,0.13474259,8022
58,-0.20622358,0.09986878,-0.064731196,0.19623125,-0.11918624,8022
59,-0.089819096,0.04799079,0.11874617,-0.07221071,0.029742511,8022
60,-0.010209765,0.13270997,-0.2879462,0.021990614,0.01237337,8022
61,0.14073604,-0.6934416,-0.35613286,-0.030178312,0.5292627,8022
62,-0.13724259,-0.099571794,0.3611617,-0.06014906,0.021588467,8022
63,0.057264127,-0.23516107,-0.0102699725,0.087770544,0.020086002,8022
64,-0.029128892,-0.029291537,0.0737043,-0.3447484,0.3608648,8022
65,0.12759578,-0.17854618,-0.18304701,0.10631445,-0.04836525,8022
66,-0.01503851,0.16039498,0.28303266,-0.16089123,-0.04683277,8022
67,0.1076019,-0.23277305,-0.09648863,0.087929524,0.055541545,8022
68,0.031402443,-0.62591726,0.04930358,0.24685583,0.080161974,8022
69,-0.030412335,-0.13684219,0.080048464,-0.06547614,0.121602066,8022
70,0.036942646,-0.36563036,0.5045639,-0.26080897,0.15754022,8022
71,-0.051237486,-0.0839009,0.15957509,-0.020223726,-0.025357516,8022
72,-0.1410362,0.083032124,-0.022740072,0.2075475,-0.12941176,8022
73,-0.053512007,-0.046820175,0.30789006,-0.12501386,-0.0659779,8022
74,-0.19877243,0.0649796,-0.41705233,0.37485054,-0.09915791,8022
75,-0.13333064,-0.16266085,0.11295267,0.21677266,-0.08898467,8022
76,-0.2757611,-0.01607115,0.1517671,-0.11527952,0.15984832,8022
77,-0.094146535,-0.1990809,0.35585082,-0.06351751,0.017710403,8022
78,-0.020303046,-0.0028215428,0.25101689,-0.076003656,-0.07288366,8022
79,-0.14136887,0.09460288,-0.028756158,-0.011584161,0.028468532,8022
80,-0.0020507174,-0.15050995,-0.1784226,0.1892722,0.054247823,8022
81,-0.053211898,0.32375827,0.27963993,-0.15918498,-0.23151204,8022
82,-0.4677068,0.52027667,0.35557795,-0.26489654,-0.009298359,8022
83,-0.10775373,0.26076427,-0.12488222,0.034101274,-0.1097292,8022
84,0.19076873,-0.100562185,-0.26802343,-0.07142211,0.12581569,8022
85,-0.12792444,0.29655185,0.12788817,-0.20969982,0.02849178,8022
86,0.08337799,-0.10964235,0.17158508,0.0020606138,-0.066983,8022
87,0.37656784,-0.3289659,0.17889635,-0.22878367,0.13623406,8022
88,-0.1705444,0.08861315,-0.07896742,0.094530694,-0.098290436,8022
89,-0.016913086,0.07660133,-0.171955,0.031272475,0.01124569,8022
90,-0.09170044,0.17317711,0.35199445,-0.18631335,-0.057231337,8022
91,-0.05398144,0.037009683,-0.3593562,0.33647302,-0.16361418,8022
92,0.20152181,-0.7188431,0.4335128,-0.21835172,0.2529344,8022
93,-0.1284198,0.3048679,-0.13667192,0.066385426,-0.12117286,8022
94,-0.065926634,-0.2384611,-0.028924624,0.155483,0.03626001,8022
95,0.12096657,-0.19548184,0.23585962,-0.041959256,-0.027293857,8022
96,0.19654796,-0.287264,0.09677115,-0.0013321781,0.036479913,8022
97,0.026504716,-0.12427562,-0.20602007,0.0035081627,0.15296885,8022
98,-0.023543507,0.1562175,0.032679144,0.052672613,-0.14084427,8022
99,0.072748534,-0.1651393,-0.08831465,0.18856764,-0.088738985,8022
100,-0.01750171,0.014401263,-0.08651997,-0.046589088,0.07079392,8022
101,0.061462298,-0.25941753,-0.1336766,0.25843826,-0.038680978,8022
102,-0.32716152,0.56801355,-0.123690985,0.08590299,-0.23001227,8022
103,0.023938801,-0.07508731,-0.11997946,-0.0063552163,0.13678229,8022
104,-0.17924882,0.12559856,-0.025770936,0.16212735,-0.15945566,8022
105,-0.078717545,0.2667711,-0.24275462,0.18317842,-0.15163153,8022
106,0.030182835,-0.20692345,0.036262106,0.029686082,0.057612285,8022
107,-0.13760006,0.104921184,-0.07621478,0.05533492,-0.0089353565,8022
108,-0.19819544,0.325887,-0.0871694,0.007897079,-0.06509733,8022
109,0.028637322,-0.13037221,-0.23226118,0.18713288,-0.0051591694,8022
110,-0.08331386,0.115009874,0.1759071,-0.060355857,0.0003801774,8022
111,0.016847393,-0.0717871,-0.048908375,0.03758269,-0.029915895,8022
112,-0.18388744,-0.23086184,0.11965286,0.17241274,0.028460339,8022
113,-0.052268747,-0.023920286,-0.42388526,0.095209576,0.17657876,8022
114,-0.11216064,0.054433882,0.2125201,-0.09249452,0.03983049,8022
115,0.12467074,-0.1312299,0.33396772,-0.2186614,0.0273161,8022
116,-0.045317724,0.11799371,0.074720934,-0.15466407,-0.08616543,8022
117,0.19815238,-1.562084,-0.07953905,-0.62843287,0.5217167,8022
118,1.0061266,-0.7967478,-0.65453154,0.09267381,-0.11155951,8022
119,-0.64151686,-0.79958326,0.74354374,-0.57166773,-0.7547844,8022
120,-0.15569389,0.77732325,-0.30149823,-0.14058663,-0.20229627,8022
121,-1.2688648,0.32380453,0.015015053,-1.149321,0.8093948,8022
122,-0.7510424,-0.31390232,0.39599773,0.19972877,-0.14000031,8022
123,0.82113844,-1.0626781,-0.73712313,-0.61798143,-0.3548751,8022
124,-0.058811516,0.034473117,-0.39841834,-0.4448648,0.4424693,8022
125,-1.3075776,-0.98771745,-0.12602818,0.9076914,-0.27341524,8022
126,-0.09624773,0.5374916,-0.37403736,-0.09794671,-0.05253502,8022
127,-0.069153644,-0.78008205,-2.3079312,-0.67592114,0.9177865,8022
128,0.7513963,-1.8506477,0.44360214,0.17974246,-0.28262419,8022
129,0.41849908,-1.1224716,-0.9781871,-0.9484913,0.9922884,8022
130,-0.8642446,0.3001981,-0.67818034,-1.0440208,1.0198818,8022
131,0.25563374,-0.058147214,0.40728933,-0.63255703,-0.1434332,8022
132,0.4182222,-0.1844434,-0.6305491,-0.9808861,-0.70817894,8022
133,-0.24283299,1.8114599,-2.053991,-0.3115171,-1.277265,8022
134,-0.5939533,-0.571438,0.75438,-0.62892866,-0.92817646,8022
135,0.3322937,0.5237978,-0.2395982,-0.06951364,-0.3288323,8022
136,0.53321004,0.3093891,-0.78146636,-0.6041971,0.2911657,8022
137,-1.7294246,0.8046211,-1.5680691,0.63546026,-0.93291926,8022
138,-0.8381207,0.07599121,-0.34940818,-0.45948628,0.40016901,8022
139,0.56111497,-0.15427823,-0.13564187,-0.6170933,0.26174477,8022
140,-1.4457082,0.6120051,-0.15195847,-0.17314735,0.09830645,8022
141,-0.49250317,-0.14307633,0.54975253,-1.0682406,-0.023672638,8022
142,0.79915744,-0.8349354,-0.73497736,-0.9947332,0.38101032,8022
143,-0.0826986,-1.7578739,0.12984218,-0.9186143,0.8076363,8022
144,-0.62094164,-1.5450758,0.83112824,-0.23771708,-0.06498851,8022
145,-0.4608729,0.43055314,-0.4473673,-0.19030808,-0.21581219,8022
146,0.69870377,-1.6945705,-1.2473546,0.018589439,0.6190406,8022
147,-0.3930848,0.20644867,-0.44546637,0.5262557,-0.4913504,8022
148,0.64041644,-0.07670154,0.25814727,-0.81301653,-1.39859,8022
149,0.16086274,-0.24283768,-0.46600786,0.4709101,-0.39683616,8022
150,-1.4720339,0.38049665,-1.2020259,0.34181938,-0.36506775,8022
151,-0.6082032,0.21632917,0.09773993,-0.44551677,0.46899134,8022
152,-1.4097244,-0.939574,0.6949569,-0.3832301,0.28470835,8022
153,0.42869058,-0.46833467,-1.0114566,-0.26559502,0.40891743,8022
154,-1.3277545,-0.24939854,0.10819533,0.6984079,-0.56269294,8022
155,-2.308376,0.029710794,-1.2420577,0.7269433,-0.3445416,8022
156,-0.22855037,0.024555996,-0.17876248,0.62050277,-0.7179891,8022
157,-1.0090303,-1.2952034,1.7823646,-1.3392619,-1.5847127,8022
158,0.36668313,0.007719534,-0.5184225,-0.9522653,0.6859795,8022
159,-0.5684364,0.62880194,-1.333142,-0.68134254,0.13340208,8022
160,0.4098487,-0.7301303,-1.1780596,-1.1033052,1.0565717,8022
161,0.824099,-0.8633774,-0.52911377,0.18667577,-0.5605196,8022
162,-1.2082433,-1.3014034,1.1102672,0.1181177,-0.46592328,8022
163,-0.60138744,-0.58850044,0.6435908,-0.63144314,-0.81258035,8022
164,-0.3394926,0.15633446,0.039751653,-0.47439212,0.11702347,8022
165,1.0816232,-0.8104513,-1.2105349,-0.22661754,0.071971804,8022
166,0.32921526,-1.5210716,-0.9453828,1.0636168,-0.9801147,8022
167,-0.6897285,-0.51791525,-0.5661398,0.19800842,0.26728457,8022
168,-0.14267203,0.6712035,-0.15884444,-0.2875061,-0.29389158,8022
169,-2.1583037,0.73178405,0.3097518,0.5173513,-0.54410225,8022
170,0.79986227,-0.67127573,-0.54218507,-0.6160528,-0.6724796,8022
171,-1.168859,0.075644664,1.464342,-0.23582807,-1.2991475,8022
172,-0.042426273,-1.4637393,0.06621927,-0.13405655,0.16713661,8022
173,-0.02321224,-0.07773212,-0.17809369,-0.11426262,0.006026257,8022
174,-0.88523066,-0.5932557,1.2020289,-1.3791219,-0.96583486,8022
175,-1.5003794,-1.5156716,1.8515977,-1.8820204,-1.8786938,8022
176,0.22052103,0.74101806,0.28528497,-0.98997605,-1.0073769,8022
177,0.0008443722,-0.0083736135,-0.03299825,0.012192556,0.010103358,8022
178,-0.6942212,0.16271758,0.38401443,-0.24569719,0.04321292,8022
179,-0.40609273,0.025637995,0.15173547,-0.15852292,0.059138525,8022
180,-0.81328154,0.8267112,-0.5081638,-1.0718989,-0.8105922,8022
181,0.35423353,0.38875213,-1.0790437,-0.45458722,0.15738802,8022
182,-0.78706783,0.42691222,-0.6450658,0.28132814,-0.015003539,8022
183,-0.6927417,0.72874916,-0.116906255,0.6265448,-0.90811485,8022
184,-1.9505873,-0.055758767,0.4702368,0.070163794,-0.05216508,8022
185,0.69207793,-0.35981402,-0.6717487,-0.32489282,-0.6482287,8022
186,-0.14269854,0.16849229,-2.1752632,0.47071606,-0.54004395,8022
187,-1.258092,0.10598817,0.38415816,0.25210333,-0.6562478,8022
188,0.22324021,0.1458808,0.51951236,-0.83876866,-0.4476425,8022
189,-2.0225618,0.90521187,-0.2506603,-0.71760696,-0.15910356,8022
190,-0.15992454,-0.026094755,0.1989653,-0.1843374,0.18646207,8022
191,-0.77663094,0.5395719,-0.2921718,0.24496314,-0.19780791,8022
192,0.7224009,0.48475903,-0.65014446,-1.6029729,0.8888876,8022
193,-1.6119461,-1.3657321,-1.2511947,0.78961,-0.15377174,8022
194,-0.2579714,0.12457545,-0.15155916,-0.05133728,0.019820761,8022
195,-0.16158725,0.44353083,0.31765363,-0.13136752,-0.53374904,8022
196,0.3299691,-0.63513327,0.11743582,0.4273944,-0.56303936,8022
197,-0.6820073,-0.2613433,0.21553,-0.07399253,0.15061584,8022
198,0.4203647,-1.4423,-0.43844005,-1.7667315,1.502994,8022
199,-0.27627206,-0.40291828,0.5682723,-0.43303362,-0.36039552,8022
200,-0.44503686,0.0699322,-0.7624797,0.2327185,-0.12098817,8022
201,-0.4475338,0.011108131,-0.5330986,0.06303547,0.2879026,8022
202,-0.03909646,-0.17133169,-0.9521247,0.07926643,0.087111235,8022
203,-1.1964897,-0.62382877,-0.59827626,0.24522595,0.17602985,8022
204,-0.9155039,-1.0101292,1.1806408,0.052579086,-1.2812687,8022
205,0.07267504,0.11469908,0.42153364,-0.04263134,-0.430384,8022
206,1.0408696,-0.70551884,-0.6652913,-0.22182667,-0.453707,8022
207,1.0200042,-1.389026,-0.81947744,-0.56658095,0.07487722,8022
208,-0.682694,0.47997603,1.1281898,-0.6741556,-1.9654438,8022
209,-0.9559472,0.43128857,0.14688562,-0.31648108,0.32614115,8022
210,0.055818036,-0.53007454,0.56487864,-1.3136325,0.44157112,8022
211,-0.769272,0.53457147,-0.45000947,-0.36627382,0.33349642,8022
212,-1.0776427,0.9005535,-0.68047845,-0.9580978,0.68554157,8022
213,-0.40969515,-0.2938227,-0.1301848,0.1597252,0.06313853,8022
214,-0.060250252,-0.98633564,0.42112127,-1.0487461,0.7653882,8022
215,0.061912,-0.5923229,0.058585845,-0.32446834,0.3837015,8022
216,0.037874743,-0.94231457,0.11540819,-0.2779307,0.22682728,8022
217,0.17546158,0.2883299,-0.3109367,-0.097218305,-0.1807294,8022
218,1.1267817,-1.3167377,-1.219922,0.07962028,-0.29001555,8022
219,-0.962135,0.44230032,-0.35522926,-0.7525521,0.65773183,8022
220,0.29273894,0.5083899,-1.1805032,-0.33394,0.15729527,8022
221,-1.2143987,-0.49242046,0.07974672,-0.5118431,0.33045763,8022
222,-0.118051134,0.31898573,0.19817229,-1.0033649,0.30920035,8022
223,-1.0573963,-1.3920423,0.2510803,-1.139497,0.47401273,8022
224,-0.32576716,0.4689283,-1.5639966,0.31794253,-0.37019184,8022
225,-0.21826817,1.3037692,-0.3233513,-0.68689007,0.0036295233,8022
226,0.16614318,-0.49475518,-0.17878592,0.43641067,-0.51973957,8022
227,0.08537823,-0.36460218,-0.74643075,-0.7539369,1.0465534,8022
228,0.17838958,-1.1020473,-0.22202906,-0.15239757,0.6721506,8022
229,-0.3242975,0.40507045,0.002974385,-0.9835983,0.3693735,8022
230,0.49941897,-1.1889994,0.6850153,-0.84032965,-0.58858156,8022
231,0.3825841,-0.31956086,-1.2108102,0.20536548,-0.028704958,8022
232,-0.6209802,0.103942536,0.15811774,0.22549841,-0.26461148,8022
233,-1.0520581,-0.21396835,-0.90964895,0.29150286,0.046788085,8022
234,-0.70130336,-2.0558019,-0.8262904,0.8199354,-0.3520515,8022
235,-1.5366825,-0.013158749,-0.49250442,0.45386392,0.0040745223,8022
236,-0.6405062,0.81411624,0.36215553,-0.7189943,-1.2181201,8022
237,-0.71988267,-0.824169,0.21618032,-0.65701276,0.19315067,8022
238,-0.8817185,0.6814137,0.30493382,-0.9563931,-0.6319202,8022
239,-0.890532,0.565784,-0.6384905,0.1581702,-0.6811769,8022
240,-0.33007738,0.46540534,-0.030434478,0.5300617,-0.97399384,8022
241,0.009433327,0.38354975,-0.3743273,-1.1219552,-0.18161531,8022
242,0.037078395,-1.1505502,0.35097483,0.3599643,-1.2828482,8022
243,-0.3312585,-0.09237093,-0.07398164,-0.1811628,0.4364117,8022
244,-0.76862526,0.30391684,0.30955514,-0.123594806,-0.20556414,8022
245,-0.8117775,-0.981453,1.2110082,-0.7509528,-1.249034,8022
246,-0.12713985,-0.63672394,-0.7230514,0.21891859,0.2748198,8022
247,-0.2577172,0.1297524,-0.118248306,0.36573428,-0.5609699,8022
248,0.4211402,0.31055436,-0.16748857,-1.0483449,-0.46334845,8022
249,-0.4884165,0.21222483,-0.7159421,0.31964245,-0.21894574,8022
250,-0.020635339,-0.2244997,0.5169934,-1.393287,0.38475564,8022
251,0.16691747,0.070713975,-0.21606106,-0.33470398,0.25171039,8022
252,-1.5688654,-0.16541515,0.16563042,0.116508596,-0.041010354,8022
253,0.15855685,-0.53570503,-0.12347483,-1.5927162,1.8085101,8022
254,0.10845358,-0.10832817,0.33352023,0.63160264,-0.9831252,8022
255,0.7772383,-0.9343237,-0.59043485,-0.7747965,0.5954777,8022
256,0.81971925,-1.343469,-0.92861766,-1.350807,0.7924731,8022
257,-0.027917977,0.75246173,-0.69823587,-0.5370787,-0.74602526,8022
258,-0.5831554,-0.76812536,0.9873222,-0.74029565,-1.2096617,8022
259,0.3307129,-1.09019,-0.38971522,-0.0010939306,0.31822363,8022
260,-1.079221,-0.3677026,0.37720641,0.28817284,-0.2080714,8022
261,-0.53555465,0.4969787,-0.55226976,-0.83398455,0.442589,8022
262,1.0932859,-0.8952105,-0.42546383,-1.1502439,-1.1139439,8022
263,0.7624993,0.046567217,-0.50744975,-0.6491711,0.028802028,8022
264,-0.5457756,-0.79333574,0.54364544,-0.766694,-0.22240715,8022
265,-1.4513607,0.031241136,0.15608501,-1.7203046,0.24262697,8022
266,-1.161865,-0.33369592,1.3861035,-0.84493,-0.6545963,8022
267,-1.4644512,1.326577,0.960654,0.80577976,-1.798557,8022
268,-0.4099588,-0.10237866,0.0201737,0.1370334,-0.046680134,8022
269,-0.7236862,0.28891376,0.28193158,-0.8318241,-0.89991915,8022
270,0.4833384,-0.9823489,-1.1417639,0.31473595,-0.11470091,8022
271,-1.2938792,-1.1230416,-0.08998329,1.2066834,-1.1394314,8022
272,-0.8885058,-0.03558801,-0.6426376,0.7586491,-0.28274903,8022
273,-0.22212914,0.39901695,-1.8479236,-0.23706631,0.31440282,8022
274,0.7619137,-1.089491,-0.060698256,0.26137552,-0.87786394,8022
275,0.37798715,-1.2947663,0.19876869,-0.3425975,-0.0018761434,8022
276,1.0101205,-0.9415796,-1.3466185,-0.43114528,0.020589186,8022
277,-1.0905712,0.92953044,-1.0154842,0.37473387,-0.3976152,8022
278,-0.24382399,-0.5369444,-0.50999886,0.3507863,0.21315761,8022
279,0.25264585,-1.0179615,-1.3310937,0.37609503,-0.21739317,8022
280,-0.5269566,-0.7210521,-0.05819394,0.23398164,-0.010499482,8022
281,-0.14223285,0.17583029,-0.156811,0.3114245,-0.49488437,8022
282,-1.1310291,-1.0684357,0.13879052,-0.7593019,0.17401391,8022
283,0.18968062,-0.7482296,-1.1045883,0.60370624,-0.11112264,8022
284,0.27150893,-0.24723396,0.24625975,-0.97772634,0.11089432,8022
285,-0.4098336,0.26073456,-1.0554297,0.371704,-0.24701974,8022
286,-1.185098,-0.41208932,0.6105012,-0.15948933,0.14918676,8022
287,-0.38894862,-1.5557711,0.44344002,-0.3367057,0.06535131,8022
288,-0.464512,0.34340727,-0.8425737,0.4976512,-0.21282962,8022
289,0.16017552,-0.11944643,-1.2867168,-0.24898477,0.29387963,8022
290,-0.9626088,0.2522226,0.41075802,-0.39579397,-0.15211909,8022
291,-0.5188358,0.426124,-1.4275886,-0.44302747,0.39736083,8022
292,-1.0020243,-0.18787889,-0.29021013,1.4164758,-1.2059605,8022
293,-0.588082,0.17759228,0.28859097,-0.5554627,0.22614688,8022
294,-0.1582037,0.009428063,0.28901127,-0.6232451,0.38404435,8022
295,-0.97979724,0.8766138,-0.72704047,-0.29441223,0.09617256,8022
296,0.6171103,-0.46933338,-0.83220214,0.6172905,-0.3741231,8022
297,-0.17641039,0.60608137,-0.33834845,-1.6349115,0.98752534,8022
298,0.87963724,-0.7711029,-0.78265536,-0.3157809,-0.044711336,8022
299,0.51815665,-0.24851653,-0.25478238,-0.27598742,-0.20080547,8022
300,-1.2422926,0.7279847,0.3527238,-0.32682288,-0.15985654,8022
301,1.2079263,-1.1668108,-1.2010313,0.19903295,0.05739697,8022
302,0.52337486,0.0032477286,0.20832546,-0.9883059,0.035548825,8022
303,0.14639962,0.25758746,-0.76962006,-1.5146583,0.7342003,8022
304,0.34917197,-0.8873641,0.12080289,-0.2448036,0.27659157,8022
305,0.12693398,-0.39972538,-0.5447621,0.095730156,0.23137288,8022
306,-1.0848272,0.68291456,-0.47836566,0.03668369,0.012071751,8022
307,-1.352847,-0.050350048,-0.89342356,0.29473487,0.18508087,8022
308,-0.016725881,0.0013664805,-2.0226688,-0.708109,0.84312373,8022
309,-1.1654265,0.23462555,0.27004963,0.5945056,-0.77723026,8022
310,0.5852581,-1.4996817,-0.1863762,-0.25127423,0.10775265,8022
311,-1.2604692,0.9132282,-0.74398214,-0.9726303,0.7960928,8022
312,-0.22261381,0.43177435,0.33813494,-1.0860841,0.2683334,8022
313,0.5553667,-0.46442708,-0.53746396,-0.4644632,-0.52581,8022
314,-0.14549741,-0.02672329,0.06743941,0.10220603,-0.44721994,8022
315,0.040301856,0.4075987,0.32073966,-0.49631837,-0.17368214,8022
316,-0.9855992,0.12604259,-0.61830974,0.5331188,-0.57528085,8022
317,0.96928596,-0.86073315,-1.7333269,-0.19435827,-0.056464087,8022
318,-0.01750226,-0.027611425,0.7170289,-0.5441066,0.06781304,8022
319,0.66835195,-0.64061373,-0.579546,-0.74375963,-0.54323465,8022
320,-1.7268376,-1.7622585,-0.348041,3.267829,-2.0943873,8022
321,-0.7568442,0.5162198,-0.20964757,-0.7015532,0.3879189,8022
322,0.5278814,-1.6050428,-0.5521303,-0.10830393,0.6408172,8022
323,-0.971054,-1.2600789,1.4988191,-1.1600245,-1.5255741,8022
324,-0.8739766,0.8174769,-1.6213773,0.8426144,-0.3606743,8022
325,0.7635343,0.1824806,-1.3700511,-0.46108836,-0.0278582,8022
326,-1.0953338,0.020213317,0.30528176,-0.4540798,-0.44812632,8022
327,0.4926198,-0.74955285,0.40416244,0.23143208,-0.6177462,8022
328,-1.0720804,-1.0281045,0.42007288,-0.04567572,0.026417783,8022
329,-0.87448865,-0.8766526,-0.3824849,-1.0062715,0.9297355,8022
330,-0.25860387,0.57325363,-0.93704337,-0.15457468,0.16859835,8022
331,-1.5741147,0.5605532,0.6798195,-0.62228245,-0.41246933,8022
332,-0.9940971,0.7706256,-1.4175954,-0.6289414,0.31677634,8022
333,-0.19216026,-0.17011733,0.12682888,-0.2162133,0.19234926,8022
334,1.0710154,-1.0568304,-0.93382967,-0.7497301,0.27132675,8022
335,-0.55564725,-1.2617606,1.2038832,-1.1505228,-0.77390516,8022
336,-0.30908632,-0.52041906,-0.33283278,-0.14670919,0.3560084,8022
337,-0.063790336,-0.5395784,0.11546887,0.8098962,-0.8212459,8022
338,0.6554681,-0.8822221,-0.31093648,-1.0348276,1.1066422,8022
339,-0.7677444,-0.18609937,-0.19435847,0.95148176,-0.8392182,8022
340,0.67222375,-0.46089092,-0.63586396,-0.52031106,-0.5885879,8022
341,-0.10974161,-0.9754664,-1.653018,0.2740637,0.38551515,8022
342,0.7252864,-0.6300558,-0.67062336,-0.48389632,-0.57184035,8022
343,0.15247968,-0.3778357,0.5162326,-0.1530637,-0.079848744,8022
344,0.31729847,-1.0457599,-1.409508,0.22872715,-0.2731398,8022
345,-0.2111624,-1.7680616,-1.1312332,0.5076849,-0.17723976,8022
346,-0.0917425,-0.13159505,0.41569436,-0.93816745,-0.26935497,8022
347,-0.4757817,-0.5959788,-0.4092779,-0.3497994,0.78025067,8022
348,-2.688671,1.1685284,-1.4157358,0.36359528,-0.35783464,8022
349,-0.039337415,-0.51154083,-0.35530558,0.5432789,-1.1049472,8022
350,-0.26727313,-0.20566306,-1.8036867,-0.33888945,0.5715469,8022
351,0.102584235,0.5614309,-0.4125142,-0.46266377,0.0740981,8022
352,-0.5192789,-1.1924775,2.0421345,-1.2190981,0.26445416,8022
353,-0.40887117,0.1317294,0.5155035,-0.39318419,-0.007288606,8022
354,-1.881367,0.80325854,-0.9459951,0.68618715,-1.0513467,8022
355,-0.625935,-0.82564664,-0.050603237,-0.17697203,0.45272303,8022
356,0.23066998,-0.36187166,-0.7436015,-0.3812664,0.5679251,8022
357,-1.4793692,0.37215143,0.26917815,-0.4227721,0.19445045,8022
358,0.31752387,0.18020833,-0.7591819,-0.66919804,0.3640978,8022
359,-0.5214361,-0.21069567,0.48639137,-1.025092,0.3862363,8022
360,1.0142564,-1.6264882,-0.031103756,-0.7140033,-0.48085174,8022
361,-0.9293508,-0.893675,1.7176266,-0.719591,-1.6277498,8022
362,-0.7176613,-0.055382874,-0.79305995,-0.15608624,0.6977089,8022
363,-0.36836514,-0.43090126,-0.1014998,-0.46805847,0.7932626,8022
364,0.525431,-0.42744502,-0.41333872,-0.40067562,-0.61554587,8022
365,-1.1680588,-0.9088536,0.37336683,-0.37736985,-0.32105184,8022
366,0.4162981,-0.8538687,-0.9848997,0.80430585,-0.64699465,8022
367,-1.6764972,0.32123682,0.885197,0.1733302,-0.44016477,8022
368,0.21554981,-1.3977925,-1.297923,-1.1266416,1.2710211,8022
369,-0.06492944,0.14419213,-0.23057368,-0.79349184,0.75073135,8022
370,0.7915505,-0.899682,-0.7216104,-0.7698217,-0.72026026,8022
371,-0.48839155,0.60906094,0.25337943,-1.8035295,0.1115331,8022
372,-0.36728615,0.08980536,-0.12565261,0.13147332,-0.14633809,8022
373,-0.42417726,-0.18268597,-0.6089939,0.17806238,0.12967382,8022
374,-0.5583709,0.4231199,0.04175704,0.0014917311,-0.589287,8022
375,0.69095594,-0.22492874,-0.24750218,-0.2168757,-0.25649026,8022
376,1.0613548,0.60064703,-0.6473432,-0.7155522,0.17582577,8022
377,0.47427732,-0.48411393,-0.44244748,-0.4041336,0.51504683,8022
378,-0.5040247,-0.32671762,0.6975579,-0.12098234,-0.0052991463,8022
379,0.100687936,0.021089619,-0.96959186,-0.54687697,0.62299407,8022
380,0.15812694,-0.15478037,0.13891527,0.10007667,-0.26126584,8022
381,-0.33698043,0.57878095,-0.09685278,-0.43206865,0.02836315,8022
382,-1.3471153,-0.032860946,-0.43292388,0.24113822,0.26654586,8022
383,-1.122492,-1.0815461,-0.32547927,0.75050527,-0.33183232,8022
384,-0.57789075,0.1597499,0.008219256,0.38961044,-0.37936956,8022
385,-0.41808984,-1.0580688,0.15547967,0.23080114,-0.22703871,8022
386,-0.36674947,0.11315302,-1.1131968,0.28456324,0.4609429,8022
387,-1.2996432,-1.090335,-1.0480527,0.9541081,-0.8840775,8022
388,-0.63058895,-0.14420576,0.56888616,-0.40323713,0.38535842,8022
389,-1.1467341,-0.14811812,-1.7210367,0.7699637,-0.04460604,8022
390,0.11019639,0.18025914,0.093817644,-0.5555588,0.24271189,8022
391,-0.6781105,0.9412734,0.6340259,-0.39741972,-1.5615753,8022
392,0.3016978,0.21411313,-0.16815317,-1.0289553,0.29270598,8022
393,-1.8314044,-0.8525156,0.36796838,0.6127428,-0.36008143,8022
394,-1.0377113,-0.72935057,0.16494296,0.10522685,0.10993262,8022
395,-0.23006888,-0.5210766,-0.006526561,0.72204274,-0.53864294,8022
396,-0.7724999,-0.023191191,0.33322534,0.20686565,-0.22306593,8022
397,-0.9328854,-0.20014046,-0.8344062,-0.09011737,0.50559783,8022
398,-0.29285163,0.84897876,-0.9950395,0.33545187,-0.6868257,8022
399,-0.42551517,0.21427792,-0.8644463,0.122336574,-0.3204946,8022
400,0.0582511,-0.5235263,-0.57823104,0.27025843,0.12409123,8022
401,0.10114719,-0.6812238,-0.427432,0.4561491,-0.3051343,8022
402,-1.0734752,-1.1178025,-2.6411576,0.35359067,0.21086654,8022
403,-0.08930767,-0.013455977,0.2708844,0.11574598,-0.21549146,8022
404,-0.11004898,0.76389515,-0.29372802,0.18169324,-0.8711513,8022
405,-1.0169268,-0.013884267,0.43989107,0.5014483,-0.76318985,8022
406,-1.4395078,-0.3391271,0.62303734,0.2567765,-0.2084553,8022
407,-0.4238142,0.23437572,0.019091817,0.13835238,-0.2915643,8022
408,0.023578862,0.5166443,-1.2499596,0.08219754,-0.24402542,8022
409,-0.34555992,0.19640459,-0.29893523,-0.14608009,0.16042352,8022
410,-0.81696606,-1.6350383,-1.4229642,1.3151243,-0.99900573,8022
411,-0.9101507,0.64590764,-0.62334204,-1.0672334,0.81194305,8022
412,-0.7063586,0.27975023,-0.1873388,0.21829022,-0.2850719,8022
413,0.4636463,-0.227776,-0.83767813,0.20109436,-0.19381368,8022
414,-1.2621163,-0.51417756,-0.48261723,-0.46592027,0.9371802,8022
415,0.06637193,-0.49239188,0.18577565,0.3171521,-0.34549484,8022
416,-1.8569013,-0.43056163,-0.057430603,-0.18996164,0.3607973,8022
417,0.006651247,-0.652699,-0.2600864,-0.37087125,0.5451073,8022
418,-0.054227397,0.13586819,0.298754,-0.6226133,0.2709378,8022
419,-0.4560968,1.0419124,-0.69646966,0.44880795,-1.2476133,8022
420,0.44418895,0.9414733,-1.6250204,-0.67276937,-0.48820868,8022
421,-0.2974417,0.5423334,0.51329887,-0.8620244,0.124998264,8022
422,-0.9458971,0.008376252,-0.50758463,-0.87573886,0.8133275,8022
423,-0.35132152,0.49464354,0.23858073,-0.78651965,-0.72802216,8022
424,0.038959213,-0.19815351,-1.5977051,-0.10769436,0.30925247,8022
425,0.022483474,-0.42280462,0.16902147,-0.12186273,0.1334075,8022
426,-1.3757894,-0.90073615,1.2397422,-0.11502487,-0.66119856,8022
427,-0.05923069,-1.1550634,-0.359187,-1.214735,1.1241913,8022
428,0.81849205,-0.39184406,-0.22386448,-0.3047246,-0.23471224,8022
429,-0.90170085,-0.83378667,1.087885,-0.6735141,-0.38288358,8022
430,0.06510662,-0.09459045,-0.11826486,-0.003567263,0.12865315,8022
431,-0.5933484,-0.79675853,0.7815486,-0.6543441,-0.81094545,8022
432,-0.22726715,-1.0622007,-0.12997457,0.14415583,-0.12889947,8022
433,0.38424453,-0.8401989,-0.46999845,0.19072206,-0.8539909,8022
434,-0.0083362255,0.33788976,-0.13827047,-0.15524893,-0.26350874,8022
435,-0.98078614,0.20102206,-0.33767286,0.1905611,-0.13007003,8022
436,-0.2230941,0.58498645,-1.6493019,0.13000537,0.02372358,8022
437,-1.6494949,-1.3030131,-0.541563,0.6335214,-0.0030737827,8022
438,-1.3327833,-0.65984577,-1.0488114,0.01491725,0.20980844,8022
439,-0.21758388,0.10179705,-1.5351142,0.08506951,0.22569746,8022
440,-0.33568922,-0.6506046,0.13244921,0.21270023,0.03016468,8022
441,-0.22197959,0.3136229,-0.50036556,0.37667575,-0.39919707,8022
442,0.41794333,-0.15063927,-0.56993717,0.05182726,-0.3140128,8022
443,-0.8349193,-0.008044832,-0.5372462,0.48143598,0.111438215,8022
444,-1.3634684,0.34834358,-0.060415838,-0.24081129,0.16428852,8022
445,-0.107600294,-1.6299379,-0.063489616,0.16986561,-0.13213967,8022
446,-0.08539999,-1.3436466,-0.90667284,0.35770863,0.072846234,8022
447,0.05792472,-0.02037094,-1.4685656,-0.09193934,0.36773983,8022
448,-1.5167061,-1.7686309,0.89203936,-1.9965116,-0.19264957,8022
449,-0.7489193,0.28796262,-0.32400948,-0.934801,1.1310687,8022
450,-0.253147,0.27985576,-1.2886096,0.91899186,-1.4539155,8022
451,0.11029208,-1.0109607,0.59571445,-0.8472534,0.42808405,8022
452,-1.3482963,-0.59659505,-2.233546,2.104044,-1.851241,8022
453,-0.54289967,0.6848754,-0.61596197,-0.7372906,-0.5341962,8022
454,0.04981525,-0.069135964,-0.05290688,-0.07891722,-0.081329495,8022
455,-1.0494276,0.18392669,0.78798205,-0.8405786,-0.43300432,8022
456,-0.28524795,0.014536967,-1.4545016,0.7674593,-0.37831822,8022
457,-0.82528836,-0.6628119,0.7969433,-0.67813724,-0.8839201,8022
458,-0.14739709,-0.033230957,-1.7331333,-0.3272287,0.551171,8022
459,-0.91112006,0.76035243,0.42886594,0.34306216,-1.0054704,8022
460,-0.36960378,-0.40983847,-0.13902448,-0.10883793,0.47138417,8022
461,0.71218157,-0.4087615,-0.4697473,0.038140383,-0.1946431,8022
462,-0.1946939,0.93322533,-0.47512528,-0.8099201,0.02587956,8022
463,-0.03522984,0.0027393682,0.5537633,-1.3330178,-0.6416693,8022
464,0.45802373,-0.3829743,-0.46974665,-0.42984465,-0.44023842,8022
465,0.11607719,-0.3469857,-0.035527963,-0.057691727,0.12554164,8022
466,-0.14511706,-0.054727804,0.3868865,-1.8738948,0.75501007,8022
467,-0.05028007,0.56743836,-1.3351673,-0.36052373,0.21729033,8022
468,-0.25449184,-1.6196115,-0.052243397,0.5076973,-0.123238735,8022
469,-1.1472907,0.47275585,-0.6767269,-0.07480802,0.32572973,8022
470,-0.9317725,0.114096075,0.55126965,-0.021917466,-0.5926543,8022
471,-0.09190706,-0.992977,-0.18344723,0.33207202,-0.040893883,8022
472,0.003828342,-1.4809068,0.15600461,0.34444657,-0.19545898,8022
473,-1.3004382,0.08573181,-0.34460297,-0.03466443,0.17535743,8022
474,-1.3738084,0.18401122,-1.7519348,0.05263893,0.5649282,8022
475,-0.56782115,-0.91763747,1.0741612,0.47686493,-0.9563887,8022
476,-0.023064848,0.53202486,-1.4812397,-1.1464666,0.5025384,8022
477,-0.6869388,-0.15564166,0.86500514,-0.23949291,-0.077882275,8022
478,0.28220066,-1.4846417,0.0029695919,-0.8169942,0.63741726,8022
479,-0.0005141969,-0.15962094,-0.3890428,-0.19913399,0.45783865,8022
480,-0.49136013,-0.19141403,-0.47372478,-0.058614947,0.44072205,8022
481,0.03967359,-0.693881,-0.28329036,-0.49679598,0.85467666,8022
482,-0.64004594,-0.31483504,0.39492205,-0.31050956,0.22202358,8022
483,-0.80988693,-0.04560891,0.34832284,-0.23175065,-0.38424692,8022
484,-1.2218949,0.5507879,-0.56514996,0.8876088,-0.5934038,8022
485,-0.16247635,0.84534645,-0.9784874,-0.022573518,-0.28481475,8022
486,-1.1377889,-0.17261483,0.7920918,-1.3179098,-1.4313718,8022
487,-0.10402575,0.63154507,0.11107732,-0.26660025,-0.36280987,8022
488,-1.0732483,-1.1501803,0.39108446,-1.0952458,-0.1264647,8022
489,-0.8855621,0.25168765,0.9096551,-0.5713953,-0.5411252,8022
490,-0.18532786,-0.49511236,-1.0942383,0.00024791324,0.20208538,8022
491,-0.9168776,-0.6051577,-0.07099314,-0.79268944,0.42824233,8022
492,-1.0019226,0.5138229,-0.892752,-0.14336698,0.0037425626,8022
493,-0.5697707,0.21375605,-1.0845698,0.46245798,0.07109523,8022
494,0.13823351,-0.5528385,-0.16502003,0.48596695,-0.26589358,8022
495,-0.38414145,-1.0489687,-0.4795799,0.14346634,0.61952794,8022
496,-1.1642433,0.0044662002,-0.56949955,0.22071923,-0.60535204,8022
497,0.08743465,0.105134696,-0.6370376,-0.48135868,0.57247037,8022
498,-0.6492794,-0.059481315,-0.8795973,1.256356,-1.057414,8022
499,0.11941756,0.14530297,-1.1883261,-0.23342608,-0.14956698,8022
500,0.07400288,0.24761046,-0.527439,-0.5603021,0.4306535,8022
501,-0.4340639,-0.94599766,0.8323453,-0.4358701,0.239849,8022
502,-0.45021263,-0.39603305,0.26534402,0.040950477,-0.3237567,8022
503,0.810121,-1.5008247,-1.0329036,0.41500196,-0.4588742,8022
504,0.43202204,-1.012864,-1.547929,0.25240323,0.30518028,8022
505,0.09358311,0.35492548,-0.43960553,-1.3787317,0.54999274,8022
506,-0.08179472,0.11572999,-0.811318,0.34520754,-0.26074216,8022
507,-0.84137106,0.6470225,-0.33717778,-0.43669537,0.07702773,8022
508,0.29667154,-0.4900672,-1.1719532,0.4816844,-0.26274434,8022
509,0.1375438,-0.5589636,0.3381358,0.28162563,-0.26279294,8022
510,-0.8816872,-0.9285182,1.0598924,-0.5735741,-0.9827757,8022
511,0.41749528,-0.5167574,-0.25655505,-0.56070584,0.458408,8022
512,-0.7672804,-0.71903354,-0.7440124,0.98609424,-0.9737124,8022
513,-0.054589104,0.19165912,0.6296178,-1.4725146,0.32576314,8022
514,-1.0735867,-0.4697252,0.6588201,-1.7851983,0.20943066,8022
515,-0.45521373,-0.5562207,-0.80494153,-0.30200264,0.811514,8022
516,0.4599647,-0.7950187,-1.1347862,0.14165224,0.008993204,8022
517,-0.5349797,0.9622447,-0.25495794,-0.19369148,-0.43389186,8022
518,-0.27757657,-0.40679014,-0.35306537,0.020097464,0.30159497,8022
519,0.06132387,-0.3729973,-0.4029902,0.6171907,-0.333743,8022
520,-0.7429494,-0.8284573,0.7356504,-0.8248755,-0.6625232,8022
521,-0.16112368,0.57353395,0.10241799,-0.35442147,-0.21252042,8022
522,-0.90889895,0.20600316,0.12925555,0.6388882,-0.9023575,8022
523,0.5079029,-1.1018245,0.43599603,-0.2945722,-0.28559488,8022
524,-1.0539539,-0.83181417,0.47430572,-1.117497,-0.16953,8022
525,0.0820724,-0.393019,0.19648425,0.18020405,-0.311117,8022
526,0.4141599,-0.104820624,-0.7222576,-0.54686505,0.4221931,8022
527,0.12796839,-0.40732288,-0.1797188,0.6438161,-0.65195733,8022
528,-0.05910115,0.24717128,0.7240398,-0.9484518,-0.012010168,8022
529,-0.25965253,-0.15679063,-0.15679668,0.60021895,-0.54078364,8022
530,0.6202836,-0.8630326,-1.0617006,-1.1550572,-0.2345305,8022
531,0.01062109,0.21751173,0.03768918,0.054153167,-0.39194658,8022
532,-0.5599764,0.5702421,-0.38107347,-0.7028568,-0.87864226,8022
533,-0.119695656,-0.84412533,0.93557996,-0.5377827,0.024564845,8022
534,0.07245715,-0.64701587,0.47570947,-0.2738577,0.33374977,8022
535,0.508964,-0.6485706,0.9486675,-1.3482208,0.060379297,8022
536,-0.6383153,0.991853,0.16088492,-0.46546546,-0.23072633,8022
537,0.18728371,-0.43273377,0.16100144,-0.26823023,0.027385319,8022
538,-0.44116297,-0.058074743,0.40882787,-0.33960617,-0.20031242,8022
539,-1.0318786,-0.9940712,-0.17408358,0.6631052,-0.46681285,8022
540,-1.0977453,0.025222354,-1.0907621,0.039138477,-0.08694555,8022
541,-1.1285862,-1.1039691,-0.008577555,-1.1404686,0.21711989,8022
542,0.75614023,-1.206998,0.44989553,-0.38648632,0.049033877,8022
543,0.4840808,-0.11323504,-0.5820826,-1.0987138,0.80524987,8022
544,0.33455056,-0.19532438,0.5893305,-0.78392524,-0.13564105,8022
545,-0.8988642,0.81155777,-0.24875207,0.07212517,-0.3785587,8022
546,-0.18900053,-0.17268245,0.050579816,-1.3974489,0.92269063,8022
547,1.30236,-0.67515737,0.10061794,-0.5352286,-0.33865097,8022
548,-0.847759,0.08042237,0.11257413,-0.82650185,-0.10516477,8022
549,-0.004606152,0.23898967,-0.34916475,-0.1276207,-0.74390334,8022
550,-0.23117994,0.47599137,-0.38277346,-0.7363731,0.3896225,8022
551,-1.0380582,-0.07136175,0.16820906,-0.019794652,0.15519553,8022
552,0.18330012,-0.8336629,0.75187105,-1.1816368,-0.26020882,8022
553,-0.73011225,-0.754914,0.8043019,-0.58804315,-0.830058,8022
554,-1.4908522,0.3897737,0.39361334,-0.56866086,-0.45652598,8022
555,-0.38754588,0.46699247,-0.8059864,-0.30927834,0.4642559,8022
556,-0.14180054,0.6435263,-0.5971903,-0.29023966,-0.27172387,8022
557,-0.4674973,0.45984066,-0.7413022,0.25614393,-0.54405683,8022
558,-0.53636026,-1.0559938,0.81896484,-0.5737298,-0.25378057,8022
559,0.47117049,-0.61276954,0.12574825,-0.7738247,-0.59942055,8022
560,-1.1589084,-0.078993104,0.25583878,0.098526515,0.21976782,8022
561,-1.2946616,-0.3194116,-0.30038175,0.18070634,0.39645436,8022
562,-0.80507874,-0.88505834,0.905046,-0.6451806,-0.97285247,8022
563,-0.6251251,-0.74320996,0.8957254,-0.753476,-0.8537268,8022
564,0.2998707,-1.0721506,-0.9122563,0.49493733,-0.43284056,8022
565,0.80432767,-1.8322735,-3.692328,0.4018087,0.50363296,8022
566,-1.4953876,0.2954401,-0.05466085,-1.3134046,1.0605161,8022
567,-0.40771493,-0.1356535,-1.2110617,0.26436856,-0.018963007,8022
568,0.8952017,-0.9455078,-0.27828026,-0.8367627,-0.47077176,8022
569,-0.3232412,0.15045926,-1.320165,0.54177773,-0.41395894,8022
570,0.8020502,-0.24222049,-0.03688721,0.25923508,-1.521586,8022
571,-1.2672828,0.3521658,-0.13888663,-0.012804844,0.21722652,8022
572,-1.1745611,0.041153166,-1.4566981,0.87385523,-0.77039284,8022
573,-0.57404333,0.76436883,-0.7077489,-0.65190816,-0.70557415,8022
574,-0.70985955,0.6620722,-0.57550734,-0.6461724,-0.6051515,8022
575,-0.077780314,-0.10698841,0.36424688,-0.0656024,-0.24436232,8022
576,-1.5023881,0.29172352,-0.4978629,0.46341017,-0.2183136,8022
577,-0.4408483,-0.42907888,-1.9118533,0.17116073,0.22298966,8022
578,-0.1789393,0.75190175,0.25769472,-0.669658,0.013778412,8022
579,-0.04489635,-0.12347681,-0.96223515,0.41988388,-0.098770335,8022
580,0.8733618,-0.8162751,0.20217252,-0.7204254,-0.02535037,8022
581,0.04305295,0.23171213,-1.5088115,-0.65671647,0.7639169,8022
582,-0.77621937,-0.083174214,0.0010625904,-0.58703816,0.61387926,8022
583,-0.07832406,0.20355448,-2.3795376,-0.24168427,0.38113394,8022
584,-1.0585128,0.23523025,-0.43039212,-0.83089674,0.4441793,8022
585,-0.41732395,0.14047424,-0.054289475,-0.15113032,-0.15986088,8022
586,0.53743243,-0.2596297,0.265181,-0.15204148,-1.2645619,8022
587,0.036205873,-0.41707852,-0.91964936,-0.15507518,0.5277821,8022
588,-0.28298214,0.70345837,0.2823229,-1.9602981,0.5244004,8022
589,-1.0747808,-1.2414241,-0.44039723,-0.45221096,0.6828645,8022
590,-0.105400614,0.007923101,-0.3090759,0.18830368,-0.37452978,8022
591,-0.792135,0.59467435,-0.60822,-0.7220574,0.5266042,8022
592,-0.06630175,-0.29497743,-0.6463284,1.106309,-1.1988914,8022
593,-0.84589046,-1.1447321,1.1422018,0.036727715,-1.0850229,8022
594,-0.57218885,-0.21186,0.39979056,-0.15745665,0.25798005,8022
595,-0.7414539,0.11965388,-0.051892396,0.020517914,0.026782792,8022
596,-0.25909546,-0.077180445,-0.25859943,-0.15022734,0.47774646,8022
597,-0.26634347,-0.98164153,-0.72974724,0.1998188,0.38366538,8022
598,-1.20803,-0.122578114,0.51581514,-1.1551127,-0.3366008,8022
599,-2.8431017,2.0874135,-1.3490821,-0.11418282,0.17302345,8022
600,-0.24863626,0.0996292,-1.6824309,0.25352463,0.15717216,8022
601,0.15147556,-0.12107913,-0.47654167,0.33978802,-0.35570082,8022
602,-0.39276654,0.6416373,-0.21655771,-0.24223408,0.048490893,8022
603,-0.8482818,-0.30590427,-0.39496008,0.28063008,-0.001418053,8022
604,0.19898324,-1.0632542,-0.002952479,0.29769108,-0.22036867,8022
605,-1.216625,0.5119963,-0.17095993,-0.24892989,0.19182484,8022
606,0.61373997,-0.73315376,-0.33293408,-0.47144338,-0.7075325,8022
607,0.546382,-0.6083178,-0.65771073,0.12351656,-0.26616433,8022
608,-1.1228241,-0.37073982,-1.355154,0.27040362,0.2919717,8022
609,0.056040883,0.05418189,0.3274681,0.2668636,-0.7876911,8022
610,0.020862415,0.6806563,-0.6179336,-0.13831864,-0.026703393,8022
611,-0.13450904,0.27016804,-0.27236292,-0.18293862,0.06382697,8022
612,-0.34117165,-0.73727494,-0.6749152,0.31073776,0.11754977,8022
613,0.4200252,-1.6150357,-1.2324225,0.10724623,-0.012773114,8022
614,0.27166373,-1.8770565,-3.0650308,0.089545414,0.46611273,8022
615,0.3815287,-0.34314507,0.5793925,-0.7140934,-0.058011815,8022
616,0.10148012,0.27801383,-0.64609236,-0.6040344,-0.053621385,8022
617,-0.3905166,0.56046796,0.17102902,0.012728626,-0.3645325,8022
618,0.2791767,-1.9140393,0.80338365,-0.557686,-0.65267044,8022
619,-0.3656985,-0.5603637,0.9569125,0.121237345,-0.5758226,8022
620,-1.1678922,0.27598882,0.19447626,-0.06896954,-0.6015944,8022
621,-0.89292806,1.0548732,-0.932304,-1.1278725,-0.89747494,8022
622,-0.38280812,0.5260795,0.22709605,-0.19253296,-0.08135501,8022
623,0.51624674,-0.4762846,-0.46624982,-0.5328361,-0.48403496,8022
624,0.5891904,-0.13253538,0.08313011,-1.1268675,-0.0198619,8022
625,0.36884096,0.3382468,-0.9379588,-0.9580494,-0.91832906,8022
626,0.4784172,-0.5114673,-0.033517633,0.10759507,-0.12888706,8022
627,1.1412992,-0.80130184,-1.3971235,-0.8991455,0.44735777,8022
628,-0.90251833,0.1947294,0.20359991,0.050470665,0.03840417,8022
629,0.84951675,-0.9793247,0.23733982,-0.8470346,-0.7410954,8022
630,-0.31207368,0.116394766,0.0062510166,-0.047463167,-0.039780673,8022
631,-0.57518667,0.18930162,0.21853448,-0.41178343,0.20658478,8022
632,0.2806122,-0.47409183,0.26000002,-0.633308,0.3676111,8022
633,0.7975299,0.029043758,-0.18761232,-0.7120878,-0.9985588,8022
634,-0.52648926,0.42109928,-0.42194673,-0.38396046,-0.1892982,8022
635,-0.5746596,0.77916116,-0.74230504,-0.7499975,-0.65746665,8022
636,0.4081468,-1.251116,-0.2360893,0.037897255,0.56361926,8022
637,0.8170111,-0.810764,-0.6009887,-0.8081238,-0.53186953,8022
638,-0.631302,0.18232536,-0.45002136,-0.016414369,0.45970318,8022
639,-0.4981363,0.56985736,-0.5914191,-0.518237,-0.6742416,8022
640,-1.6969448,0.3318907,0.30075952,-0.115291946,-0.38136306,8022
641,-0.90589786,-1.7456884,0.6134398,0.6160089,-1.20838,8022
642,-0.045760483,0.1237675,-0.32449603,0.52187324,-0.4815689,8022
643,0.23177837,-0.083998375,-0.47529688,-0.2033048,0.24147052,8022
644,0.62945014,-0.26192352,-0.4963741,-0.37336347,-0.64172214,8022
645,-2.0193093,0.30218846,0.22467321,-0.03950584,0.03816548,8022
646,0.0583872,-0.20853338,-0.42680192,0.07480313,0.070603795,8022
647,-0.71723354,-0.16370954,-0.27844888,0.46290645,-0.0469021,8022
648,-0.24925838,0.37948957,-0.22311166,0.05022046,-0.3246828,8022
649,-1.0730497,0.3922628,0.24563019,0.44909972,-0.5090656,8022
650,0.2788212,-0.055551723,-1.5571382,0.5437801,-0.5045703,8022
651,0.9150772,-0.95756334,-2.4264398,0.68181306,0.10088088,8022
652,0.024736138,0.04668929,-0.00089451973,-0.6024077,0.20876737,8022
653,0.43319133,0.16555,-0.06247163,-0.7427772,-0.1294036,8022
654,-1.1504669,0.6174326,-0.52727705,-1.1986198,1.0753734,8022
655,-0.84065914,0.42572653,-1.0167652,0.25814056,-0.546662,8022
656,-1.1686752,0.9530648,-0.5660365,0.613941,-1.1913397,8022
657,-0.3445751,-0.4508058,-0.9679328,0.6720171,-0.30891478,8022
658,-0.7406239,0.29009116,-0.032655384,-0.12903695,0.23876868,8022
659,-1.1847959,-1.4760594,0.40856546,-0.27012002,0.32926175,8022
660,-0.52472174,-1.7933769,0.16613567,-0.21017537,0.5055506,8022
661,-0.69161224,-1.3327811,-0.32481518,1.1790739,-1.1505908,8022
662,0.25166166,-0.3631411,0.18202294,0.1577391,-0.35318765,8022
663,-1.1705396,-0.35559782,0.39429748,-0.24169867,0.4007967,8022
664,-0.21067268,0.20039469,-0.43308586,0.034020953,0.045257397,8022
665,-0.3411392,0.4129174,-0.6747379,0.015565923,-0.17041975,8022
666,-0.42501312,-1.5156751,-1.02421,0.8901267,-0.6524719,8022
667,-0.5340389,0.6355075,-0.5977919,-0.6030163,-0.631439,8022
668,-1.2305112,-1.4982235,0.55445737,-0.7683477,-0.38368446,8022
669,0.6243247,-0.92280585,-0.52615255,1.0841954,-1.1055053,8022
670,0.5507912,-0.9173003,-1.1274738,0.5241353,-0.047662064,8022
671,-0.8573769,-0.848755,-1.1968644,1.2834009,-1.0572113,8022
672,0.34558406,0.70688355,-0.35885903,-0.029806798,-0.58840936,8022
673,-0.9748795,1.1034812,-1.5401527,-0.86539084,-0.020915035,8022
674,-0.76373214,-0.27389404,-1.0708227,0.5084852,0.07659184,8022
675,-0.2522286,0.007380131,0.18881395,0.4519903,-0.7519946,8022
676,-0.802477,-0.0007644523,-0.6342137,1.0461186,-1.0207627,8022
677,0.2589503,-0.7873406,-1.1174703,0.5094241,-0.097178,8022
678,0.2179181,-0.249945,-1.2348784,0.5761361,-0.36495814,8022
679,-0.27867466,0.46044397,-0.7473539,0.123616315,-0.25348756,8022
680,-0.07455089,-1.682335,0.09340859,0.46448052,-0.17771682,8022
681,-0.007178019,-1.038956,1.0984007,0.054081198,-0.35194162,8022
682,-0.65501314,-0.2662712,0.6840689,-1.3644747,-0.7059073,8022
683,0.39209038,-0.88111717,-0.5106968,0.7122804,-0.637404,8022
684,-0.57949334,0.7214497,-0.0069438876,-0.3319485,-0.24494664,8022
685,-1.3928869,0.73336774,0.16227834,-1.4851512,-0.44915882,8022
686,0.05278049,-0.40045732,0.12480567,-1.2437022,0.5132756,8022
687,0.9011319,-0.8124991,0.25873595,-1.0073146,-0.73732287,8022
688,0.66671073,-0.6082537,-0.84064496,-0.79509157,-0.7819107,8022
689,-0.74313015,0.9650922,-0.22539173,-0.7132751,-0.5095333,8022
690,1.3605075,-0.98399377,-0.032595847,-0.9455927,-0.62487274,8022
691,-0.23207834,0.17646706,-0.024128113,-0.095599934,-0.050099425,8022
692,-0.9967415,0.6963579,0.25499216,-1.3720683,-0.33990425,8022
693,-0.7599708,1.0194973,-0.3906419,0.039880354,-0.38049588,8022
694,-0.8970982,0.69543314,-0.2735454,-0.42787552,0.021047948,8022
695,-0.38127214,-0.017656239,0.3515474,-1.4624327,0.37035108,8022
696,-0.69420815,0.01929241,0.5263392,0.06368408,-0.42584231,8022
697,-0.19358443,0.23831163,-0.65082645,-0.071339116,0.17048568,8022
698,-0.3938798,-0.6957311,0.7889827,-0.7941012,-0.16627485,8022
699,0.974091,-0.7975159,-0.5593938,-1.0295798,-0.23255713,8022
700,0.37342492,-0.6177931,-1.3076826,-0.6141386,0.70572853,8022
701,-0.27549338,-0.3521566,0.13807212,-0.13542289,0.0976318,8022
702,-0.86795,0.4264307,0.70460516,0.32312903,-0.9251553,8022
703,-0.4837312,-0.8737981,1.166617,-1.1559548,-0.11778453,8022
704,-1.7546142,0.20649746,-1.3595331,0.3776207,-0.23601843,8022
705,0.61674535,-1.3307014,0.6958222,0.3344641,-0.77615875,8022
706,-0.24635723,-0.32027856,0.5850932,-1.3916813,0.91081506,8022
707,0.034037966,0.07302493,-0.27015212,-0.11161091,-0.12519108,8022
708,-1.7908374,0.53665066,0.03997507,0.26692384,0.09073294,8022
709,0.47105616,-0.39765844,-0.5935499,-0.6291173,0.5859418,8022
710,-0.04185038,-0.76711124,-0.6934735,-0.36715665,0.635166,8022
711,-0.272414,-1.7502764,-0.9481706,-0.34394294,0.5660781,8022
712,-0.35488403,0.96446383,-0.6415418,-1.5205352,0.7742354,8022
713,-1.1314464,-0.016400117,-1.8024628,0.20017213,0.07105781,8022
714,-0.91865706,0.0056295996,1.0296775,-0.61624223,-0.19778784,8022
715,-1.322444,-1.126981,-0.31930718,-0.23088859,0.38689372,8022
716,-0.8114237,0.15319747,0.6603052,-0.7073885,-0.08677483,8022
717,0.7679598,0.115153484,0.009222264,-1.2419333,-1.6553272,8022
718,-0.88780034,0.68468887,0.0049056024,-0.43781546,0.108719274,8022
719,-1.3681414,-1.0818357,0.74627596,1.2541575,-1.5074613,8022
720,-2.4830754,-0.51223516,0.663551,0.41460815,-0.37116796,8022
721,-0.86201835,-0.8221861,-1.037359,-0.74564767,0.98473567,8022
722,-0.4969107,0.81942064,-0.38875398,-0.14630696,-0.13505368,8022
723,-0.3805095,-1.4076438,0.20112799,-0.3614211,0.50175226,8022
724,-0.8348527,-0.052752525,0.3323905,0.023714507,-0.019230964,8022
725,-1.3229557,-1.8019419,2.1509414,-1.7958862,-1.8038607,8022
726,0.2783836,-0.45627305,-1.1566045,-0.87969035,0.9411896,8022
727,0.52169955,-1.1161399,-0.5730626,0.16604964,0.32622293,8022
728,-0.90971947,-0.09928248,0.47881478,-1.1013927,-0.33452255,8022
729,-0.27716428,0.10979395,-0.9766685,0.061894175,0.26747727,8022
730,0.3966527,-0.9413687,-1.7822908,0.8374089,-0.91806006,8022
731,0.2735109,-0.86292475,-1.6646122,0.44498375,-0.26739985,8022
732,-0.573344,-0.67751837,0.7507831,-0.1763029,-0.75626683,8022
733,0.12010404,-0.4804563,-1.958884,-0.030306792,0.35846114,8022
734,-0.048585348,-1.5966506,-0.7374763,-0.7277139,1.088513,8022
735,0.7997526,-0.7326783,0.3781651,-0.91260266,-0.44947317,8022
736,-1.1198084,0.87946725,-0.27814016,-0.60879165,-0.092954956,8022
737,-0.0053796386,0.19268379,-0.0021834248,0.23776296,-0.6637817,8022
738,-0.7218017,-0.87887764,-0.8943418,0.98299444,-0.9593432,8022
739,-0.5241504,0.70262367,-0.47753206,-0.2669074,0.11793209,8022
740,-0.8442488,-0.04187855,0.026497941,0.3693717,-0.20205203,8022
741,-1.0936084,0.8187304,0.26692095,-0.5892678,-0.7266813,8022
742,0.5494837,-0.28887123,0.16901322,-0.5092822,-0.07021174,8022
743,-0.51161957,-1.7223666,-1.3053129,0.5949499,-0.28735408,8022
744,-0.24634585,-0.12304181,-0.09278267,-0.09070183,0.23242125,8022
745,-1.1938885,-0.9907991,-0.78024393,1.4227169,-1.4147403,8022
746,-1.2488012,-1.36504,1.6031253,-1.2668552,-1.5011375,8022
747,-0.27700743,2.329467,-1.5335294,-0.4028721,-1.1016582,8022
748,-0.6812053,0.08343803,0.9618462,-0.90139526,-0.7362929,8022
749,-0.53922284,-0.17162436,0.26611575,-0.110161126,0.1483261,8022
750,0.18408152,-1.0671155,0.27841127,-0.30997908,0.22260927,8022
751,-0.98753375,0.9977787,-0.38680264,0.43086436,-0.9018574,8022
752,0.8573483,-0.7164784,-0.85787135,-0.514159,-0.60162157,8022
753,0.42536956,-0.103983834,0.7908961,-0.7520471,0.12432956,8022
754,-0.38487157,-0.20262031,0.9377617,-0.7928877,0.053897385,8022
755,0.8042526,-1.2023839,0.23666233,-0.70347583,0.17986342,8022
756,0.3601675,-0.8032759,-0.07651745,-0.58458763,0.62089056,8022
757,-1.4681962,0.6124568,-0.5913617,0.21315815,0.14881611,8022
758,-0.7894503,-1.1605048,-1.1860701,0.95837945,-0.7005013,8022
759,-0.49807,0.5110845,0.5042472,-0.8002266,-0.53760946,8022
760,-0.73558396,0.3665511,0.634817,-1.0442784,0.08700818,8022
761,0.27489856,-1.4659961,-0.64603126,0.2504175,-0.026089234,8022
762,-0.41191158,-0.6672899,-1.4212956,0.5910177,-0.11346925,8022
763,0.48873037,-1.2586201,0.17430447,0.19330081,-0.47477585,8022
764,-0.12195132,-0.711414,-0.32207426,-0.03734976,0.17642075,8022
765,-1.2215475,0.23083128,-1.4135509,0.506527,-0.43901598,8022
766,1.6539117,-1.5130062,-1.0451185,0.3087045,-0.5695256,8022
767,-0.6515227,0.70457345,0.18026944,-0.5346782,-0.5748036,8022
768,-0.41765678,-0.09692729,-1.5705552,0.13436651,0.29612884,8022
769,-1.2614316,0.25447515,-1.4334009,0.3505936,-0.35554725,8022
770,-0.84987015,0.46552342,-0.015296836,0.38538453,-0.60228044,8022
771,-0.88121367,-0.29686654,-1.9701428,0.38086691,0.35704324,8022
772,-0.5927276,-0.07749508,0.07575434,0.0225712,0.080774605,8022
773,-1.3390104,-0.051699888,0.5055552,-0.6583744,0.17963709,8022
774,-0.018363876,-1.3198879,-1.4307672,0.30363864,0.091210015,8022
775,0.3808415,-0.65498966,-3.6237526,0.7335099,-0.68979996,8022
776,0.66148394,-0.009134406,-0.23825417,-0.79245317,-0.7336513,8022
777,0.59110576,-0.712091,-0.10635768,0.30008885,-0.32644248,8022
778,-1.7079883,-1.7627119,1.9101762,-1.5614818,-1.3052849,8022
779,0.7175255,-1.295114,-0.9104964,-0.9758043,0.8753372,8022
780,-1.0852565,0.81575,-0.08474409,-0.763248,0.24261183,8022
781,0.05701002,-0.091457985,-0.6148801,-0.23118295,0.39860934,8022
782,-0.9904332,0.2020529,0.17253199,-1.0767514,-1.0406495,8022
783,-0.5755566,0.35547075,-2.0551775,0.03374673,-0.049282305,8022
784,-0.50673604,-1.1288278,-0.1304776,0.35890225,-0.012198667,8022
785,0.064759515,0.5437982,-1.9977475,-0.9084825,0.6814511,8022
786,-0.13949144,0.45908976,-0.17023283,-0.055531904,-0.17620829,8022
787,-0.26884317,0.52916914,-0.7257842,-0.29332554,-0.25331962,8022
788,0.350663,-0.2613704,-0.31960824,-0.35852212,-0.33847106,8022
789,-0.5918657,0.26174703,-0.027721355,0.3041823,-0.50415176,8022
790,-1.3118925,-0.83784306,1.1772604,-1.523769,-0.36688668,8022
791,0.07421599,-0.29425928,0.4769451,0.03247199,-0.38419044,8022
792,-0.66411567,0.48123252,-0.1837282,-0.33562994,0.2711683,8022
793,-0.5134081,-1.8561234,0.12832874,-0.056758426,0.29138723,8022
794,0.2943637,-0.22555159,0.5880446,-1.0618825,0.56349725,8022
795,-1.3928148,-0.19379543,0.35922545,-0.031447858,0.014949845,8022
796,-0.55996454,1.0049396,0.27425307,-0.13683699,-0.7076419,8022
797,-0.005123235,-1.1560622,0.8531316,0.26402232,-1.2865978,8022
798,1.2614045,-1.3773715,-0.18130271,-1.1426514,-0.12711403,8022
799,0.18088652,0.061092116,0.45862255,0.07175147,-0.8798096,8022
800,0.6850458,-0.41223454,-0.8561185,0.38139135,-0.36330423,8022
801,-0.0040114205,-1.0233604,-0.19642177,0.40444636,-0.14801101,8022
802,-1.1870619,1.2087365,-0.47518685,0.04496863,-1.0324641,8022
803,-1.2272805,0.41987333,-0.03036396,-0.389729,0.11948472,8022
804,-0.84621817,-1.0071359,0.8634997,-0.6152821,-0.17399664,8022
805,-1.5725359,-0.2687383,-0.36034104,0.38153535,0.09897201,8022
806,-0.53469354,0.55401725,-0.42065945,-0.7064214,-0.49110425,8022
807,0.33337742,-0.29905877,-0.3886805,0.32170784,-0.37840462,8022
808,0.24677001,-0.34167683,0.72786516,-0.9724894,-0.22799449,8022
809,-0.69237024,0.64101565,-0.6897395,-0.70287526,-0.14563882,8022
810,-0.83875144,0.7426972,-0.3765686,0.1756127,-0.35870874,8022
811,-2.1497653,0.3758121,1.0009053,-0.1903511,-1.7530768,8022
812,-1.0202299,0.35180336,-0.12827227,-0.6150792,0.19802998,8022
813,-1.1165825,-0.85239047,-0.9574175,1.2202735,-1.1502438,8022
814,-0.37462986,-0.43870568,0.5089777,-1.0354548,0.5011515,8022
815,-0.34912813,0.7082481,-0.4577144,-0.3534912,-0.19460839,8022
816,-0.71824265,0.7299466,0.64780354,-0.8409881,-1.3705472,8022
817,0.27682513,-0.7100823,-0.27510872,-0.03305225,0.22146182,8022
818,0.65881646,0.37914634,0.025324477,-0.8885431,-0.36127552,8022
819,-0.2106303,-0.96956253,-1.3047202,1.7376354,-1.4883178,8022
820,-0.17147672,-0.99856824,1.2113397,-1.0887272,0.24167019,8022
821,-1.0285791,0.2954717,0.46243846,-0.5593102,-0.24509178,8022
822,0.62199926,-0.5326335,-0.44597173,-0.6517966,-0.573822,8022
823,0.9322723,-1.3818252,0.6633003,0.21806091,-0.65918994,8022
824,-0.4649163,-0.4986352,0.3559143,-0.04614921,0.20155935,8022
825,-0.5116809,-0.034654994,-1.8206866,0.7122626,-0.5934211,8022
826,-0.097344376,0.06712193,0.18143451,-1.1073915,0.4538589,8022
827,-0.2040852,-1.2543746,-0.018975452,0.064924814,0.302372,8022
828,0.20225926,-0.2807186,-3.5720005,-0.09680666,0.2956208,8022
829,0.9201308,-0.8938064,-0.7140782,-0.8780519,-0.87381876,8022
830,0.0645897,-0.086757734,-0.10024762,-1.0825582,0.77079445,8022
831,-1.5088176,-1.0125117,2.0084352,-1.636548,-0.49594048,8022
832,-0.3474218,-0.46291116,-0.11464669,1.0490777,-0.99039185,8022
833,-1.0827949,-0.47465962,0.9208894,-0.416732,-0.3023301,8022
834,-0.5061922,0.44764665,-0.3958145,-0.024798611,0.08932492,8022
835,-0.8004406,-0.9712683,0.6652687,-0.5588056,-0.18745504,8022
836,0.60807365,-0.7181648,-0.6768517,-0.47383606,0.29362386,8022
837,-0.10797386,0.2531622,-0.23915705,-0.17888682,-0.08864671,8022
838,-0.058321048,-0.81892896,0.31928572,-0.18878654,-0.10590023,8022
839,0.35601684,-0.5144126,-0.20790328,0.18584187,-0.055189285,8022
840,-1.260636,-0.2708555,0.616452,-1.0148444,-0.3742895,8022
841,-0.13988067,-0.37302518,0.36392844,0.0065311934,-0.10033654,8022
842,-0.6988707,-0.7606681,0.8306837,-0.8164248,-1.0408014,8022
843,0.3067941,-0.33036909,-1.0331384,0.8244171,-0.44275078,8022
844,-0.15936506,0.15382138,0.0066356477,-0.96727544,0.5221096,8022
845,0.02621692,-0.89233977,0.977903,-1.9300883,0.25425434,8022
846,-0.36077592,0.2524224,-0.68586355,-0.20453502,0.33769014,8022
847,-0.99124324,0.108808726,0.09675968,0.605074,-0.6411022,8022
848,-0.2877339,-0.8228067,0.773903,-1.0441185,-0.6455903,8022
849,-1.5949945,-0.47864032,-1.0020554,1.0896649,-0.80895525,8022
850,-0.9090171,0.57900965,-1.1166488,0.4295679,-0.4224191,8022
851,0.20273827,-0.59816337,-0.2968368,0.56396776,-0.52349406,8022
852,0.06454274,0.0015221782,0.30674565,-0.22455455,-0.116731055,8022
853,0.20622495,0.09129982,0.4867915,-0.8592958,0.19327845,8022
854,-0.14287996,-0.24772432,0.19481526,0.1692161,-0.31133875,8022
855,-0.006362321,-0.19398865,-0.8824878,-0.68749946,0.784366,8022
856,-0.6575504,-0.17381674,0.5792681,0.58736897,-1.21671,8022
857,-0.33010995,-0.45612618,-0.7902661,0.3483501,0.019256989,8022
858,-0.38033235,0.42724982,0.13992913,0.2914984,-1.412878,8022
859,-0.6821982,-0.1620134,-0.65709084,0.66493,-0.2766767,8022
860,-0.47725773,0.23466633,-0.05448931,-0.31925735,0.1713025,8022
861,-0.47842652,-0.8122946,0.8569291,-0.6640473,-0.75438833,8022
862,-0.9901889,-1.478958,-0.011479763,0.7285205,-0.5106076,8022
863,0.66845185,-1.0999278,-0.9668814,-0.12780449,0.3482983,8022
864,-0.34182665,1.0186107,-1.2003462,0.095557295,-0.7773241,8022
865,-1.6599998,0.48242596,-0.57903266,0.59834,-0.3742678,8022
866,-0.037709888,-0.0061338386,-1.3057473,0.5598839,-0.33791283,8022
867,-0.23786075,-0.7124888,-3.3633277,1.1863413,-0.8325018,8022
868,-0.8118123,0.95182997,-0.8621441,-1.1155187,-0.8580818,8022
869,1.1445076,-1.6045852,-0.017482672,-0.56737894,0.051136993,8022
870,-1.0274818,-1.6432225,0.6974357,0.20666943,-0.78029823,8022
871,1.3729435,-2.0951784,-0.4717163,0.4299687,-0.34528446,8022
872,0.13360223,0.3561703,-0.12827107,-0.71643645,-0.34712616,8022
873,-0.17493446,0.35792384,-0.9713123,0.41128886,-0.60498416,8022
874,-0.45323634,-0.5699132,0.16160816,0.7248513,-0.63512546,8022
875,-0.48691827,0.7083725,-1.3990806,0.35743997,-0.1609568,8022
876,-2.2937768,1.146669,-1.8670946,-1.1240143,0.6095858,8022
877,-1.1362326,-0.59960103,0.7958782,-0.2988656,-0.4854481,8022
878,0.10469685,-0.36921257,-0.9225349,0.11503897,-0.06326158,8022
879,-0.3305077,0.4911787,-0.007370827,0.3269234,-0.54919356,8022
880,-0.8590167,0.57001483,-0.025922278,-0.818459,0.61699694,8022
881,-0.4349517,-1.256972,-0.72839534,0.5403141,-0.14337814,8022
882,0.7045059,-0.8612117,0.48102137,-0.37071165,-0.7989579,8022
883,0.9525481,-0.889197,-0.99103004,-0.5858611,0.5297401,8022
884,0.121798605,-0.5504711,-0.18262233,1.0566759,-1.1550795,8022
885,-0.22683783,-0.99149424,1.0808219,-0.5732668,-0.7749418,8022
886,-0.6098561,-0.9117841,-0.04042381,0.11798422,0.113404036,8022
887,-0.415504,-0.8578617,-0.20306349,0.34661248,-0.11609757,8022
888,0.21136336,-1.645753,1.6723,-0.24738479,-0.63297635,8022
889,-1.4395431,0.35721096,-0.001472126,-0.50684357,0.043720234,8022
890,-0.0048358026,0.17699276,0.109624416,-1.1544999,0.8449879,8022
891,0.03258389,0.5066224,-0.3746408,-0.31172934,0.027316757,8022
892,0.6521871,-0.3110913,-1.1431843,-0.053030822,0.32742193,8022
893,0.74688756,0.4002286,-0.8176503,-1.2278434,0.100452594,8022
894,-0.14760512,-0.01928754,-0.49383155,0.32911977,-0.7484008,8022
895,0.48018858,0.22655463,0.3508781,-1.12023,0.23059107,8022
896,-0.14956403,-0.1340451,0.42069155,-0.25457358,-0.1193502,8022
897,-1.0623802,-0.20952679,0.98975307,-0.87038445,-0.53512144,8022
898,1.0375909,-0.876414,-0.58701485,-0.32920298,-0.6971419,8022
899,0.56038946,-0.8162857,-0.6225612,0.42325383,-0.83505654,8022
900,1.0390233,-1.0829927,-0.23128872,-0.81031066,0.62306494,8022
901,-0.7905226,-0.21091452,0.5806713,-0.56750673,-0.54943395,8022
902,-0.43400759,0.13061675,0.35605595,0.13613045,-0.23470825,8022
903,-0.12919316,-0.09469914,0.10446494,-0.25076434,0.017001795,8022
904,-0.5894447,0.28087527,-0.9296163,0.7578787,-0.4628518,8022
905,-0.15502265,0.41825393,-1.0889469,-0.6501554,0.24481642,8022
906,-0.09901182,-0.09723308,0.7500959,-0.3146108,-0.113802716,8022
907,0.096282,0.18898071,-0.5701698,-0.14004399,0.2076386,8022
908,-0.16966493,-0.8027388,-0.8906642,-0.19850561,0.5221431,8022
909,0.7385133,-1.59284,-2.948167,-0.2735801,0.4139761,8022
910,-0.08203707,-1.1524622,-0.4710428,0.87859285,-0.12004861,8022
911,-0.44423574,-0.15850551,0.02825246,0.8678249,-1.0536476,8022
912,0.5830058,-0.4824038,0.41840065,-0.7660817,0.27564847,8022
913,-1.0826539,-0.31193364,0.7713273,-0.27834195,0.0403215,8022
914,-0.8802191,-0.42556557,0.49946874,0.64210474,-0.5996572,8022
915,-0.6729257,0.54763806,0.5873603,-0.03766763,-0.56102395,8022
916,0.12696946,0.26519358,-0.46175474,0.26329657,-0.36956298,8022
917,0.53782815,-0.41468623,0.054984286,-0.98346096,-0.51208496,8022
918,-0.62597394,0.43105602,-0.59495616,-1.0978026,0.32526255,8022
919,-0.6916126,-0.44582358,-0.12406643,0.19520198,0.029662104,8022
920,0.3400337,-0.40873992,-1.2622077,-0.38667595,0.45649102,8022
921,0.47725043,-0.6273369,-0.43502706,-0.9037477,0.7139939,8022
922,-0.021242857,-0.49036786,0.4354583,-1.2617816,-0.34994966,8022
923,-0.8394444,-0.9174584,1.1332084,-0.8651887,-1.1810364,8022
924,0.5326531,-0.6808882,-0.4631241,-0.31273386,0.26627606,8022
925,-0.27541223,-0.32767415,-0.19152483,0.2574569,-0.19299924,8022
926,-0.6707075,0.3118479,-3.0867074,0.95051175,-0.54522157,8022
927,0.13412847,0.24612856,-0.7902571,-0.1814864,0.21608423,8022
928,1.1540474,-1.0593834,-2.20835,0.19280748,-0.54788744,8022
929,-1.0143564,0.16591649,0.091234006,-0.11831565,-0.43200454,8022
930,0.98061144,-0.7180628,-0.64561445,-0.06045475,-0.3218907,8022
931,-0.62869406,0.4228383,0.28947374,-0.73001796,0.36345077,8022
932,-0.52254647,0.015650013,-0.8287906,0.64698225,-0.57937324,8022
933,0.99548256,-1.5028578,-0.6323473,-0.44960558,-0.1833188,8022
934,0.6021898,-0.6032065,0.47020778,-1.0363007,0.35570255,8022
935,0.33070347,0.41720337,-0.81565285,0.23406115,-0.5957209,8022
936,-0.04322492,-0.8364073,-1.4941452,0.0393162,0.29719543,8022
937,0.16141349,-0.5202235,-0.81734216,0.116420016,0.17901552,8022
938,0.033504095,-0.69116896,-0.2553618,0.20556255,0.08389995,8022
939,-0.99736995,-0.59726334,2.4484234,-0.56613666,-1.9765419,8022
940,-1.2999041,-0.5169026,-1.0564862,0.4927885,-0.24770658,8022
941,-0.6884749,0.11132852,-0.63001937,0.20232253,-0.6029499,8022
942,-1.1498446,-0.5215029,0.620357,-1.4532019,0.10048164,8022
943,-1.2370795,-0.30586174,0.007058069,1.1108823,-1.2976997,8022
944,-0.055908367,0.021238916,-1.6843098,0.47019702,-0.52232116,8022
945,0.74974513,-0.93968076,0.028487153,-0.37773618,0.37927568,8022
946,-0.552534,0.19698922,-0.4088986,-0.3150491,0.57888836,8022
947,-2.0119152,1.560141,-0.5677741,-0.2522903,-0.27813995,8022
948,0.48149917,-0.6085604,0.052884918,-0.32152158,0.30205822,8022
949,-0.39963394,0.3283326,-0.3468869,-0.9198792,0.9695984,8022
950,0.3868429,-0.04045094,0.25828782,-1.0597038,-0.23620825,8022
951,0.524699,-0.07678315,0.40318117,-0.7563789,-0.72524524,8022
952,-1.7281194,1.0753466,-1.38348,0.66764134,-0.6549447,8022
953,0.40600136,-0.79535884,-0.9645977,0.24257134,0.120104454,8022
954,-0.9416673,2.1586401,-2.163271,-1.1671942,-1.8712722,8022
955,-0.30002248,-0.24321112,-0.64913064,0.4061157,-0.05423126,8022
956,0.0038001256,0.15868469,-0.0019163546,-1.2180684,0.05684454,8022
957,0.43485036,-1.343022,-1.0496542,0.98151267,-0.9897946,8022
958,-0.41934204,-0.62124044,-1.9498056,0.5431942,0.36324415,8022
959,-0.9606664,-1.0600243,0.3350512,0.25317907,-0.3225252,8022
960,-1.0153825,-1.1696093,0.63094425,-0.944704,-0.3943419,8022
961,0.44061524,-0.05759725,0.3867824,-0.31252316,-0.60201967,8022
962,0.79805464,-1.2902495,0.0631455,-0.77607435,0.5318149,8022
963,-1.2860606,-1.0158707,-1.2070974,0.34872964,0.015615448,8022
964,0.18326856,0.68231326,-0.44370958,0.053266965,-0.6506162,8022
965,-1.0775164,-0.89722234,0.17877139,0.29267585,-0.33264148,8022
966,-0.42804736,0.25674298,0.60182965,-0.03831495,-0.20735635,8022
967,0.35386527,-1.3362452,-0.03525898,-0.51595587,0.3706211,8022
968,-0.03333722,0.89900535,-0.8386785,-0.6982627,-0.0815892,8022
969,0.56493723,-0.3605721,-0.28747243,0.39715853,-0.47999045,8022
970,1.3283525,-1.0093732,0.60478324,-0.78014755,-0.9312052,8022
971,-1.0884115,1.0518209,-0.6320135,-0.5695358,0.25790572,8022
972,-2.214864,-0.9044041,1.1201342,-3.451303,0.578256,8022
973,-0.035935346,-0.11298417,-0.18563554,0.07561175,-0.14610295,8022
974,-0.48349518,-1.4093394,-0.23849647,0.05157018,0.32843474,8022
975,-0.6439099,0.45696864,-0.010005124,0.4945518,-0.57899743,8022
976,-0.16547929,-0.60404295,-0.22728448,0.06478035,0.41650137,8022
977,-0.47459823,-0.89939016,0.5371083,-0.477492,-0.50881654,8022
978,-0.47175926,0.040914558,0.55423486,-0.17560126,-0.004951015,8022
979,-0.3495722,-1.6708987,0.9427999,0.41084343,-1.3825779,8022
980,-0.56571877,0.78412646,-1.3325424,0.40108705,-0.8585829,8022
981,-0.9849294,-0.5942681,0.7922483,-0.8942986,-0.31638518,8022
982,-0.060773358,0.3094321,-0.2983494,-0.12905423,0.025608148,8022
983,0.56860155,-1.283199,1.0159558,-0.56551206,0.27763775,8022
984,0.47530618,-0.4148483,-0.49563316,-0.41745096,-0.49382183,8022
985,-0.068978995,-0.317353,0.41535568,-0.5041537,0.30839875,8022
986,0.24944918,-0.8998585,-0.09064007,0.3961053,-0.3284822,8022
987,0.6797492,0.06894403,-0.13735162,-0.20540713,-0.30007696,8022
988,-0.082773685,-1.0925767,0.4972416,0.18392873,-0.53638947,8022
989,-1.2433996,-0.06871846,-0.39011914,-0.39709172,0.92796373,8022
990,0.6634084,-2.9438314,-0.6608358,-0.33382213,0.7817031,8022
991,0.5443839,-0.38210416,-0.4542164,-0.35745093,-0.3874875,8022
992,-0.9036046,0.26657403,-1.3805436,0.5991274,-1.1667018,8022
993,0.03174086,-0.82469374,0.54542464,-0.13554107,-0.109142646,8022
994,0.14395034,-1.4785556,-0.54058367,0.035438288,0.021814283,8022
995,0.33750916,-0.7358808,0.8225361,-0.7384361,0.3465023,8022
996,-0.81330866,-0.6907323,1.0298167,-0.06799425,-0.15412052,8022
997,-0.6853253,0.48413795,-0.92120713,0.12065202,-0.100595884,8022
998,-1.2487309,-0.956523,1.182282,-1.0286378,-1.0146319,8022
999,-0.0639469,-0.015184147,0.008239217,-0.3366675,0.17363787,8022
1000,0.035960592,-1.1891977,-0.8597562,0.68803835,-0.5316422,8022
1001,-0.25078905,-1.3501707,0.5070868,-0.25939107,0.00023830369,8022
1002,-1.1509132,0.15231039,0.41714603,-0.25546724,-0.36545992,8022
1003,-0.60362655,0.5973239,-0.3162591,-0.64786696,0.38672215,8022
1004,-0.30898762,0.25701892,0.058586188,-0.1593808,-0.022837743,8022
1005,-0.07007357,0.44812852,-1.2309177,-0.3868744,0.23873945,8022
1006,0.2379786,-0.5192842,-0.20118128,-0.3269838,0.38057137,8022
1007,-0.8765617,-1.1622946,1.3411058,-1.1182123,-1.5243343,8022
1008,-0.8488114,0.33708632,-1.0049598,0.4218552,-0.21332455,8022
1009,0.61921674,-1.0624093,0.6994371,-1.1088533,0.15664884,8022
1010,-2.639389,1.4532337,-1.7715071,-0.102085434,-1.441803,8022
1011,0.018437563,-0.14941502,0.461592,-0.777546,-0.13931671,8022
1012,-0.90450054,-1.3291446,1.2779762,-1.1474515,-1.0741738,8022
1013,-0.90429074,0.853662,-0.66747254,-0.65493333,-0.06907283,8022
1014,-1.059125,-0.87124985,-0.91007257,0.34425268,-0.10685462,8022
1015,-2.9780388,-2.3206034,1.2059071,-2.226366,-0.23530626,8022
1016,0.16483852,0.6124131,0.15738864,-0.08440359,-0.7652432,8022
1017,0.7865028,-0.68396485,-0.61728656,-0.835948,-0.72104585,8022
1018,0.4929963,-0.23631668,-0.39826524,-0.20036107,-0.50394577,8022
1019,-1.0950549,0.22117588,-1.0574634,0.7039822,-1.1699785,8022
1020,0.41049263,0.02081183,-0.5918014,0.5833322,-0.77158725,8022
1021,-0.16287939,0.5221985,0.28060916,-1.2509706,0.26575127,8022
1022,-0.7123392,0.12402585,-0.5396313,-0.4009068,0.8025072,8022
1023,-1.0273395,-0.26565653,-0.14299774,0.51667106,0.046016816,8022
1024,0.26853585,-0.1856803,0.19174881,0.29259345,-1.701936,8022
1025,-1.6206316,0.5682138,-0.03848425,-0.38535577,0.095071964,8022
1026,-1.1531678,0.23859808,1.0805571,-1.2424774,0.6372076,8022
1027,-0.5439725,-1.2499502,-2.2687006,1.3188406,-0.80630976,8022
1028,-0.80387443,-1.0413663,-0.29742512,-1.1281592,0.5798075,8022
1029,-0.18657269,0.048209544,0.27897245,-2.6173086,1.8630781,8022
1030,-1.1809764,-1.2206464,0.88491493,-1.2371606,-0.49045125,8022
1031,-0.20761357,0.40701708,-0.67337847,-0.42915207,0.0787056,8022
1032,0.43509635,0.15069729,-0.813388,0.0026395193,-0.13025899,8022
1033,-1.003782,0.26455912,0.19710484,-0.07328922,-0.069941774,8022
1034,-0.028530354,0.0031683752,-0.38654035,-0.12835805,0.19247833,8022
1035,0.2640576,-1.4275619,0.28794482,-1.0435774,0.5846021,8022
1036,0.14926942,0.10512216,-0.42848396,-0.1616141,0.078583196,8022
1037,0.95647806,-1.0740031,-0.9069536,-0.67225945,0.4899287,8022
1038,0.4906063,-0.60777664,-0.10939749,-0.5787204,0.3068062,8022
1039,-1.3779807,0.5502584,0.10558578,-0.8169665,0.4136608,8022
1040,-0.028761802,-1.1236517,-1.4314555,0.4746014,-0.25529376,8022
1041,0.21968202,-0.92162013,-0.76873434,-0.25501814,0.28755575,8022
1042,-0.2480405,-0.40836424,-0.69049823,-0.6587659,0.8457054,8022
1043,0.12432619,0.017536428,-0.5644115,0.102574535,-0.14566988,8022
1044,-0.81588435,-0.96619976,1.121534,-0.9537074,-0.97569174,8022
1045,-0.5059279,-0.16877866,-2.1741333,0.6248422,-0.38142553,8022
1046,-0.08478038,0.098185234,0.03262801,0.09799053,-0.32990727,8022
1047,0.18498974,0.07396138,-1.0742732,0.17385821,0.0453577,8022
1048,-0.32970268,-1.158601,0.59690833,0.13007827,-0.53269666,8022
1049,0.0044529242,-0.4407147,-0.31983006,0.25628373,-0.10430788,8022
1050,-0.5121632,0.45581833,-0.69542164,0.49567252,-0.5771631,8022
1051,-0.21417436,-0.043747798,0.7151597,0.34927157,-0.90620273,8022
1052,-1.9799066,0.29861584,0.05070341,0.38917518,-1.5463684,8022
1053,-0.75745636,-1.1758713,0.46879944,0.19616012,-1.340952,8022
1054,0.14819402,-0.004945661,-0.25663096,-0.40444574,0.37653857,8022
1055,-0.06650674,-0.7702286,1.1173998,-0.007568878,-0.7558193,8022
1056,0.08591473,-0.71446735,0.12472911,-0.026403753,0.032575224,8022
1057,-0.47537002,-0.2503175,0.30554017,0.21716414,-0.14343527,8022
1058,-1.1619865,-1.1718196,-1.1853169,1.1809368,-1.1477749,8022
1059,0.58138764,0.66600084,-1.1987288,-0.55627084,0.071031705,8022
1060,-1.1459283,-1.1872693,1.3245577,-1.1495363,-1.3733593,8022
1061,0.0062461235,-0.29930797,-2.1264577,-0.2288823,0.38352892,8022
1062,-0.37604266,-1.0877496,0.045349717,-0.15196835,0.3323849,8022
1063,-0.56986976,0.11635004,-1.132218,0.2583117,0.13312365,8022
1064,-0.5593425,-1.9225601,0.67748886,-0.050505415,-0.072949864,8022
1065,-1.2523708,0.27911413,-1.3179855,-0.7079023,0.6157702,8022
1066,-1.083985,0.15425195,-0.089706555,0.5570651,-0.34705034,8022
1067,-0.24447252,1.2109265,-1.1218321,-0.28967366,-0.2448058,8022
1068,-1.2905872,0.4699379,-0.38545015,0.20467845,0.12243953,8022
1069,-1.2086254,0.42072138,0.43372375,-0.061566684,-0.35250196,8022
1070,-0.40499184,0.30969107,-0.5129716,-0.8486444,0.98592347,8022
1071,0.2183423,-0.39524943,-0.098769434,0.34856477,-0.28771845,8022
1072,-0.15673876,-1.0288461,-0.027741672,-1.0754642,0.57314396,8022
1073,-0.8092065,1.0594612,0.15355177,-0.63545173,0.07406727,8022
1074,-0.43391183,0.013714022,0.39320397,-0.653797,0.26253057,8022
1075,0.4217579,0.1495566,-0.058429107,0.20813356,-0.80989766,8022
1076,0.6194753,-0.7716979,-0.9696511,-1.1684767,1.1676285,8022
1077,-1.4478188,-1.0087831,0.68187386,-0.13209093,0.005448534,8022
1078,0.18329945,-1.7200847,-0.07883557,0.19337872,-0.23962456,8022
1079,-0.2152559,-0.99789745,0.5552824,0.33743882,-0.621164,8022
1080,-0.1671401,-0.8267071,0.40697882,-0.4976394,0.22179118,8022
1081,0.50684255,-0.26840964,0.34497833,0.1711513,-0.8704282,8022
1082,-0.957709,-1.1057112,0.10954608,-1.2090408,1.0280195,8022
1083,0.1535209,-0.10710285,-0.10869788,-0.0861967,-0.13733284,8022
1084,-1.226864,0.6173898,-0.5844348,0.43847275,-0.3438816,8022
1085,0.5587405,-0.68417984,-0.60029614,-0.4943214,-0.6980814,8022
1086,1.3321735,-0.92562586,-0.272925,0.23775831,-1.1012915,8022
1087,-0.29045847,0.8346632,-0.29981473,-1.0284032,0.053570267,8022
1088,-0.6859151,-0.83891255,0.9717552,-0.72428656,-0.93143,8022
1089,0.24122426,-1.558874,0.13370334,0.21846946,-0.3089531,8022
1090,-0.10792986,-0.49840945,0.34517592,-0.56070054,0.46546042,8022
1091,-0.25054312,0.31785032,-0.96398526,0.47966057,-1.0922548,8022
1092,-1.409787,-1.4309084,1.7054646,-1.4191862,-1.708382,8022
1093,-0.16679054,-0.08715804,-0.27820104,-0.9807003,0.82774645,8022
1094,0.45193216,-1.542422,-0.13015193,0.6187398,-0.7509059,8022
1095,0.38992134,-1.3649056,-0.2685352,0.11382784,0.18516435,8022
1096,-0.49366248,1.2666571,0.05026256,-1.0883827,0.062756404,8022
1097,-0.80613923,0.4009291,-1.1139492,0.6941537,-0.7812537,8022
1098,0.44280976,-2.0890493,-1.4594767,0.34411854,0.050470337,8022
1099,-1.7165129,0.98451775,-0.72970796,0.35090372,-0.91088116,8022
1100,0.6262147,-0.7916238,-1.1150403,-0.22158669,0.021112593,8022
1101,0.21126612,0.015088343,-0.44883302,0.6918529,-0.89318043,8022
1102,-0.55553764,0.14716738,-1.0526313,-0.121306814,0.42964515,8022
1103,-1.3162282,0.87970585,-1.1707975,-0.44398555,0.14034487,8022
1104,-0.89352125,0.41652393,-0.07953159,-0.33454266,0.2844207,8022
1105,-0.0083811,-0.6041911,0.15633057,0.49974602,-0.51220375,8022
1106,-0.16163172,-0.25193647,-0.5309735,0.15176001,0.25089377,8022
1107,-0.042865433,-0.08205816,0.10174121,0.20000477,-0.42981064,8022
1108,-0.68979913,-0.5759602,0.5977574,-0.6097855,-0.5317372,8022
1109,0.10017777,-1.9332542,0.30622536,-0.42144158,0.3093676,8022
1110,-1.1470929,0.018774666,0.72592944,-0.28072077,0.049319357,8022
1111,-1.6603087,-0.7626319,1.6728227,-0.43324515,-1.586121,8022
1112,-0.015316004,0.04473072,0.76792467,-2.184655,0.16347834,8022
1113,-0.7637187,0.09713272,-0.8202483,0.073339246,0.10644548,8022
1114,-0.94637024,-0.45423207,1.1309735,-0.80454326,-0.8101606,8022
1115,0.7544348,-1.1722181,-1.7407233,-0.06286105,-0.02126809,8022
1116,0.99323153,-1.8193824,-0.41344512,-0.5616466,0.14125869,8022
1117,-0.46939525,0.47562796,0.076581754,-0.5209257,0.28505298,8022
1118,-1.386417,0.42065182,0.5589348,-0.62987417,-0.3035832,8022
1119,-1.4553242,0.5150798,-0.61286896,0.5576458,-0.40784135,8022
1120,0.13438131,-0.4463984,-0.63595366,0.17146309,0.51816344,8022
1121,-0.42425266,-0.01919359,-0.19377932,0.30395132,-0.023211738,8022
1122,-1.698945,1.9978087,-0.07075089,-1.6057217,-0.4172826,8022
1123,-1.078523,0.058887657,-1.3585784,-0.44764143,1.0928532,8022
1124,0.57304484,-0.12184444,-0.25317228,0.5018358,-0.94455814,8022
1125,-0.1334112,-1.2356029,-0.38479543,0.17513137,-0.14037988,8022
1126,-0.838597,0.51698315,-0.94716686,-0.46225348,0.9651555,8022
1127,-0.77076626,-0.6958761,0.6889727,-0.6018355,-0.6926741,8022
1128,-1.0516517,-0.91222644,-0.6434468,0.5609672,-0.2755326,8022
1129,-0.32335195,0.029648481,-0.88745373,-0.5231517,0.7710642,8022
1130,-0.5261057,0.21888928,-0.6365107,0.21081306,-0.07709239,8022
1131,0.18322071,-1.5578071,0.39518416,0.33510876,-0.09939794,8022
1132,0.0812802,-0.1285353,0.32040194,-0.03515157,-0.29651958,8022
1133,0.21332249,-0.9449255,0.7849948,-0.6632729,-1.0981771,8022
1134,0.86550146,0.042236134,0.07451451,-1.1406294,-0.19950284,8022
1135,0.5012477,-0.49778625,-0.44572195,-0.5341,-0.4183183,8022
1136,0.86863416,-0.77829003,-0.6539107,-0.058629293,0.06699159,8022
1137,0.3208029,-0.4143363,-0.59906155,0.69850445,-0.6185875,8022
1138,-0.39234108,-0.5033152,-0.2615451,0.8009702,-0.4022568,8022
1139,0.04941038,0.15303351,0.00056267536,-0.7881859,0.2972673,8022
1140,-0.82648826,-0.11114827,-0.09302566,-0.35011992,0.51632357,8022
1141,0.2826233,0.17265461,-0.7744344,0.6443996,-0.8955183,8022
1142,-0.9128028,-0.5325214,0.43611786,0.18953215,-0.32004935,8022
1143,0.049807027,-1.1225216,-0.48511276,0.8440662,-0.7703095,8022
1144,-1.4226481,0.40074033,-1.1291507,0.020282706,-0.45941904,8022
1145,0.18077908,-0.38810155,0.9160835,-1.2051892,-1.4367248,8022
1146,0.13214785,-0.8469844,-0.6767053,0.32404983,0.34279406,8022
1147,-0.11750244,-0.13758992,1.1004114,-1.3150232,-1.5586286,8022
1148,0.27234396,0.16742092,-0.750953,-0.33806407,0.12533927,8022
1149,0.104558356,-0.027054524,-0.2426114,-0.38378078,0.19810566,8022
1150,0.18241219,-0.23022869,-0.7913509,0.5856938,-1.0406463,8022
1151,-0.67600554,0.27448034,0.22400507,-0.10781402,-0.16399173,8022
1152,-0.9191997,0.07019928,-1.614019,0.17580046,0.19427283,8022
1153,-1.2042767,-0.0022456525,0.12196216,-0.6043255,0.382538,8022
1154,-0.3648385,0.09654303,0.18020333,-0.96735996,0.21920621,8022
1155,-0.11874463,-0.035549607,-1.3112133,0.47155318,-0.22988026,8022
1156,-1.6827928,-0.22559904,0.99166095,-2.046252,-0.9841949,8022
1157,-1.3750827,-0.412569,1.2877723,-1.222042,-1.5151433,8022
1158,-1.013739,-1.2955327,0.2846627,-0.7764672,-0.0405838,8022
1159,-0.5401205,-0.2165881,-0.5289513,-0.680801,0.968244,8022
1160,-0.69281524,-0.5056949,-0.12194561,0.5392449,-0.3195763,8022
1161,0.04924285,-0.5347013,-1.1828907,0.10589392,0.33580914,8022
1162,-1.2989836,0.7929894,0.4873342,-1.4237804,-1.7464999,8022
1163,-0.24799134,0.114611976,-0.4928698,-0.7156009,0.7378893,8022
1164,-0.8976186,-0.6757966,-0.01800082,1.6786542,-1.52584,8022
1165,0.22550394,0.06939392,0.41274628,-0.56741333,-0.23948891,8022
1166,-0.10554733,-0.80783594,-0.56185204,-0.6541938,0.8153661,8022
1167,-0.65698355,-0.44847634,0.86761916,-0.5263892,-0.16868158,8022
1168,-1.5733554,0.53281987,-0.49866846,-0.51975816,0.31248474,8022
1169,0.3330294,-0.22859974,-0.3589022,-0.32610655,-0.37538671,8022
1170,-0.114620894,-0.49966553,0.71276337,0.056582868,-1.2095141,8022
1171,-0.6728675,-0.7524119,0.33136818,-1.4482282,0.7937371,8022
1172,1.2428862,-0.6255499,0.07048393,-1.4369991,-0.54624575,8022
1173,0.20371626,-0.7061819,0.62864166,-0.2339626,-0.1809659,8022
1174,-0.23519716,0.47716233,-0.15585144,0.17073496,-0.522996,8022
1175,0.32883242,-0.36659512,-0.9463126,0.3306532,-0.204973,8022
1176,-1.8113378,-0.91091335,0.43743107,-1.9815223,-0.2868589,8022
1177,0.40546155,-0.9505394,0.13943917,-0.022108175,-0.06475157,8022
1178,-0.36501208,-1.0710406,-1.6754161,0.5817111,-0.14840977,8022
1179,-0.1505412,0.5803991,-0.8330979,-0.6073346,0.40753448,8022
1180,0.038657557,0.00040743072,-0.03707159,0.003971893,0.00051623594,8022
1181,-1.3308848,0.043314848,-0.12555075,0.74225354,-0.48583004,8022
1182,0.14624292,0.40415025,-0.5609997,-0.60478777,0.21841954,8022
1183,-1.0103104,-0.99866414,0.9959326,-0.7550876,-0.15920106,8022
1184,0.6128363,-1.0927252,-1.2243721,0.011198411,0.58277905,8022
1185,-1.3393948,-1.145968,1.4445776,-1.4327456,-0.9670114,8022
1186,-0.7147946,0.46372578,-0.24884939,0.077579446,-1.3108134,8022
1187,-0.75303984,0.17198317,0.360312,-0.07750135,0.1641502,8022
1188,0.18055017,-0.97467965,-0.40872973,1.6517726,-2.0567095,8022
1189,0.6868133,-0.7141186,-0.52600724,-0.7011779,-0.49042803,8022
1190,-0.42735845,0.6153665,-0.770757,-0.48537946,0.16025205,8022
1191,1.4033558,-1.6217264,-1.0580671,0.5562627,-1.4955407,8022
1192,-0.4073843,0.2562313,0.37127307,0.06876033,-0.54379046,8022
1193,-0.47850418,-0.19667754,-0.46741378,-0.40232146,0.5304458,8022
1194,0.17271708,-0.16649483,-0.15796725,-0.16485475,-0.123787686,8022
1195,0.53291124,0.28685942,-0.13334943,-0.27636382,-0.3249849,8022
1196,0.0672823,0.19541794,-0.30619758,-0.49785405,0.42865276,8022
1197,-1.2437062,0.63070947,0.8550447,-0.99072456,-0.7048986,8022
1198,0.41680112,-0.30283192,-0.8023994,-0.54395276,0.57138807,8022
1199,0.48077518,0.44451094,0.06159288,-0.18254232,-0.73400176,8022
1200,-0.070824474,0.23268953,0.040030513,0.09565117,-0.4693279,8022
1201,0.043840047,-0.3727027,-0.5027995,0.11904764,-0.042367525,8022
1202,0.015013133,-0.51509935,0.08834814,0.63879,-0.47213453,8022
1203,-0.36415145,0.10314982,-0.9006668,-0.40979695,0.60308146,8022
1204,0.52619046,-0.30808747,-1.2882942,-0.8376189,0.8371831,8022
1205,0.33817136,-0.32911602,-0.20718025,0.35189626,-0.5308921,8022
1206,-0.20617665,-0.120092236,0.25755087,-0.12823056,-0.044176254,8022
1207,0.20232885,0.08230894,0.513294,-0.7808837,-0.07013218,8022
1208,-0.6979288,0.59895724,0.4530287,-1.9448192,0.7037276,8022
1209,0.09039913,-0.21264797,0.12990732,-0.29481286,0.08589977,8022
1210,-0.24410217,0.30364794,0.12597333,-0.5791292,0.14318222,8022
1211,-0.08957814,-0.27751124,-1.8236953,0.52448946,-0.39357102,8022
1212,0.00202539,0.20186171,-0.7118029,-0.67711276,0.60472393,8022
1213,-0.27233654,0.3986303,-1.9544988,0.28006244,-0.60038257,8022
1214,0.04026143,-0.09826131,-0.08475218,-0.3035658,0.17926078,8022
1215,-1.2082283,0.048804834,0.5319954,-0.32954198,0.10887806,8022
1216,0.61722493,-0.33839864,-0.06696548,0.04804889,-0.29321155,8022
1217,-0.33570892,0.27637425,-1.3459643,0.28726056,-0.21763228,8022
1218,-1.0288168,-1.007392,0.3179084,-1.3789942,1.3161606,8022
1219,-2.0754476,-1.8473302,-0.64300096,1.1563866,-0.8405145,8022
1220,0.039558914,0.19686718,0.5138167,0.13559982,-0.51332885,8022
1221,-0.89017093,0.72659314,-0.64874107,-0.5879853,0.15305349,8022
1222,-0.8585414,0.43207464,0.34035015,-0.9346778,-0.6960458,8022
1223,-0.5186768,0.5343817,-0.6083088,-0.4482113,-0.33043805,8022
1224,-1.1781002,0.10824728,0.61125445,-1.2487785,-0.59417963,8022
1225,-0.4110685,0.16935128,0.05221193,0.12736835,-0.32269743,8022
1226,-0.05979941,-1.3287685,1.0947366,-0.4564404,-0.15602522,8022
1227,0.3072677,-0.16908523,-0.39595583,0.90986365,-1.5777487,8022
1228,0.32793754,-1.0544708,0.85496455,-0.9859317,-0.2933312,8022
1229,-0.9981602,1.4551997,-0.061286777,-0.6058669,-0.04033171,8022
1230,0.054016102,-1.462946,0.34156284,0.13225992,0.09835437,8022
1231,0.07682814,-0.07187382,-0.8678167,0.12089094,-0.0044796355,8022
1232,0.31692114,0.21563803,0.03753844,0.1694011,-0.7332821,8022
1233,-0.44592068,-0.40882555,0.19263996,0.61055964,-0.35092196,8022
1234,-0.95445,0.523046,-1.745287,0.39908674,-0.060942072,8022
1235,0.63683146,-0.36456922,-0.006574125,-0.37990728,-0.091748014,8022
1236,0.5439299,-0.5034265,-0.45699114,-0.1782799,0.2751913,8022
1237,-0.38875175,-0.6831534,0.2452862,-1.2876757,0.117989115,8022
1238,0.8069129,-0.65302736,-0.68131185,-0.7202357,-0.5568629,8022
1239,0.6132783,-0.24381942,0.11606423,0.2538671,-0.7668754,8022
1240,0.17871307,-0.69796824,-0.054239083,0.46258274,-0.1842004,8022
1241,-0.87883526,-0.43135157,0.45165485,-0.01597784,0.0711093,8022
1242,0.51399386,-1.4660577,0.12050934,-0.05791449,-0.07501854,8022
1243,0.4407824,-1.3941137,-1.1635039,0.5335288,-0.563854,8022
1244,-0.69313174,0.41996282,0.0032663438,0.22657506,-0.39746562,8022
1245,0.07206121,0.14685293,0.08928014,0.12244384,-0.3713605,8022
1246,-0.6027221,-1.3745162,-0.17554133,-0.56144816,0.8035845,8022
1247,1.2092568,-0.5861614,-0.22438319,-1.3428143,0.80580354,8022
1248,-0.094112255,-0.45952523,-0.80378103,0.050681815,0.24891782,8022
1249,-0.9225153,0.813329,0.4014705,-0.9471082,-0.11681201,8022
1250,-0.09228443,-0.13538937,0.7470496,0.60184944,-1.53104,8022
1251,-1.2188125,0.21840169,-0.32674232,0.017161706,0.1600312,8022
1252,0.3956522,-0.99302614,0.40380833,-1.0251799,0.0963877,8022
1253,-1.1106966,-0.10044425,0.2867147,0.07502061,-0.26550406,8022
1254,-0.28839153,0.55335593,0.26128235,-0.88672185,-0.12576999,8022
1255,0.4581187,-0.66036105,-1.140497,0.6230993,-0.22826931,8022
1256,-0.57291085,0.5757664,-0.7513411,-0.5848835,0.6920453,8022
1257,0.1446617,-1.6098031,0.52182245,0.026186626,-0.6193101,8022
1258,-0.21058883,0.36004093,-0.27531737,-1.0826106,0.8936229,8022
1259,0.11747916,-0.30455607,-1.1667207,0.17762357,-0.10860863,8022
1260,-1.2571445,-0.22193414,-0.13489272,-0.067420706,0.21857186,8022
1261,-0.7626939,-0.2590148,0.7288229,-1.0071659,0.28394303,8022
1262,0.505124,-0.76120204,-0.7042018,0.10167492,-0.053684954,8022
1263,-1.8072447,-0.23626965,0.6651661,-1.812916,0.80390126,8022
1264,0.058866963,-0.1704864,-0.36513653,-0.7462605,0.59444004,8022
1265,-1.3406814,0.16222915,-0.27888906,0.41986582,-0.08867227,8022
1266,-0.1584723,0.23764135,-0.62666136,-0.25616205,0.35660478,8022
1267,0.07955578,0.3295893,-0.1447704,-0.801007,0.07169657,8022
1268,0.20746523,0.44497192,-0.34145293,-0.9588446,0.6776191,8022
1269,-0.28879526,0.050645165,-0.5822448,-0.22173615,0.60858095,8022
1270,-0.1389608,-0.454963,-0.93407124,0.37477857,0.031851314,8022
1271,0.5859813,-0.8201122,-1.3850842,-0.103521764,0.03387702,8022
1272,0.8448307,-0.8726408,-0.7385312,-0.7926988,-0.8181159,8022
1273,1.080828,-0.27054632,-0.9554282,-0.0084346235,-0.29516855,8022
1274,-0.42075324,-1.4847786,-0.56122905,0.035553128,0.278528,8022
1275,0.6663896,-0.9085197,0.7661345,-0.91956764,-0.16592994,8022
1276,-2.0460262,0.67386746,0.2466694,-0.48266643,-0.23687893,8022
1277,-0.84927076,-1.0454692,-0.04173075,-1.0409182,0.22244996,8022
1278,0.053940706,-0.7190516,0.122992285,0.53714776,-0.44470015,8022
1279,-1.2569778,0.32115725,0.54293895,-1.3362435,-1.6251471,8022
1280,-1.3987124,-1.6026608,1.7819222,-1.3453591,-1.9414738,8022
1281,-0.996051,0.8073633,-0.02383,0.03138913,-0.27353406,8022
1282,-1.1077552,-0.9681359,-1.0049173,0.38516992,-0.055584338,8022
1283,-0.91003686,0.35061225,0.14353195,0.19108734,-0.22670595,8022
1284,-1.1649252,0.06703374,-0.32039875,0.109840296,-0.009850045,8022
1285,-1.2233047,0.9488604,0.22126137,-0.6408635,0.26033127,8022
1286,-1.2122464,0.31889012,0.035661425,0.17248785,-1.583422,8022
1287,0.75429434,-0.6685043,-0.47835112,-0.78671855,-0.6961818,8022
1288,-0.28848246,-0.96561545,-0.7633419,-0.27254984,0.89460355,8022
1289,-0.580833,0.05371032,-0.2735649,0.44787896,-0.28769657,8022
1290,-0.68028384,-0.0106624095,-1.1078266,0.15152705,0.068657,8022
1291,-1.8308011,-1.7813212,2.0777097,-1.2502573,-1.8428051,8022
1292,-0.5899278,-0.6827156,0.7688464,-0.65998334,-0.95846814,8022
1293,0.5279248,-0.5015655,-0.55908203,-0.54650074,-0.46496922,8022
1294,-0.24117836,-1.8890224,-0.91427726,0.20640989,0.44942823,8022
1295,-0.2652195,-1.1166955,-0.37577263,0.31274498,-0.025963543,8022
1296,0.7246815,-0.6389455,-0.45341316,-0.65697837,-0.646493,8022
1297,-0.70835775,0.37396693,-1.4772881,0.35195902,-0.3260238,8022
1298,0.056844067,0.18748757,-0.82072943,-0.14246957,0.1615566,8022
1299,-1.386658,-0.5492433,-0.09090146,0.89303,-0.54272205,8022
1300,-0.1898768,0.6999453,-1.0889632,-0.23499699,-0.28620666,8022
1301,0.47945017,-0.41043898,-0.3838234,-0.41952842,-0.48691222,8022
1302,-0.8294624,-0.37446,-4.007165,0.4068179,0.2851616,8022
1303,-1.8012367,1.7567775,-1.2528019,-1.8156853,-0.076869234,8022
1304,-0.7903926,0.7026808,-0.7236558,-0.16453113,0.014062068,8022
1305,-0.9877123,-1.0046754,0.3304661,-1.0694244,0.37408295,8022
1306,-0.33672297,-0.1938594,0.11594486,-0.34835842,0.38044488,8022
1307,-0.17584808,0.056105874,-1.119458,-0.23577537,0.39070714,8022
1308,-0.7149923,0.048131462,-0.058932804,-1.0443543,0.034191422,8022
1309,0.21258202,-0.059487194,-0.7961454,0.4433843,-0.47406447,8022
1310,-0.73952186,-0.83880204,1.0188994,-0.72361594,-1.1039596,8022
1311,-0.16530365,0.22877058,-1.4710335,-0.22740877,0.46080703,8022
1312,-0.4491112,-1.2685231,0.7143538,-1.2791797,0.5035498,8022
1313,0.0063598473,-1.1926807,-0.009627334,-0.39101294,0.82237524,8022
1314,0.5837027,-1.2946812,0.07296719,0.40688372,-0.551221,8022
1315,-0.79110664,0.7555211,-0.13110402,-0.93498135,0.0607022,8022
1316,-1.1191428,-1.1329389,-0.78627527,-0.036570404,0.28319743,8022
1317,-0.8260475,0.1905332,-0.260147,-0.40505683,0.5871235,8022
1318,-0.036171224,-1.3360437,0.092606805,-0.35163072,0.5474339,8022
1319,0.30068395,-1.1523749,-0.9459534,-1.2227908,1.2291613,8022
1320,-0.079121515,-0.0077022235,-0.40412363,-0.92133,0.7606917,8022
1321,0.022123482,0.43927723,-1.5925279,-0.28860897,0.07399738,8022
1322,0.14134903,-0.5463065,0.097104326,-0.28722495,0.3303614,8022
1323,-1.9657184,0.7733635,0.058095463,-0.07546472,-0.881869,8022
1324,-0.5058346,-1.4841405,-1.0248667,0.6097443,-0.018620813,8022
1325,-0.1507273,0.6409712,-0.42424583,-0.9528892,0.464063,8022
1326,0.81062114,-0.40474215,-0.6470892,-0.5931301,0.39754865,8022
1327,-0.39378503,0.26996195,-1.3937132,-0.00715955,0.115554765,8022
1328,-1.2472101,0.38671106,-0.11468683,0.026988868,0.16155216,8022
1329,0.042787746,-0.26783547,-0.83959574,-0.12239598,0.3996372,8022
1330,-0.5930245,0.18956444,0.30925992,0.0027226005,-0.18289751,8022
1331,-1.4954797,-0.3591722,-1.7080388,-1.0442796,1.1442168,8022
1332,0.35975793,-0.40145588,0.025356872,0.42083815,-1.2625767,8022
1333,1.001017,-1.4305252,-0.24255452,-0.9775397,0.9028732,8022
1334,0.02345847,0.1247609,0.057875413,-1.4061049,0.44602898,8022
1335,0.8446124,-2.1076486,-2.113785,0.19732109,-0.3648766,8022
1336,0.21630338,-1.5700487,0.5744085,-0.6044466,0.6478261,8022
1337,0.32374337,-0.33253196,0.60471195,0.08748369,-0.935675,8022
1338,0.18454987,-0.15633349,-0.69815016,-0.014905908,0.08011002,8022
1339,-0.99942195,1.6304419,-1.6753327,-1.0969659,-0.8452608,8022
1340,-0.83195204,0.8167311,-0.6385539,-0.9102937,-0.39815006,8022
1341,-0.69324535,0.3987805,0.7707431,-1.1837214,0.20015077,8022
1342,-1.0988227,-0.8739967,-1.0025907,1.2654221,-1.1072923,8022
1343,-0.15068154,-0.37044534,-2.977631,1.274119,-1.2923566,8022
1344,-1.5384767,1.1997826,-0.30020592,-0.74131995,-0.31449974,8022
1345,0.539586,-1.5235596,-2.0382466,-0.12743141,0.20081046,8022
1346,-0.8864556,0.34058332,-0.32109037,-0.91602874,0.4773317,8022
1347,0.6371871,-0.3373603,0.017719837,-0.39264935,-0.042511806,8022
1348,0.3390646,0.04983572,0.29039374,-0.5444071,-0.40040395,8022
1349,-0.5824894,-0.57348454,-0.00614053,-0.33689627,0.65937227,8022
1350,-0.79275775,-0.2781705,0.1108972,-1.6260949,0.886057,8022
1351,-0.24309646,-0.5469323,-1.5083729,0.31139827,0.18019316,8022
1352,-0.16666822,-1.7065055,-1.0353057,0.1347396,0.21222796,8022
1353,0.76636595,-0.6729826,-0.66669947,-0.71401167,-0.7274864,8022
1354,-1.3814723,0.9880499,0.49021852,-1.1272151,0.011473654,8022
1355,0.6896595,0.59699553,-0.4067415,-1.118583,-1.0908895,8022
1356,-1.2289888,0.74236655,0.10634932,-0.49317893,0.26642993,8022
1357,1.1744081,-1.8898131,-1.6957469,-0.32976362,0.20337054,8022
1358,0.17686623,-0.03432455,0.38609487,-0.39759186,-0.036392312,8022
1359,0.25261077,-1.0840598,-0.51350343,-0.18200135,0.28569427,8022
1360,0.06770308,-0.33258316,-1.5324376,0.05993731,0.30013576,8022
1361,-0.6062652,0.42309988,-0.9087071,0.6254281,-0.34734622,8022
1362,-1.1623961,0.8941784,-1.5963286,-0.17670202,-0.41015014,8022
1363,-1.3317322,-1.6555141,1.8901006,-1.0146282,-1.8043014,8022
1364,-0.8957874,0.2118794,-0.6516426,-0.95594436,0.3697526,8022
1365,-0.14956927,-0.52929795,-0.1485136,0.66739196,-0.53107655,8022
1366,0.0997173,-0.34989053,0.05175148,-0.20369214,0.13270122,8022
1367,-0.60339165,0.31417993,0.29003024,-1.0151061,-0.38779202,8022
1368,-0.54002905,-0.16548578,-0.3418337,-0.012127559,0.25479746,8022
1369,-1.0277692,-0.3671077,0.061148573,-0.8474713,0.22298308,8022
1370,0.9588561,-0.5606458,-0.81011224,-0.72431177,-0.24689373,8022
1371,-0.6287186,-0.87564945,0.7494198,-0.62360823,-0.6696901,8022
1372,0.53185683,-0.9537366,0.123042285,-0.59262806,0.038232047,8022
1373,-0.43709508,0.15771201,-0.11577933,-0.28335306,0.21686132,8022
1374,-0.42904186,-1.7334787,-0.4669558,0.78432107,-0.5039957,8022
1375,-0.49547955,0.5232931,-0.8845289,-0.6395197,0.6406144,8022
1376,-0.59237635,-0.9416234,0.7568522,-0.49423364,-0.59524107,8022
1377,-0.7811498,0.5524769,-2.6791453,-0.5629293,0.4956235,8022
1378,0.77633524,-0.3641782,-1.0051309,-0.69317555,0.32368252,8022
1379,0.3731936,-0.45941347,-0.7972139,-0.036800187,0.26072726,8022
1380,0.29123837,-0.56136554,0.31361717,-0.32908523,0.20218964,8022
1381,-0.31488043,0.07480477,-1.0700297,0.35127097,-0.10361989,8022
1382,-0.68419343,1.2144235,-1.0956029,-0.91800886,-0.98666936,8022
1383,0.15011501,-1.4880419,-1.3044152,1.1940423,-0.23424926,8022
1384,0.13112456,0.20108205,0.5075772,-1.607354,0.09727203,8022
1385,-0.22814213,-0.9752565,-0.6520414,0.024202527,0.62952995,8022
1386,0.27871272,0.101585746,-1.2463053,-0.6204085,-0.12705159,8022
1387,0.81439525,-0.81422687,-0.61692286,-0.764628,-0.6907768,8022
1388,0.42655742,-0.53882235,0.540609,-0.52936375,-0.6767492,8022
1389,-1.4493804,-0.3581619,0.20026095,-0.61673963,0.5646832,8022
1390,-0.4219687,-0.06867597,0.19701591,-1.2364793,0.72970814,8022
1391,-0.014596388,-1.2784774,0.828151,-0.9881923,-0.40646458,8022
1392,0.14545748,-0.6800068,-0.18687262,-0.20304321,0.3587649,8022
1393,0.33916733,-0.42493,-0.14762625,-0.37828833,0.28797352,8022
1394,-0.29155838,0.44232857,0.8923763,-1.0479847,-0.14692214,8022
1395,-0.30084467,0.16551402,-0.0667652,0.41420412,-0.5739242,8022
1396,0.14237477,-0.38330996,-0.44930273,0.039124522,0.28046486,8022
1397,-0.95657426,-0.89549065,1.3157392,-1.0308731,-1.2277907,8022
1398,0.14083424,-0.11918152,0.33640933,-0.47039032,0.15337549,8022
1399,-1.0732044,-0.9536446,-0.18817109,0.57793987,-0.28704396,8022
1400,0.4408395,-1.057392,0.61006594,-0.9785799,0.35140616,8022
1401,-0.19495648,0.5528831,0.17935084,-0.3449434,-0.093125634,8022
1402,0.26491615,-0.9531727,-0.77295786,0.29807985,-0.14988253,8022
1403,-0.4134809,0.34130824,0.93505913,-0.82090145,-0.09431917,8022
1404,-1.043585,-0.97160625,0.2720588,-0.9812373,-0.0013671055,8022
1405,-0.55259174,-1.1159436,-1.5521348,-0.40515983,0.68772113,8022
1406,-1.1119006,0.115705915,-1.1713346,0.5776934,0.33804065,8022
1407,-0.55056626,-0.016665127,-0.67435455,0.3852976,-0.020844288,8022
1408,0.5025065,-0.7484337,-0.7798014,0.02767511,0.2948881,8022
1409,-0.93173563,0.45848045,-0.5969039,-0.64270043,0.2872379,8022
1410,1.7863498,-1.8534849,-1.967396,-0.080975115,-0.21175084,8022
1411,0.5323733,-0.41103566,-2.0827177,-0.19121449,0.04278948,8022
1412,-0.057581563,-1.2184066,-2.0104098,0.32758218,0.060648426,8022
1413,-0.49977735,-0.7523227,0.26299474,-0.22602881,0.37176695,8022
1414,-0.18336688,-1.3526763,-1.2304535,0.014613573,0.42130655,8022
1415,0.05142612,0.066457406,0.4905651,-0.24666683,-0.6092715,8022
1416,0.75024587,-1.2031542,0.08287295,-0.84320974,0.501746,8022
1417,-1.1604742,-0.18347755,0.20691639,0.5460075,-0.71696454,8022
1418,-0.019288275,0.075057976,-0.901917,-0.062770076,0.23050453,8022
1419,0.10963197,-0.23057896,-0.7133106,0.59862745,-0.54288304,8022
1420,-0.2528267,-0.60319287,-0.883621,0.20484442,0.07450136,8022
1421,-0.32797867,-0.8028241,0.285071,-0.3550403,0.45399767,8022
1422,-1.4132152,0.1886311,0.18531226,0.014065112,0.07600398,8022
1423,-1.7588933,0.1505831,0.737741,-0.74204457,-0.34885356,8022
1424,-0.8618921,0.48350555,0.3657323,-0.49260795,-0.682129,8022
1425,-0.15034562,-0.99229884,0.19443636,-0.5241694,0.5758853,8022
1426,0.28957498,-0.22823505,-0.88818055,-0.35046995,0.5685303,8022
1427,-0.5229312,0.62670743,-0.29772946,-0.5055626,-0.8787931,8022
1428,0.26731288,-0.72215796,0.120066084,-0.5608041,0.27246252,8022
1429,0.18846352,-0.56370807,-0.20045665,0.41760096,-0.28436255,8022
1430,-0.40584868,-1.2186531,-1.303886,0.90389025,-0.6615885,8022
1431,-1.1364255,0.38402817,0.37346283,-1.1715665,-1.0688579,8022
1432,0.3441057,0.391185,-1.1373831,-1.0316967,0.33758193,8022
1433,0.17872965,-0.14199454,0.38138533,-0.46005827,0.06288933,8022
1434,0.31162894,-0.6396655,-0.466904,0.11873162,0.3441249,8022
1435,-1.925966,0.47566748,0.2858137,-0.56981564,0.104667164,8022
1436,-0.9050284,0.052952,0.34442505,0.14414744,-0.59046906,8022
1437,-0.192184,-0.24490039,-0.4082295,0.0045178155,0.3576034,8022
1438,-0.26547277,0.8573317,-0.19631281,-0.5292215,-0.5074356,8022
1439,-0.5084134,0.40918207,0.45385405,-0.64368045,0.16420203,8022
1440,-1.095457,-0.35023013,1.1102284,-1.2606566,-1.2719018,8022
1441,-0.7102521,0.065758355,0.9685855,-1.1204741,-0.84282684,8022
1442,-0.06465971,-1.1501473,0.27536687,0.81197846,-0.95193744,8022
1443,-0.6857501,-1.0805844,1.2828982,-0.8404983,-1.4715413,8022
1444,0.004445153,-1.563889,-0.16527165,-0.44698355,0.52729964,8022
1445,-0.6258261,0.8369389,-1.4403497,0.8953761,-0.97678477,8022
1446,-0.48794362,-0.18433277,0.36837447,-0.25091684,0.12432921,8022
1447,0.8614558,-1.243166,0.27149084,-0.12104292,-0.3557884,8022
1448,-1.4697353,-1.3870564,0.33457273,-1.0398543,-0.07449748,8022
1449,-0.6267384,0.41759044,-0.857691,0.17970504,-0.1822675,8022
1450,-0.76132804,0.41365352,-0.2653909,-0.13994767,0.2708654,8022
1451,0.2296561,-1.5688484,-0.9870432,0.3995315,-0.29171234,8022
1452,0.33490503,0.010712822,0.09526062,-0.45335224,-0.3055753,8022
1453,0.19100517,0.4125362,-0.09344802,-1.5376575,0.5493675,8022
1454,-0.6504393,-0.856923,0.93081146,-0.70464504,-1.0704697,8022
1455,-0.6769688,0.21487767,0.36853695,-0.44969532,0.24994028,8022
1456,-1.1266702,0.7010862,0.13864702,-1.0806874,0.35839486,8022
1457,-0.24102074,-0.2551858,0.42726776,-1.4727362,0.5026583,8022
1458,-0.9818589,0.96800554,-0.717483,-0.99437237,-0.9185717,8022
1459,-0.5550788,-0.3776968,-0.9376874,-0.37904242,0.86198777,8022
1460,-0.15844467,-0.17846924,-0.38099602,-0.57241905,0.7323827,8022
1461,0.42159325,-0.20995995,0.2766472,-0.91370213,0.17889343,8022
1462,0.35950485,-0.89928514,-0.9572962,0.17560917,0.06399893,8022
1463,-0.66004825,0.45850214,-5.6613183,0.3554704,0.030669693,8022
1464,-1.1212636,0.4711128,0.25701472,-0.07434861,-0.77919966,8022
1465,0.2683561,-0.1365017,-0.16474724,-0.12833601,0.15075523,8022
1466,-0.6975107,0.81825936,0.25214258,0.12380718,-0.9778617,8022
1467,-0.35782427,0.7348498,0.14848164,-1.1509237,0.47182286,8022
1468,0.27376446,-0.2674622,0.11939982,-0.16372125,-0.29814935,8022
1469,-0.60844296,-1.2949343,-0.65255374,1.125164,-0.48613918,8022
1470,0.2995345,-0.6836791,-1.5937097,0.52746373,-0.3780409,8022
1471,-0.15781495,0.17766835,-0.2103014,-0.846795,0.681608,8022
1472,0.7057137,-0.4498676,-0.6873794,-0.4680912,-0.66911274,8022
1473,-0.6185637,-0.2274161,-0.31022808,-0.8092638,0.9736192,8022
1474,-0.8231506,-0.3751932,0.13108788,-0.1053635,0.15205939,8022
1475,1.1610956,-0.958503,0.30452678,-0.26772803,-0.5571252,8022
1476,-1.5564345,-0.5148541,0.99346155,-0.06589999,-0.7744478,8022
1477,-0.858531,-0.9617124,0.27118802,0.20613398,-1.3542464,8022
1478,0.41340896,0.018029505,-1.4668176,0.030548854,-0.16376474,8022
1479,-0.06974073,-0.48584828,0.9543451,-0.49349955,-1.170406,8022
1480,0.26498726,0.36642054,-0.7237538,-0.3559198,-0.37830865,8022
1481,0.24403092,-0.7988755,-0.9511467,0.45228028,-0.42372784,8022
1482,-0.099407874,0.31375077,0.19825725,-0.54040956,-0.6043715,8022
1483,-0.70965654,0.34006745,-1.2166723,-0.37724042,0.71354395,8022
1484,-0.5104322,-0.54544365,1.3076386,-1.0604088,0.5715875,8022
1485,0.20605695,-0.5293857,-0.066031866,0.33072254,-0.47239807,8022
1486,-0.5593461,-0.66424227,0.8955015,-0.77476764,-1.0154403,8022
1487,-0.20071594,-0.6518897,0.2961507,-0.105078205,0.14068289,8022
1488,0.3816774,-0.5735346,-0.72653174,-0.5560743,0.67395294,8022
1489,0.36169016,0.19034857,-0.89879835,0.23638588,-0.36385936,8022
1490,0.08669252,-0.5049996,0.16408996,-0.010973826,-0.12859719,8022
1491,0.06394417,-1.1570119,-1.5245445,-0.040448792,0.22816968,8022
1492,0.73892176,-1.0538884,-0.1010419,-0.7906732,-0.95998776,8022
1493,0.47275653,-1.0522536,-0.83244544,0.11422002,-0.008947513,8022
1494,0.5403291,-0.5676067,-0.5157892,-0.6250748,-0.54608047,8022
1495,-0.47681516,0.39170521,-2.229472,-0.100272074,0.29818532,8022
1496,-1.7248665,0.23204497,-0.13305953,0.33994648,-0.28056476,8022
1497,0.40131867,-0.9142097,-0.26214868,0.14433832,-0.081105806,8022
1498,-0.4811153,0.4477097,0.6338348,-0.8826477,-0.00027612533,8022
1499,-0.42326677,0.24592854,-1.147813,0.20906192,-0.06522685,8022
1500,-0.46834755,-0.5528421,0.5211354,-0.5446,-0.5795842,8022
1501,0.806518,-0.63846284,-0.69608706,-0.18445332,-0.18268327,8022
1502,-0.15388143,0.5115916,0.4357862,-0.67620254,0.120940655,8022
1503,0.13223092,-0.4619246,-0.6820649,0.11607519,0.08994666,8022
1504,-1.4094139,-1.1079322,-0.37172624,0.6875546,-0.2553342,8022
1505,-0.15855794,-0.1295046,-0.6317116,0.35590005,-0.2918419,8022
1506,-1.4088477,-0.81702834,1.5796919,-1.4566474,-1.5003853,8022
1507,0.111051545,-0.8401114,0.16762505,-0.31795406,0.21126519,8022
1508,0.4217278,-0.67906064,0.22096433,-0.7733512,-0.44950894,8022
1509,-0.46199828,-0.40162265,0.57728225,-0.2833727,0.41823542,8022
1510,-0.65382624,-0.7336305,0.7102994,-1.0389327,-0.28777787,8022
1511,0.6347193,-1.1074226,-0.24695374,-0.5973354,0.75970757,8022
1512,0.2265157,-0.38527703,-1.1987453,-0.0065186466,0.20616762,8022
1513,-1.9225104,0.7147383,-0.015801812,0.13076155,-0.6905793,8022
1514,-1.0549715,-1.3918809,0.48725644,0.7290949,-0.8798333,8022
1515,0.3198417,0.32063082,-0.8917578,-0.7221326,0.28466943,8022
1516,-1.0684215,-0.6744393,0.4958666,0.8625129,-1.3001008,8022
1517,-0.3359202,-0.39930955,-0.2426119,0.16206321,0.118961945,8022
1518,-0.6721406,0.18039921,0.417007,-0.9579088,0.43549696,8022
1519,0.5100553,-1.1203604,0.33124194,-0.35582304,0.13123293,8022
1520,0.01570504,-0.14174524,-0.49943766,-0.18403095,0.2654174,8022
1521,-0.20253164,0.17620087,0.76763886,-0.91944987,-0.44442573,8022
1522,0.4624158,-1.9580951,-0.8665415,-0.023764277,0.5553306,8022
1523,-0.5127076,-0.6697327,-0.8363375,0.40633538,0.24210656,8022
1524,2.4235414e-05,-0.95139116,-0.08103232,0.30762628,0.14904411,8022
1525,0.03442522,-1.411483,-1.0259702,0.10324264,0.48251572,8022
1526,-0.14895028,-1.0883083,0.5065687,0.53594774,-0.8758647,8022
1527,-0.1441412,-1.4673563,0.06605419,0.33379292,0.076169424,8022
