,0,1,2,3,4
0,-0.617485,-0.10032657,0.33441475,-0.08960407,0.1185973
1,-0.11962139,-0.12064882,0.05305935,-0.016785005,0.08921485
2,-0.89333814,-0.1801614,0.08477472,-1.7706821,1.4905608
3,-0.08076007,0.0730701,0.11743945,0.3445837,-0.851661
4,-0.67267823,0.044918906,0.1655746,0.07031818,0.0051042167
5,0.36357576,-0.1534758,-0.2826687,0.12369575,-0.04121095
6,-0.27906018,-0.42837754,0.29507494,-0.1137616,-0.008132971
7,0.7933773,0.7129933,0.016595297,-0.07969969,-1.0637712
8,0.52545327,0.5597818,-0.11172594,-0.37695774,-0.57525134
9,-0.08879587,-0.062421214,0.0182877,-0.07947504,0.08001437
10,0.73605883,0.8163068,0.019567145,0.19394608,-1.1588137
11,0.5804192,0.65442127,0.03739552,0.11489243,-0.88160074
12,-0.39621234,-0.22320433,-0.08700647,0.2114124,0.37248394
13,-0.5630733,-0.47486216,-0.01691695,-0.3621222,0.91398335
14,-0.4428664,-0.5107437,0.16726983,-0.05655714,0.3960609
15,6.891025,5.3395886,-1.134325,-1.0788323,-3.297916
16,0.020985285,0.11929725,-0.10290755,-0.08808764,0.04611828
17,-0.15480255,0.056293435,-0.2721606,0.21515101,0.0001653127
18,0.05205039,0.029249387,-0.009267247,-0.02832973,0.0120273
19,0.091212526,-0.07470577,0.19504204,-0.26167837,0.16829745
20,0.05291058,-0.32264715,0.46669218,-0.29860002,0.20145363
21,0.045967244,-0.24968597,0.34681818,-0.11039997,0.021841895
22,-0.10518824,0.22411908,-0.00116413,0.07154053,-0.18631403
23,-0.030355044,-0.050316386,0.048321333,0.033159923,-0.01078789
24,-0.17351909,0.008144948,-0.34613952,0.3732354,-0.08627618
25,-0.09604832,0.0767292,-0.012956762,-0.012925173,0.033653397
26,0.08022572,-0.3014606,0.03768349,-0.12861751,0.18670993
27,0.010171683,-0.028719677,-0.020575212,-0.038881138,0.09966878
28,0.045873452,-0.039378997,0.113995075,-0.0026315735,-0.058199733
29,0.052119393,-0.17362686,0.25155973,-0.060411602,-0.009216663
30,-0.17599262,0.053933512,0.15925199,-0.016729828,0.02667837
31,-0.1278551,0.110711664,0.20760621,0.0036929257,-0.057164595
32,-0.10939169,0.03396916,-0.23119393,0.09579047,0.012419779
33,-0.15041801,-0.08718639,-0.07870325,0.18084358,-0.025514403
34,0.0069975667,-0.08999566,0.2882758,0.0544484,-0.17151827
35,-0.0057455245,0.06674171,-0.15892854,-0.0720123,0.124334164
36,0.039119415,0.026357599,-0.5446228,0.27699733,-0.009087035
37,-0.072120175,-0.0830676,0.03831839,0.07493172,-0.040483076
38,0.06493538,-0.019717807,-0.18144844,0.1410187,-0.08540109
39,-0.10526383,0.16236486,-0.0521701,-0.0044904435,0.019551123
40,-0.26414922,-0.1195506,0.18704747,0.10854649,0.012621317
41,-0.09444988,0.07136103,-0.38507402,0.302623,-0.12979127
42,-0.25846943,0.34698552,-0.19743715,-0.1506241,0.14189124
43,0.06485596,-0.021381475,0.25763184,-0.32417774,0.16454825
44,-0.14362475,-0.042688817,0.13169886,0.17185898,-0.12261871
45,0.043035276,-0.026122386,-0.008170016,0.023021348,0.0065678763
46,-0.008821629,0.0720131,-0.076058805,0.024867756,0.037428252
47,-0.09244874,-0.06701819,0.17174007,-0.14645885,0.13346384
48,-0.25290686,0.4859294,-0.15366301,-0.02026481,-0.047077954
49,-0.033322886,0.08483878,-0.15574743,0.053066213,-0.018845554
50,-0.06118633,-0.20376423,0.43466067,-0.028972495,-0.01964634
51,-0.0774071,-0.14694591,0.020933934,0.13959159,-0.029903427
52,-0.08438049,0.064327136,-0.04129142,0.045764085,-0.008917398
53,0.16625862,-0.2860926,0.06343038,-0.04758157,0.13928433
54,-0.03482142,0.113330446,-0.42102924,0.0844034,0.07672169
55,-0.06920961,-0.13798636,-0.13358828,0.1624191,0.058518864
56,0.006708215,-0.084291086,0.613379,-0.47204718,0.12496612
57,0.11822893,-0.022475494,0.09803754,-0.17946762,0.11206506
58,-0.21452935,0.117029384,-0.05970421,0.23225649,-0.12079444
59,-0.10534351,0.07671803,0.14091614,-0.11154343,0.024551254
60,-0.044232387,0.16491735,-0.25923735,0.019888291,-0.0030420544
61,0.15080546,-0.66443425,-0.33797845,-0.0239513,0.53274184
62,-0.1175459,-0.09227884,0.36073643,-0.08893257,0.035400994
63,0.08154782,-0.23167816,0.004304658,0.05475129,0.012596492
64,-0.042179275,-0.04284771,0.09756558,-0.33781782,0.35147744
65,0.14598294,-0.16382134,-0.1307754,0.09458726,0.00058661867
66,0.01763491,0.13281082,0.25092056,-0.15428555,-0.046277646
67,0.06654897,-0.22707722,-0.11468001,0.091852576,0.043759152
68,0.039455093,-0.6364984,0.05627472,0.20779973,0.061342306
69,-0.050744697,-0.10439955,0.098012336,-0.06500634,0.12134492
70,0.018715978,-0.34724376,0.4988744,-0.2779929,0.17077301
71,-0.037376214,-0.093038835,0.18173324,-0.026638981,0.0034127815
72,-0.1805236,0.11966944,-0.05320248,0.16838698,-0.12253746
73,-0.056601256,-0.02807136,0.32062313,-0.11735837,-0.01479327
74,-0.23401317,0.067214586,-0.37792143,0.3875694,-0.11143874
75,-0.114400834,-0.13772191,0.14848682,0.18780765,-0.11532972
76,-0.26357853,-0.0091403425,0.13050671,-0.09085712,0.16586469
77,-0.07636654,-0.17660277,0.38475358,-0.032740608,0.053832795
78,-0.030404963,-0.017632032,0.24716917,-0.046629384,-0.035942685
79,-0.12130489,0.09277073,-0.010378032,-0.010224856,0.02784844
80,0.0036699437,-0.16916445,-0.14719464,0.17905343,0.042923924
81,-0.04140512,0.3248807,0.27856362,-0.1482805,-0.24301995
82,-0.47235727,0.5258031,0.38650987,-0.28783223,0.005189412
83,-0.07047063,0.21764988,-0.13143052,0.045406826,-0.10050459
84,0.2132999,-0.076936886,-0.23567946,-0.072034076,0.10494588
85,-0.14016147,0.26420605,0.12895072,-0.20020774,0.039571565
86,0.07041679,-0.12546499,0.1972409,-0.0007866468,-0.05628809
87,0.32096863,-0.31799844,0.1620455,-0.2607781,0.13543667
88,-0.1325998,0.10604427,-0.079029046,0.0809321,-0.06951784
89,-0.015673898,0.09398156,-0.16768406,0.044942576,0.028317457
90,-0.12796287,0.16729303,0.32148516,-0.16663682,-0.06455665
91,-0.034030326,0.024518881,-0.3622763,0.35229105,-0.14672188
92,0.22235434,-0.6631669,0.4348127,-0.21205874,0.2433019
93,-0.16208278,0.3022381,-0.13899876,0.029773196,-0.0833442
94,-0.086957306,-0.17376328,-0.045205332,0.16322698,0.026276384
95,0.08389544,-0.19253144,0.26473475,-0.054066863,0.0005990066
96,0.18204378,-0.28213716,0.08366165,0.005542248,0.07319985
97,0.037423875,-0.15132977,-0.19334082,-0.010807533,0.18830192
98,-0.05401435,0.13505228,0.06307963,0.023656752,-0.1395587
99,0.09708266,-0.16424888,-0.114537425,0.17955422,-0.08370452
100,-0.018192487,0.048255607,-0.10572144,-0.028881121,0.09787621
101,0.049730346,-0.25485477,-0.15890117,0.22458391,-0.023262605
102,-0.3484988,0.5810045,-0.08215787,0.073063,-0.19189766
103,0.05612865,-0.06823559,-0.11864669,-0.05190193,0.106462166
104,-0.13109297,0.15831721,-0.00030780968,0.1516019,-0.13592392
105,-0.082332335,0.26707613,-0.21511754,0.16796628,-0.1730705
106,0.004043859,-0.16178466,0.03182437,0.010531688,0.063366406
107,-0.111506,0.10373283,-0.079803884,0.06370131,-0.030644864
108,-0.19166422,0.31490952,-0.08947064,0.0007361635,-0.072084896
109,0.02780067,-0.13374105,-0.2442842,0.16005826,-0.0065547354
110,-0.09240232,0.12172487,0.17681874,-0.068932116,-0.013504804
111,0.014820239,-0.029590154,-0.060867388,0.03128991,-0.022563355
112,-0.18510075,-0.25998804,0.107405424,0.14342378,0.021982042
113,-0.052387487,-0.021589972,-0.3761463,0.088752426,0.15213582
114,-0.10660351,0.04771698,0.16787893,-0.11345217,0.03896444
115,0.10999345,-0.1346351,0.35378867,-0.18549871,0.03304417
116,-0.5258518,-0.40641835,-0.17061476,-0.09819211,0.31581432
117,0.010694176,-0.13829967,0.07155957,-0.018429216,-0.0627441
118,-1.5913633,0.5039725,0.025857247,-0.37221023,0.081586234
119,0.35228324,-1.4157933,0.51546955,-0.56032705,0.15222907
120,0.29772305,-0.32165655,0.013919166,-0.2734719,0.18188831
121,0.6748047,-0.921759,-0.7512636,-0.84089744,0.6318869
122,-0.6942016,0.38489702,0.34605116,0.38128725,-0.7644695
123,-0.01603334,-0.2551779,0.27047804,-0.2549858,-0.12930903
124,-0.0012289248,0.63715535,-0.94909906,0.24980435,-0.8479016
125,-0.47444725,-0.519735,-0.1511217,0.6609991,-0.15907452
126,-0.055898346,-0.47123322,-1.1325593,-0.11630803,0.534136
127,-0.80391383,1.1130055,0.18327539,-0.18418649,-0.5474826
128,0.7135389,-0.6483851,-0.0381153,-0.38464278,0.308522
129,-0.0007318994,-0.78127956,1.2561686,-0.5384439,-0.8634115
130,-1.6243021,0.62295735,0.13685262,0.035006806,-0.8199965
131,0.25546193,-0.06941738,-0.50705516,0.16776824,-0.31633216
132,-0.8963721,0.22913046,0.26382604,0.42909384,-0.48609132
133,-0.21716867,0.27316028,0.6561058,-0.43647924,-1.1111264
134,-1.62554,0.12585603,0.7173804,-0.27031448,-0.6146226
135,-0.64618737,0.5158108,-1.0944066,0.90200937,-0.7831662
136,-1.0599886,-1.1245522,1.1990082,-1.011545,-0.8894089
137,0.061059926,-0.00059291325,-1.5251333,-0.07583853,0.36254755
138,0.8195196,-0.46717137,-0.5901225,-0.56962115,-0.800734
139,-1.5036044,-0.08840554,0.008136572,-0.4389827,0.53826594
140,-0.25655842,-0.2664969,0.24016616,-0.41168877,0.521475
141,-0.23361228,0.45330834,0.18136014,-0.19909984,-0.052670576
142,-0.8213225,-0.98325217,0.9616225,-0.69032913,-0.93100345
143,-0.6677757,0.28126633,-0.3261815,-0.9022909,1.1262157
144,0.48240128,-0.3716269,-0.41519797,-0.36939067,-0.46663424
145,-1.2413088,-1.7334576,1.1072738,-1.3267148,-0.8932157
146,-0.72910744,0.58751917,-0.6053311,-0.027714036,-0.13095784
147,-0.844848,-0.6259698,-0.4563336,0.17295285,0.029422568
148,0.5952112,-1.0300927,-0.9228572,-0.117477864,0.3425932
149,-0.99223584,0.4121119,-0.75743294,-0.23503406,0.24396113
150,0.4563848,-0.3492846,-0.43848306,-0.3725194,-0.48421097
151,-1.1314396,-1.3482598,-1.1716306,1.004845,-0.25007653
152,-0.6809247,-0.902055,1.093821,-0.8421771,-0.9834026
153,0.17714728,0.03133383,-0.31884715,-0.039753694,-0.19578266
154,-1.2215428,-1.1980261,1.4319195,-1.1662658,-1.3873833
155,-1.1684365,-1.21542,1.1303387,-1.1047244,-0.5273904
156,-0.5298918,-0.73689616,-0.24350289,-0.18638386,0.48513192
157,-1.2074283,-0.9310732,-0.025386607,1.3370299,-1.3187089
158,0.009561882,0.18978097,0.4771854,0.099782206,-0.52025735
159,0.30768865,-0.19464782,-0.8943416,-0.020091841,-0.109653674
160,-0.4776492,-0.43195257,-0.56088835,0.076430276,0.28464377
161,-0.33407557,-0.26347473,-0.04018479,-0.61767167,0.64977634
162,0.7659244,-0.4047676,-0.52320313,-0.4035637,-0.6476596
163,0.5781335,-1.08887,-0.21123593,-0.5773231,0.7371798
164,-1.639886,-1.9134642,2.001202,-1.8067361,-1.7633054
165,-0.090951696,-0.06269377,-1.202037,0.040938217,0.31663674
166,-0.5468978,0.50751185,-0.6803287,0.40525433,-0.41851324
167,0.09858731,-0.06854692,-0.08815592,0.014756495,-0.06835304
168,-0.22008763,-0.4158053,-0.481147,0.8385584,-0.82344574
169,-1.310079,0.62054175,0.015234623,-0.45561963,-0.50171286
170,-1.0476949,0.39730543,-0.87516576,-0.36923432,0.4679981
171,-0.88431627,0.124921426,-1.6049863,0.34748968,-0.47645682
172,-1.0110115,0.12403185,0.74315643,-0.84391344,-0.44204554
173,-0.24655361,0.55801094,0.108605415,-0.47203496,-0.009053245
174,0.08375376,0.20011178,0.4471398,-0.82997483,0.17275307
175,-0.76775706,-1.4324834,0.08799786,1.2459023,-1.3700727
176,0.33870855,-0.5091035,-0.66114867,0.38630387,-0.06879376
177,-0.9721424,-1.3803782,1.299501,-1.176689,-1.0802871
178,-0.30408862,0.09020265,-0.21995057,-0.5583066,0.6893783
179,-0.60558516,-0.57042354,0.7645781,-0.26319164,0.32614407
180,-1.6941081,0.8095968,0.3070419,0.31371444,-0.43170556
181,-0.15295501,-1.2001266,0.8143139,-0.47137362,-0.26207533
182,-0.055168387,0.62216526,-1.1439798,-1.1682345,0.25904024
183,0.061833158,-1.5953188,-0.14924894,-0.43646592,0.545916
184,-0.8218011,-0.7981349,1.0323185,-0.6500497,-0.34973088
185,-0.32528678,-0.20222053,0.393838,-1.2742416,0.140204
186,-1.0046898,1.5923797,-1.5923551,-1.0486122,-0.8504929
187,-0.5042755,-0.19657075,0.21873952,-0.11073979,0.15409519
188,0.40818194,-0.79741824,-1.425665,0.3522947,-0.10788453
189,-0.59898144,0.23606344,0.21254335,-0.57421196,-0.7804679
190,-0.6725972,-0.9757106,0.9345519,-0.7394304,-0.90181375
191,-0.4231115,-0.6485178,0.25184265,-1.2572123,0.117676444
192,0.39859357,-0.7797645,-0.3782292,0.0632933,0.030719042
193,-0.38383925,-0.11066643,-0.13276343,-0.42333403,0.67054635
194,0.50673705,-1.1425384,0.032537505,-0.6448557,0.18489335
195,-0.32603693,0.112962216,0.8638643,-0.8840968,0.19580151
196,-0.78076464,-0.70536274,0.7894886,-0.80539495,-0.6869525
197,-0.2523844,-0.71110076,0.36319804,0.25940272,-0.3245608
198,-1.1277858,0.27556145,-0.41796008,0.4118438,-0.4468117
199,-0.12366788,-0.12062315,0.45881182,-0.2805806,0.019772764
200,-1.1337972,0.4059924,-0.4762458,0.46770194,-0.054531656
201,-0.2592454,-1.6227165,-0.8484242,-0.30952096,0.5348296
202,-0.03916617,-1.0677915,-0.64900976,-1.1976922,1.1943729
203,0.07454304,-0.90763664,-0.8285559,0.5447665,-0.05966473
204,-0.43739867,0.61050016,-1.1121088,-0.65115464,0.9118698
205,0.34490472,0.015983991,-0.5218947,-0.9650788,0.6755746
206,0.4196694,-1.8967009,0.22565487,-0.0786877,0.10728982
207,-0.5811289,0.66832995,-0.031084152,0.27122906,-0.5061008
208,0.49711826,-0.32003424,-0.028323308,-0.007050119,-0.2702662
209,0.3727348,-0.4642137,-0.4772316,-0.048154444,0.15339795
210,0.6494058,-0.45967695,-0.026795957,-1.7988913,1.1196342
211,0.08954984,-0.01677881,0.36035556,-0.13959153,-0.8674001
212,0.5884731,-0.09242995,-0.13296507,-0.7803966,0.45793292
213,0.016060216,-0.06898725,-0.0012296605,0.31315792,-0.43167594
214,0.4629158,0.2930403,-0.66910344,-1.0104066,0.5838621
215,-0.9962667,0.10065378,0.032414906,-0.34494668,0.5448551
216,-1.1379106,-0.870002,-1.3433683,-1.2218776,1.3902701
217,-0.43395492,-0.12503195,-0.017793154,0.15189154,-0.05330355
218,-0.5680043,0.3411125,0.38085926,-0.92672044,0.19633108
219,0.22880891,-0.5706588,-0.17838608,-0.9392231,0.68521386
220,-0.06838028,-1.192072,-0.97011554,-1.412323,1.0795267
221,-0.04260958,0.64327115,-1.4522114,-0.21587525,-0.9889309
222,-0.6409632,-0.6200823,-0.013790605,0.17090571,0.17465524
223,-0.018502612,-0.30969268,-0.85279065,0.87003183,-0.84625554
224,-0.571461,-0.6882858,0.46383736,-0.98028445,1.0626653
225,-0.510492,-0.41093713,-1.3367903,0.12218953,0.52935225
226,-0.78783077,-0.84301704,0.8217683,-0.6587805,-0.8241557
227,-0.124450274,-0.38294247,0.30756375,-0.60386485,0.37868345
228,-1.4969137,-0.63011396,0.91960305,0.7107709,-0.9078729
229,0.72779346,-0.7165644,-0.5180407,-0.6866532,-0.6004325
230,-0.49459282,-0.8521933,-0.16518064,0.8144383,-0.83850867
231,0.16660948,0.25417933,-0.0025629667,-1.1260024,0.52781063
232,1.1005652,-0.559184,-0.7108914,0.2248729,-1.227214
233,-0.81336194,-0.8033845,0.73076206,-0.8941392,-0.67471373
234,0.26968968,-0.53656006,-0.43376243,-1.48406,0.65514016
235,-0.564,0.86401045,-0.47079286,-0.5486585,0.26407185
236,-0.91254634,0.8804391,0.30792412,-1.0923359,-0.50849324
237,-0.25931263,0.5249834,-0.87448525,-0.22737549,0.059279054
238,0.9136716,-0.78931147,-0.72253835,-0.9550548,-0.68659
239,0.44649017,-0.59927994,0.79779357,-0.0057258066,-0.66061985
240,-0.0026358254,0.10112401,-0.020222545,-0.29372308,-0.041352443
241,-1.0916487,0.07370617,-1.3601177,0.17357028,0.10516333
242,-0.16327082,-0.08404865,-1.0842748,0.14878464,0.034434177
243,-0.19561358,-0.0024363997,-0.37532523,0.31489602,-0.22992286
244,-1.0135643,0.5143828,0.61999935,-1.5924675,-1.1277122
245,0.2703615,-0.39879864,-0.8226141,-0.43999237,0.6474409
246,-0.12941241,0.432214,-0.4964143,-0.99435323,0.21908861
247,-0.0133799715,-1.3414527,-1.4399463,-1.5828705,1.7026725
248,0.20558055,-0.2779983,-0.88673264,0.11505843,0.029623518
249,-0.022989236,-0.29387167,-0.8569747,-0.12559381,0.39163855
250,-1.5678049,0.6859523,-0.101894885,0.036715675,-0.28521457
251,-0.542018,0.011377642,-0.29166493,0.3174879,0.08520688
252,0.13057151,-0.16300146,-0.012704889,-0.5585728,0.37483907
253,0.11872806,-0.70793426,-0.57909673,0.39948612,-0.28356865
254,0.11076327,0.19243793,-0.6561541,-0.577282,-0.034483474
255,-0.096328884,-0.07277268,0.017620128,-0.013045809,-0.10048299
256,-1.2798585,0.20167416,1.1053989,-0.61851144,-0.781458
257,0.5114253,-0.6932075,-0.069246754,-1.0985682,-0.018638803
258,-0.6927833,0.22506936,-0.5037637,-0.011533777,-0.66933846
259,-0.6218075,-0.0043841824,-0.31072462,0.283392,-0.19600494
260,-0.923394,-1.003404,-1.128014,0.64534825,-0.29318267
261,0.30044293,0.17625368,-1.113791,-0.14526378,0.324247
262,0.109264575,-0.9441563,0.013876744,0.07711976,0.2612809
263,0.26063186,-0.92168427,-1.4563822,0.5727229,-0.2816828
264,-0.07592647,-1.1620264,-1.3499719,0.45935437,-0.2848223
265,0.27773955,-1.3730705,0.35718933,-1.0301648,0.5151438
266,0.08867512,0.19328298,-1.5603553,-0.28625876,0.12481624
267,-0.20743223,0.25437903,0.34346816,-0.19290213,-0.15571077
268,-0.20732236,0.2943138,-0.86858517,0.46966636,-1.0767571
269,-0.8602568,-0.87925345,-0.90644145,-1.0848427,1.1031533
270,0.52404374,0.053986594,-0.63191855,0.54900664,-0.86529255
271,-0.9212446,0.6067325,0.05032041,-0.9608861,-0.91968954
272,-0.35590136,-1.6984864,-0.4626119,0.7642572,-0.4869287
273,-0.16985343,-1.3071645,-1.2520467,0.002024446,0.3841161
274,0.5348536,-1.0028148,0.83320206,-0.9035957,-1.0642885
275,-0.8403628,-0.63105124,1.0501521,-0.77706194,-0.46651626
276,0.5616367,-1.4730812,1.4074283,-0.81833786,-0.5663157
277,0.19034775,-1.2603756,0.16005619,0.25325167,-0.17514627
278,-1.3329322,-0.2990985,0.3172143,-0.7141058,0.3830558
279,-1.2115548,0.19857673,-0.59612334,0.24821936,0.11026113
280,0.2906263,0.05867959,-2.0859044,0.17986846,0.0671627
281,0.46553454,-0.4780012,-0.17502224,-0.18676586,0.18475202
282,-1.0310817,-0.81566685,-0.88576883,0.31983554,-0.1467873
283,-0.895176,0.0017248925,0.5223461,-0.5991966,-0.475334
284,-0.9779193,-1.35507,0.90240365,-0.82330364,-0.514357
285,0.13129134,-0.262979,0.4590033,0.02324222,-0.36239275
286,-0.31428224,-1.200438,0.13470563,0.8341057,-0.8627712
287,-0.9649393,-0.2885273,-0.3578994,-0.0966428,0.6388702
288,0.44925678,-0.02410261,0.22379026,-0.98923916,0.047074944
289,-0.20169248,-0.5861606,-1.4143287,0.3018695,0.1322064
290,-0.55294806,-0.5910232,0.72494894,-0.5688018,-0.61638886
291,0.33866453,-0.22419287,-0.33995584,-0.35505643,-0.31471932
292,0.4913817,-0.08293324,-0.3126737,-0.23340051,-0.52580214
293,0.4767665,0.1530383,-0.056440786,-0.5632344,0.07934116
294,-0.29160354,0.45420748,0.8752733,-1.0408975,-0.10875734
295,0.08297594,0.18586847,-0.35062045,-0.51458204,0.4211308
296,-0.5212985,0.46447197,0.21170689,-1.3784904,0.42058215
297,-0.90251344,-0.07572991,0.13109647,0.32350352,-0.10678146
298,0.58005124,-0.53329885,-0.48506063,-0.49093616,-0.41277492
299,0.58632904,-1.121145,0.5834441,-0.5752268,0.05803263
300,-0.39763895,-0.36952493,0.9097245,-0.20667922,0.09084304
301,-1.4616873,-1.0879681,1.0071048,-1.0821371,-0.4463261
302,-0.37801585,0.6332442,0.3020389,-1.4631586,0.539261
303,-0.042633377,-0.42503473,-0.99980897,0.11619946,0.091324456
304,0.25705364,0.015174546,-0.15251523,0.020873163,-0.31481463
305,-0.5949316,0.13829893,-0.75718915,0.753689,-0.94022036
306,-0.036923133,-0.13431026,-0.6525135,-0.6674787,0.77001727
307,-1.5065519,-2.0421505,2.1251004,-1.0551275,-2.135044
308,-0.64909106,0.60569334,-0.48909903,-0.56529605,-0.45677054
309,-1.4113525,-0.50060153,0.9292208,-1.5459203,-0.8001129
310,-0.62028265,-0.6578036,0.7213251,-0.62800324,-0.78751415
311,-1.2946805,-0.21106713,-0.025946574,-0.34683502,0.6694569
312,0.68778706,-0.5905133,-0.4360112,-0.66724986,-0.59001005
313,0.0960435,0.076862164,-1.2306603,-0.13367352,0.33895823
314,-0.642871,0.3204737,-0.16482705,0.695256,-0.79132473
315,0.24922155,-0.2530824,-0.4594632,0.15907334,-0.106159694
316,-0.44560575,0.5347023,-0.5505858,-0.46125162,-0.56438845
317,-0.5070657,-0.24675994,1.1272296,-0.5352676,0.31808472
318,0.09725611,0.046174496,-0.51427776,0.07076188,-0.14282496
319,0.52117825,-1.1906153,-1.2105666,-1.1321106,1.1223757
320,-1.109187,-1.1089866,-0.7330502,-0.0154931145,0.30113035
321,-0.35894758,0.5210987,0.136718,0.04842055,-0.34900555
322,-0.79623806,0.6036252,-0.73925775,-1.2076062,0.8581314
323,-0.45251766,0.23981582,0.47918323,-0.533507,-0.34486476
324,-0.37521186,-0.4110629,0.25410813,-0.3905787,0.43432352
325,0.5234683,-0.1867832,-0.2581603,-0.1818215,-0.7017928
326,0.09091986,-0.002266223,0.20237236,0.2391988,-0.7139338
327,-0.038814373,-1.1520942,-1.060262,0.36361626,-0.08567787
328,0.22391957,-0.65420115,-1.1188796,-0.024093833,0.32389253
329,0.5369299,-1.6076279,-0.5828177,-0.122145146,0.5902217
330,0.4237746,-1.249223,-0.011791895,-0.7340202,0.6816255
331,-0.8260829,0.53443664,-0.019209951,-0.7718938,0.60641927
332,0.008686897,-0.22141863,0.4892589,-0.23329794,-0.32960203
333,-0.60524404,0.18627036,-0.4632053,-0.022602856,0.4244882
334,-0.4157505,-0.062705584,-0.12543054,-1.446737,1.0159506
335,-1.1647267,0.10981416,-0.17749853,0.37699795,-0.08851154
336,-1.7885675,-1.6757503,1.916398,-1.1232076,-1.74083
337,0.41949913,-0.05040873,-0.47603536,0.34593797,-0.3402835
338,0.13970743,-1.2993007,-0.35860017,0.10190165,0.11433245
339,-1.2120416,-0.9629975,-1.3284936,-1.4948528,1.5052223
340,0.0777,0.4240808,-1.7000409,-0.5410257,0.09170953
341,0.37883666,-0.30926463,-0.10106772,-0.5164371,0.3382737
342,-0.45367953,-0.85198873,-0.7595379,1.3124912,-1.3407117
343,-1.0683719,-1.1204727,1.1061226,-1.1033564,-0.58730674
344,-0.19387327,0.20594311,-0.53936577,0.11697331,-0.1733255
345,-0.06864978,-1.1718581,-0.87501746,0.31595394,0.09827757
346,0.374484,0.60742074,-0.41998816,-1.9107908,0.63035804
347,-0.24339026,-0.33767408,0.54751825,-1.3359796,0.91815084
348,-0.36280492,0.13041131,0.4700172,-0.3644209,-0.011501781
349,-0.44113472,0.9497165,-0.0040758257,-0.6444068,-0.14445889
350,0.7686237,-0.52174467,-0.55003136,-0.57836556,-0.6234964
351,-0.5595145,0.36300912,-0.30672243,-0.7472703,-0.2670649
352,0.27475035,-0.9441201,-0.16061129,-0.17922424,0.34585744
353,0.55820704,-0.16708788,-1.0704701,0.18076846,-0.21281496
354,-0.9844234,0.17078452,0.14136396,0.12221357,-0.13967095
355,-0.74631715,-0.7632888,-0.19263098,-0.021651825,0.5771114
356,0.5769584,-1.207687,-0.15093657,0.6919202,-0.83938354
357,-0.98567104,0.21877044,-1.9705064,0.107506044,0.06985938
358,-0.09200758,0.36037764,0.36415234,0.10960092,-0.6308819
359,-1.196039,-0.14573826,0.25864345,-0.5587045,-0.11915036
360,0.24299994,0.08837447,-0.81346893,-0.9243983,0.030903505
361,0.8188223,-1.3867425,-0.15868613,0.07741448,-0.1110027
362,0.60243285,-0.84589,-1.0463628,-0.3481305,-0.22365649
363,-0.21043578,-2.0804355,0.94710076,-0.3341831,-0.65330714
364,-0.35005078,0.39311048,-0.9145857,0.1134816,0.08293459
365,-0.46463022,-0.6624832,-0.06862746,1.1174808,-0.8348645
366,-2.0342872,0.34535,-0.7850422,0.15927029,0.0045808754
367,0.76592845,-0.8550183,0.5689778,-0.020341828,-0.8517952
368,0.30795735,0.07194944,0.47305697,-0.41997617,-0.7442678
369,-0.4972105,0.33126453,-0.6550166,-0.266409,0.4605012
370,-1.0902696,-0.35410485,-0.9590055,0.34577072,-0.19091037
371,-1.7052233,-0.9868061,-0.46844786,0.8059113,-0.3049158
372,0.52207047,-0.47928542,0.77482563,-0.45304933,-0.11546831
373,-1.3530854,0.96558,-0.636245,-0.5912898,-0.047391
374,-0.09859891,-0.6608203,0.45534974,0.49348497,-0.3955904
375,-1.0844305,1.0006993,0.21955997,-0.2696305,-0.39590377
376,-0.5278708,-0.7117846,0.48957515,-0.2015021,0.41034183
377,-1.1422731,0.46153367,-1.2956712,0.5832777,-0.9586967
378,-0.15988459,-1.588319,-0.03904609,0.10169279,-0.079042494
379,-0.68144256,-0.9012417,-0.304916,-0.7030656,0.5675196
380,0.59719205,-0.97092986,-0.9476443,-0.7205366,0.37340587
381,0.06821515,0.19363394,-1.0088739,-1.3005872,1.0197161
382,-0.9936743,0.047864955,-1.5534539,0.47064435,-0.01951104
383,-0.71254927,-0.11564774,0.45943576,-0.5705203,0.5646716
384,0.138028,-0.75616556,-1.3805164,0.7096221,-0.29722172
385,-0.22157031,0.27261868,0.3544831,-0.3508832,0.09729143
386,0.3205698,0.13101858,-0.4482167,0.28991687,-0.6040684
387,0.8421389,-1.3455862,-1.0926038,0.64556354,-0.19363412
388,-0.37454015,-0.521193,-0.07226511,0.1959937,0.13170326
389,-0.23653258,0.41214672,-0.5877898,-0.42040908,0.097975284
390,0.20928988,-0.87676185,-0.33799487,0.06180457,-0.2083813
391,-0.7479192,-0.8972799,0.8741912,-0.6279211,-0.84152585
392,-0.19359334,-0.75729036,0.36562842,-0.45658365,0.17563802
393,-0.733572,0.22048205,0.6809417,-0.5491728,0.46116433
394,0.11956106,-0.601515,-0.4231642,0.46573982,-0.31311265
395,0.23892124,0.09319616,-0.14078349,-0.65719426,-0.6139596
396,-1.9541799,0.469722,-0.9493096,0.07018575,0.03466868
397,-1.6316674,-0.16365418,-0.7323698,-0.53377503,0.8282926
398,-0.41701704,0.39048395,-1.2998407,0.45408964,-0.42235214
399,0.09046476,-0.29524752,-0.032246824,0.50624275,-0.76327026
400,-1.3879473,-0.060839713,0.37261224,-0.07317315,0.13918202
401,-0.2551775,-0.5746195,0.2652325,-0.13060942,0.13132949
402,-0.00852758,0.22624409,-0.50330234,0.1343601,-0.24406941
403,-0.44568148,0.18140459,0.046502028,0.08382806,-0.22903699
404,-0.25315928,0.4761048,0.37078604,-1.3493142,-0.3111359
405,-0.5212004,0.28818902,0.5591404,-0.50378776,0.077286504
406,-0.26863906,0.40779337,-0.7362819,-0.63885397,0.9530206
407,-1.2921916,-0.44440696,0.27487987,-0.7540892,0.27748746
408,-0.20985352,0.08430855,0.36456162,-1.0080042,0.21682078
409,0.42762825,-1.4734747,-2.5730598,1.1964549,-1.3604223
410,0.51789266,-0.8714906,-0.7273898,0.15900649,-0.34049258
411,-0.39233357,-0.4298637,0.28703624,0.93992287,-0.81312096
412,0.90411884,-0.867636,-0.8533836,-0.86257213,-0.8109279
413,-0.9339326,0.07047126,0.02183982,-1.0852424,-0.05542681
414,0.45420054,-0.79993373,0.08063697,-0.22136788,-0.23050651
415,-0.21367611,-0.12456963,0.2224278,0.19497283,-0.14315948
416,0.03557108,-0.38220355,0.51541615,-0.2340349,-0.014312727
417,-1.065812,-0.01128846,0.32560995,-1.0829347,0.04706204
418,0.36080027,0.2531315,-0.40191326,-0.38633624,-0.554531
419,-0.5408936,-0.36427292,-1.2959484,0.39342842,0.08581232
420,0.8331092,-0.65973234,-0.6815453,-0.5277848,-0.8633148
421,-0.11850527,0.56865984,-0.52904874,-0.58950096,-0.34915623
422,-0.49300092,0.089878544,0.24806108,-0.2321373,-0.034087807
423,0.021606047,-0.24092413,-1.4542106,0.3326977,-0.26351222
424,0.52650744,-0.48117393,-0.4880754,-0.46453154,-0.5358243
425,-0.82102984,0.24862945,-1.3742864,0.5863741,-1.1503837
426,-0.934016,0.8510971,0.13550644,-0.92181677,-0.5101226
427,-2.2813845,2.3756936,0.05049873,0.301825,-2.9778266
428,0.2017715,-0.070597716,0.71921307,0.2527511,-1.6231797
429,-0.8156552,0.21184261,0.2309973,-0.3719017,0.42830354
430,-0.77460396,0.37828246,0.43034965,0.12387395,-0.68391186
431,0.15692428,-0.24562973,-0.34196782,-0.21519439,0.2705315
432,0.51786715,-0.64014524,-0.6435541,0.14399195,-0.19824794
433,0.6494796,-0.47928032,-0.49432343,-0.5077164,-0.5878611
434,-0.41753298,0.29556626,-1.0313689,0.17340785,-0.17048608
435,0.37440178,0.32146198,0.22246212,-0.67425245,0.073334225
436,-0.99557364,-0.5612885,0.8411134,-0.044808388,-1.7145244
437,-0.44027188,-0.3175807,-1.7695373,0.20526639,0.072293326
438,-0.3543932,0.18185553,0.471234,-0.93425506,-1.828089
439,-0.5330071,0.2519266,-0.1837892,-0.645224,0.4106388
440,0.6321181,-0.13742393,0.50031394,-0.45530745,-0.48206267
441,-0.41093087,0.4897624,-0.3145155,0.21575108,-0.30780378
442,-1.4713558,-0.027313862,0.1124156,-0.2310044,0.2588548
443,0.5540716,-0.42762068,-0.4979579,-0.424633,-0.49147186
444,0.4453347,-0.082683764,0.457068,-0.73617715,-0.71386313
445,-0.54064953,-0.96106297,0.5177139,-0.48368877,-0.50441724
446,-0.34873644,0.33121228,0.21293111,-0.4182642,0.037672117
447,0.1545495,-0.25234765,-0.0318047,-0.76939017,0.5999788
448,-2.0931697,0.15632443,0.8005283,-2.393048,-0.63209593
449,0.31692424,0.619805,-0.90424824,-0.7517404,0.23668961
450,0.63375396,-0.24991302,-1.3311182,-0.3770056,-0.10287428
451,-0.79391986,0.47253212,-0.9477743,-0.4349435,0.94144267
452,-0.25929245,-1.2336138,-0.047273383,0.2009799,0.14357834
453,0.5261876,-1.4373579,-0.13484484,-0.24754748,0.06034328
454,1.3636957,-1.2123721,-1.0534723,-0.93963903,-1.1946428
455,0.1411641,-0.09792345,-1.9184762,-0.5990472,0.59844995
456,0.021857962,0.06881359,-0.577559,0.3317724,-0.20286974
457,0.41247848,-0.70899004,-1.0836803,-0.8141435,0.74720246
458,-0.17777936,0.2053244,-0.5429759,-0.12091399,0.1962653
459,-0.5535352,0.13041012,-0.51340896,-0.061570197,0.113818035
460,0.20693474,0.15739317,-0.547634,-0.78946143,0.5209992
461,0.45973912,0.1488228,-0.19799535,-0.59397423,0.24352674
462,0.19790445,-0.9441926,-0.02606415,-0.29594046,0.3273694
463,-0.6610861,-0.0060146656,0.4161917,-0.15981865,-0.1160296
464,-0.9149411,0.057000473,-0.12209707,-0.64484125,0.8964185
465,0.65798837,-0.17881037,0.26910144,-0.661499,-0.45963344
466,0.044441212,0.59144145,-0.97686005,-0.9283873,-0.1428504
467,-0.25278547,0.50435334,-1.127329,-0.35052022,0.1889631
468,-0.7164009,0.7547717,-0.6172771,-0.554827,-0.7163762
469,-0.46119466,0.15459284,-0.57898444,0.09050709,0.17283392
470,0.013014276,-1.1114218,-1.2006344,-0.08117376,0.17567232
471,-1.0814183,0.27936983,0.080980465,0.1375647,0.10007565
472,-0.03735717,0.872921,-0.78734523,-0.72213936,-0.07156822
473,0.22989684,-0.47872728,0.11090431,-0.32466236,0.19396341
474,-0.3872853,-0.8888089,-0.57291,0.6111656,-0.12483629
475,-1.4492885,1.3006281,-0.2768315,0.06962987,-0.68503153
476,0.19555545,-0.6381493,0.35560715,0.12581737,-0.34815615
477,0.36421162,-0.0049128,-1.65647,0.06674959,0.32533628
478,0.41381845,-1.4843524,-0.14192726,-0.44774175,0.5751689
479,-0.31586018,0.12537639,-0.017178182,-0.10407699,-0.033153784
480,-0.927804,1.1455181,-0.6202992,-0.08928117,-0.89567715
481,-0.9400924,0.25721508,-1.1229596,-0.06932069,-0.5215903
482,0.18896571,-0.26745814,-0.09067816,-0.005438708,-0.040078357
483,0.3977873,-1.2356832,-0.7279244,-0.4561061,0.2782611
484,-0.29258138,-0.3436289,-0.99534583,0.9464815,-0.6003282
485,0.06340573,-0.14419997,-0.9564771,0.25782776,0.21837094
486,-1.1331538,0.67401975,0.38888773,-0.29846272,-0.16187847
487,0.6586542,-1.2113373,0.79982054,-0.89282566,-0.49310762
488,-0.3656593,0.07481245,0.7793137,-0.56205904,0.23882134
489,-0.3324271,-0.14030902,0.49942797,0.31568176,-0.54073924
490,0.5389713,-0.7848573,-0.18063454,-0.4905771,0.2679606
491,-0.9446497,-0.7578782,1.0608327,-1.0035514,-0.74571353
492,-0.30695227,-0.6096555,0.58358663,-0.13317391,0.02414363
493,-0.22328238,-1.0835453,-0.1571759,0.1781709,-0.09019122
494,-0.7720887,0.19514497,0.12859707,0.17775422,-0.39153886
495,-0.68073934,0.34835145,-0.43548194,0.7265843,-0.6144585
496,0.19753243,0.1537509,-1.5801619,-0.30482182,0.0963541
497,-0.83168435,-1.1224489,0.7802334,-1.3470328,0.17703128
498,-0.25992244,-0.41952893,-1.2949842,-0.049204253,0.6968868
499,-0.012868194,0.3025077,0.018076079,0.028927,-0.324661
500,0.59136254,-0.7831733,-0.3712665,-0.52805567,-0.6964139
501,0.25899252,-0.67724097,0.006373918,-0.52270794,0.5507542
502,-1.5944651,0.32628933,0.87687135,0.18192023,-0.40547416
503,-0.3252966,-1.3784486,0.14645804,-0.37773734,0.4920858
504,-0.6576826,0.64449686,-0.67519724,-0.5370759,-0.52167726
505,1.3845599,-1.5031865,-0.8030022,0.286502,-0.16077335
506,0.46477842,-1.0099219,-0.10507627,0.2745829,-0.014131762
507,0.24213,0.26419055,-1.042078,-1.2296686,0.49505433
508,-1.4681325,-0.9868102,-1.3207393,0.64763224,-0.5049755
509,0.13057671,-0.42680806,0.48933378,-0.6562463,0.10788545
510,0.72345805,-0.5899188,-0.4548413,-0.7839655,-0.6939074
511,-0.73926824,0.82052904,-0.7502221,-1.0063236,0.29900813
512,-0.5981888,0.2908964,-0.14603221,-0.08506717,0.041788954
513,-0.284197,-0.020411711,-0.5890135,0.7129892,-0.7084872
514,0.36070445,0.051055487,-0.17341502,-0.106107004,-0.3148502
515,-1.2490311,0.29361662,-1.278619,0.11821223,0.41957366
516,-0.14253381,0.7906808,-0.9592445,0.27126032,-0.6886343
517,-0.90669495,0.61401767,0.075703196,-0.7428032,-0.02813502
518,0.41519278,-2.1425538,0.5211513,0.010565462,-0.4250849
519,-1.0027206,0.7543999,-0.28603065,-0.6649295,0.059449945
520,-0.7467045,0.5002708,-1.4002692,-0.55335736,0.7684163
521,-0.76125026,0.98785716,-0.5927605,-0.7777768,-1.0499853
522,-0.8084225,0.36644733,0.32751614,-0.89537376,-0.64510477
523,-1.1400415,-1.1068178,0.88037014,-0.88880885,-0.7124243
524,-0.8776586,0.5287426,-1.0874668,0.44317928,-0.3922002
525,-0.8458288,-0.5829799,0.20399673,-0.068957716,0.29565644
526,-0.24563754,-1.1446613,-0.33738953,0.14953433,0.3321237
527,-0.5001544,-0.80542415,0.55126435,-0.5157368,-0.62831724
528,-1.1126752,0.76811624,-0.4722231,-0.18142064,0.06690029
529,0.23708765,0.10888146,-0.2895289,-0.5716255,0.3642759
530,-0.74401045,-1.0509473,1.3234783,-0.9409363,-1.3411136
531,0.29224142,-0.85821074,0.50635594,-0.06380155,-0.54734665
532,0.44578448,-0.039945077,-0.77871287,-0.29208508,0.28015164
533,0.780764,-0.92464167,0.23732202,-0.21677881,-0.35993764
534,0.08547987,-0.646136,0.44033647,-0.2707805,0.36656505
535,0.068335235,0.27322096,-0.33948612,-0.2410274,0.13185675
536,-0.9125656,-1.028806,0.010009388,-0.50144607,0.6275186
537,-0.20714435,-0.5611688,-0.09069879,0.29617736,-0.21629238
538,0.5323919,-1.2161773,-1.0798913,-0.5474411,0.8120099
539,0.24982223,-0.6324947,-0.63734907,-0.41081646,0.7071008
540,0.19745883,-0.3802671,-0.61748725,0.16613641,0.5770657
541,-0.6222712,-0.6553931,-0.07588572,0.56253016,-0.01341154
542,-0.3846007,0.093671106,-0.006836802,-0.47307727,0.5715192
543,-0.4286256,-2.2373092,-0.12093577,0.30458567,-0.0063014627
544,0.2921494,-0.11214291,-0.08228343,-1.1837208,0.8020568
545,-0.17555733,-0.15563573,-0.7696222,-0.5254776,0.9270233
546,-0.7495846,-0.15320997,-0.62286896,0.3721757,0.0360535
547,-0.4558203,0.28545558,0.49336907,-0.71122086,0.34399775
548,-1.2119675,0.09201473,0.6520839,0.15964706,-0.30865765
549,-0.14095154,0.31841567,-1.0348455,-0.13034011,0.23441683
550,-0.19263987,-0.198217,-0.41197836,0.021088138,0.35291
551,-0.37721676,-1.0001469,0.9658002,-0.17089991,-0.5657917
552,0.7245056,-0.96008277,-0.63507634,-0.86395586,-0.5879297
553,-1.0349448,0.6469326,-0.95512086,-0.2500352,-0.0542313
554,-0.35160273,-1.4517823,0.38856053,-0.32000327,0.06386081
555,-0.024390994,-0.53446436,0.2617625,-0.35341206,0.38186103
556,-0.122132935,-0.9488171,-1.0863439,0.087706946,0.13049175
557,0.46803492,-1.0035169,-1.2809699,0.2440626,0.14782073
558,0.20358972,-0.63139576,0.7024165,-0.94777405,0.10474508
559,0.30554688,-1.5299164,0.5518677,-1.3583343,0.27848896
560,0.05087634,-0.3727692,0.049939975,0.32091048,-0.57163024
561,-0.36832356,-0.36340898,-0.0036294104,0.30597892,-0.2588968
562,-0.6908472,0.3451232,0.28752992,-0.10764747,-0.1750764
563,0.6555706,-0.13696459,-1.2924271,-0.2662528,-0.021663377
564,0.17557332,-1.5124756,1.5781057,-0.25579113,-0.6515821
565,-0.5531122,-0.50189066,0.6878192,-0.5406126,-0.7531147
566,-0.23695087,-0.9283157,-0.1263955,-0.9162297,1.3377482
567,0.08789705,0.18061589,-0.60750246,-0.80486387,0.3341631
568,0.15878376,0.07306198,-0.019087411,0.023199905,-0.39524972
569,-0.095109984,0.38450617,0.023135034,-0.80636656,0.15235071
570,-0.75374335,-0.13933364,0.9683838,-0.630991,-0.5397311
571,0.63152206,-0.025719652,-0.2911387,-0.8459104,-0.7082537
572,0.032018203,-0.379639,0.30571797,0.2796885,-0.4244777
573,0.0505774,-0.62565726,-0.3947327,0.42493832,-0.05657372
574,0.1098073,-0.83492893,0.018830182,0.1846699,-0.32895508
575,-0.24187742,0.022556815,-1.3337594,-0.18745074,0.31053352
576,0.17195319,-1.1347435,-0.5923083,-0.036738034,0.27642646
577,-1.2344289,1.149621,-1.7530249,0.31925967,0.119610526
578,0.90507215,-1.0857382,-0.8772981,-0.6608406,0.4894656
579,-0.19793999,-0.40934268,-1.1919789,-0.31576663,0.90285635
580,-0.07949177,-0.027614111,0.57944065,-1.2970413,0.7157496
581,0.3039447,-0.18544829,0.43080541,-1.24449,0.46966618
582,-1.0912749,0.016957505,0.119399466,0.18056744,-0.10988938
583,-0.009557469,0.09999581,0.15599476,-0.8131073,0.57905364
584,-0.33471507,0.9408415,-1.1021585,0.0828535,-0.70694953
585,0.47925207,0.52930886,-1.7693595,-0.64523995,0.44026667
586,0.088201515,0.6770164,-0.439795,-0.4840742,-0.041796155
587,-0.22387527,0.19296762,-0.446735,0.022808153,0.0113870865
588,-0.97748554,-0.44338867,-0.7185877,1.3731918,-0.9509578
589,-0.56571096,0.48868167,-0.9817181,0.1891932,-0.11365551
590,-0.89290327,0.2010337,0.28768727,-0.56884176,0.035401925
591,-0.44730955,0.06514652,0.45282114,-0.3624276,-0.20697092
592,-0.39632398,0.21752729,-0.8438407,-1.3245493,1.0911291
593,0.052781418,0.152182,-0.70055294,-0.6699667,0.58206075
594,0.56020933,-1.020353,-0.4096465,-0.014659854,-0.14383297
595,-1.8721218,0.4694738,-0.2985072,0.34915358,-0.57316756
596,-0.5595805,-0.15164147,0.4070363,-0.13130993,0.25775814
597,-0.67161965,1.1528475,-1.0531939,-0.9033074,-0.96975774
598,-0.23076352,0.16595897,0.14947271,-0.16869745,0.059782535
599,-0.7735957,0.16846967,-0.19918747,0.57400584,-0.2710857
600,-1.3979123,0.11557254,0.12018072,-1.4053726,0.27018726
601,-1.1882447,-0.07640258,-0.11458004,0.035549995,0.15855207
602,0.59444135,0.117353044,0.1107612,-1.1144804,-0.7559395
603,-0.31017342,0.14500862,0.081042394,0.006062108,-0.19844048
604,-0.35653883,-0.2697011,0.84248275,-0.516448,-0.7647075
605,-0.99432373,-0.9350456,0.23176062,-0.9089434,0.0021290125
606,-2.7603984,2.0623162,-1.2912064,-0.1180541,0.19643384
607,0.5154979,-0.85940075,-0.9311899,-1.196801,0.88693064
608,0.019128017,0.16586661,0.9551064,-0.7906019,-0.43002236
609,0.47677383,-0.86426675,0.010141722,-0.36183017,0.16064984
610,0.06488724,-0.79568416,-0.43590775,-0.3785534,0.62860334
611,0.15481551,-1.4853187,-0.8949588,0.6527548,-0.6194615
612,-1.4402443,0.5402534,0.60563093,0.27666208,-0.5750437
613,0.065822124,0.02949125,-0.090577476,0.12488277,-0.39486068
614,-1.0681574,0.5862763,-1.1334865,-0.04995653,-0.3752425
615,-1.0052847,0.46757758,-0.34905016,0.06448129,-0.11466176
616,0.49151188,-1.233583,0.7681958,0.07676288,-0.43164644
617,-0.6096826,-0.047177035,0.5513073,-0.23903525,-0.46808243
618,-0.4950251,-0.13524665,-0.31884578,-0.017106315,0.43368047
619,-0.4438738,0.94684666,-1.3055799,-0.22304472,-0.3721365
620,0.27231672,-0.81734794,-0.14594479,-0.1851745,0.3347436
621,0.6813277,-1.2436153,-0.6485976,0.5117429,-0.6515222
622,-0.7082156,0.5304772,-0.30198616,-0.234242,0.06833357
623,-0.99378526,0.5006694,-0.35871252,-1.0579375,0.86603904
624,0.6505468,-2.6734471,-0.40657476,-0.40388536,0.5066049
625,0.93524975,-0.91571814,-0.60761416,-0.91565883,0.06914653
626,0.053088088,-0.1524403,-0.42547056,0.10475102,0.03657004
627,-0.3514425,0.31415525,0.52134866,-1.0789654,-0.79439646
628,0.24517138,0.18040353,-1.3402358,-0.4322465,-0.1825412
629,0.8290326,-0.8913653,-1.0452576,-1.0114688,0.69467473
630,-0.16934311,-0.38223156,-0.44856703,0.40057245,-0.21932888
631,-1.1107436,-0.9125689,-1.0571684,1.2771946,-1.3157265
632,-1.3676735,-1.328245,-0.4257289,0.689397,-0.5036294
633,-0.74202436,-0.17490378,0.628591,0.77737814,-1.1509649
634,-0.529564,0.47983885,-0.5333344,-0.82296574,0.40916714
635,-0.7268965,-0.36361086,0.6667816,-0.7712781,-0.86950505
636,-0.24463634,-0.34605977,-1.0761797,0.45200014,-0.027506946
637,0.3413961,-0.2173439,-1.4333156,-0.04816126,0.27865687
638,-0.8440941,0.36678356,0.27042836,0.3636014,-0.4004561
639,-0.9583285,-0.6962379,0.88133425,0.52812165,-0.8722806
640,-1.6377208,-0.08031798,0.5003936,-1.132954,0.17531203
641,-0.39028484,0.11839044,-0.10626904,0.14283636,-0.1172014
642,-0.2713048,-0.5612944,-0.7825725,0.49310234,0.22585618
643,-0.13495766,-0.543834,-0.8689189,0.31167173,-0.19584005
644,0.39782274,-1.4452345,-0.33961734,0.015614158,0.100512326
645,-0.33453828,-0.056709453,-0.8220282,-0.7507046,0.88656336
646,-0.7302178,0.5571624,0.19842106,-0.6187608,-0.76481444
647,-1.3349285,-1.3209223,-0.52115536,-0.96179765,1.2154199
648,0.248079,0.03892028,-1.4230634,-0.22160652,0.22589202
649,0.02422105,0.5136378,-1.1900985,0.1017179,-0.17275678
650,-0.21959397,-0.83633393,0.65009487,0.030141016,-0.32052386
651,0.05181651,-0.5525558,-1.1314776,-0.1645602,0.46810088
652,-0.2561764,-0.32603106,-0.605613,0.47425598,-0.20940153
653,-0.06600744,-0.06866194,0.65423435,-0.47644454,-0.041794017
654,0.08006591,0.33521393,-0.4261015,0.04796255,-0.3613027
655,-0.72727466,-0.5852952,0.8850776,-0.7093626,-0.804029
656,-0.1186636,0.20851523,-0.37153637,-0.65163714,0.56269896
657,0.7384543,-0.91697043,0.54166394,-0.8706955,-0.6941548
658,-0.8146882,0.5627683,-0.6678615,0.13955347,-0.6080743
659,-1.2033646,1.1078964,-0.40945962,-0.9162202,-0.072254516
660,-0.08353264,-0.9340926,0.22165328,-0.55645406,0.4945165
661,-0.99729896,0.6629696,-0.6207924,0.27097645,-0.5750911
662,-1.1999025,-0.010229147,0.6744631,-1.513243,0.65420365
663,-0.021144968,0.43060192,-0.8139227,-0.47550556,0.54999304
664,0.9291183,-1.5742764,0.3106399,-0.70337886,0.009649301
665,-0.76727426,-0.30654415,-0.94854236,0.78195053,-1.1332364
666,1.189435,-1.4062376,1.2267759,-0.5402783,-1.3463147
667,-0.13836314,-0.8725359,0.41234547,0.19568503,-0.18924227
668,0.30002186,-0.08990203,0.2868496,0.6609701,-1.4222255
669,0.7466067,0.05820256,-0.14208406,-0.68361926,-0.93834406
670,-0.10486956,0.58124053,-0.1793718,0.0018362876,-0.63531333
671,0.47712415,-0.17157818,0.11951146,-0.47283328,-0.20337053
672,-0.23427539,-1.3530313,0.3037435,-0.2514113,0.34449205
673,0.10584235,-1.3835461,-0.44953313,0.99117804,-0.8706228
674,0.017491493,-0.1643341,0.082307965,0.045343507,-0.12357231
675,0.35807273,-0.056166977,-0.23641886,-0.1505246,-0.039125897
676,-1.3405417,0.7447738,-1.0201441,0.24989574,-0.37981197
677,0.08790369,-0.12501456,-0.27825338,-0.22875156,0.1868727
678,-0.6833651,0.49126017,0.09333428,0.1527381,-0.69934213
679,0.61947167,-0.55740345,-0.48783275,-0.5211264,-0.6556581
680,-0.06527882,-0.6111293,0.34374928,-0.90833086,0.5122461
681,-0.74587667,-0.72698325,-1.083049,1.0490712,-0.9927625
682,-0.05706337,0.137872,-0.27167746,0.47817776,-0.48954055
683,-0.702807,-0.73887706,0.8802677,-0.76479846,-0.91232353
684,-1.6160668,1.0291842,0.5077665,-1.2800401,0.08347694
685,0.289239,-0.5375979,-0.018506303,-0.45939782,0.41602102
686,0.25669047,-0.13032301,-1.2613758,0.05222958,0.039848164
687,0.27783597,-0.73664355,-1.0163277,0.15546542,0.2686882
688,0.5785973,-0.5482851,-0.6381726,0.34999597,-0.7286689
689,-0.9261547,-0.029265193,0.76378894,-0.7704907,-1.1328788
690,0.71289223,-0.6156413,-0.54508233,-0.5466564,-0.5103892
691,-0.15641433,-1.0422226,0.9003829,-0.71815234,0.4815917
692,-0.28610405,-0.03973005,-0.6068502,-0.40000638,0.6521575
693,-0.030502792,-0.35545182,-0.54257905,0.071251206,0.23141672
694,-0.48783016,-0.50412756,0.4138719,0.28025356,-0.27489427
695,0.47453222,-1.8782421,-0.8222834,-0.014100353,0.5621945
696,-1.3614523,0.37330258,-1.141113,0.35184065,-0.32809776
697,-0.7721767,-0.28802523,0.6868403,0.058256153,-1.7824503
698,-0.41319868,-0.41364422,-0.22773175,-0.012687901,0.52851486
699,0.14807673,-0.25790024,-0.3220459,-0.14345133,0.15404221
700,0.005699279,-1.2627052,0.4354815,-1.1757978,0.07684901
701,-0.3266305,0.75171876,-0.2579135,-0.06828409,-0.661344
702,-0.15527612,-0.6080214,-0.872301,0.62119424,-0.0006201082
703,-1.3986006,0.51249504,-0.08848256,0.5383873,-0.865901
704,-0.7589772,-1.2776866,0.27707973,-0.39244533,0.21577732
705,-1.1738682,0.17430283,-1.3436397,0.47069275,-0.42989513
706,0.34849793,-0.9347286,-0.25996828,0.15938854,-0.07440029
707,-0.4705575,-0.46791753,-0.68514276,0.088928774,0.45892057
708,0.08609246,-0.37003592,-0.7134828,-0.733353,1.0029786
709,0.048295524,-1.7734324,-0.7486008,0.4174956,-0.09638372
710,-0.64472336,0.32849625,0.41602072,-0.8997657,0.32213783
711,-0.07802626,-0.21143028,-1.6236815,0.24569318,0.15289699
712,-0.39900035,-0.09469684,-0.016217919,0.8480758,-0.97592896
713,-1.2643394,0.5081796,0.035520107,0.035341967,-0.09100345
714,0.29899275,-0.20780587,-0.6817418,0.52481055,-0.8149244
715,-0.9376267,0.45893595,-1.6657422,0.4151572,-0.06674071
716,0.35604495,-1.3897611,-0.80568177,0.08457316,0.39533004
717,0.56135464,-0.16163726,0.6549086,-0.41577098,-1.0950546
718,0.1441797,-0.3507054,0.3686683,0.8528326,-1.4260466
719,0.7390913,-1.0849589,0.7496077,-0.9666598,-0.43580288
720,-0.7324876,0.5354122,-0.34600893,-0.78484744,-0.8981874
721,-0.9185096,0.5895329,-0.3797379,-0.057507183,-0.11521569
722,-2.1071455,0.7038311,0.30787858,0.53754324,-0.5023584
723,-1.975151,0.6596937,0.18109134,-0.48006356,-0.29600832
724,0.08058377,0.50885004,-0.43785435,-0.45141312,0.081102856
725,-1.1823063,0.40675017,-0.018955156,-0.1190541,-1.0369673
726,-0.19811133,0.63289964,-0.22824651,-0.812147,-0.036119044
727,-0.5172574,0.68934935,-0.6347575,0.03885986,-0.4780476
728,-0.397952,-0.41333023,0.28705934,-0.026476922,-0.3203041
729,-0.36912072,-0.06202196,-0.32157502,0.5585049,-0.53047764
730,0.82112116,-0.6497078,-0.60008615,-0.13974398,-0.011861026
731,-0.34054527,-0.68618745,-1.1633143,0.8671478,-0.35706457
732,0.07525876,-1.8531667,0.98504186,-1.2670467,-1.6721338
733,-0.1980053,-0.2935274,0.6834272,0.2506914,-0.462649
734,-1.2282294,0.94736403,-0.39587268,-1.353127,0.8593844
735,0.53212065,-1.2871069,-0.53494716,0.33439073,-0.41458774
736,-0.3159467,-0.36702818,0.26215905,0.0015407767,0.06091866
737,-0.5929825,0.2756162,-1.710139,-0.15531465,0.30600804
738,0.21039653,-0.7634922,-0.756212,0.49602064,-0.4986277
739,0.47384542,-0.79160446,-0.24771157,-0.2991129,0.30319703
740,-1.3372935,-0.1750964,0.2765021,-0.023799129,0.06224773
741,-0.4574919,0.3957505,0.09534184,0.29714668,-1.3466425
742,0.19066794,-0.18309328,-0.3031801,0.10061955,-0.10914
743,0.087504126,-0.40966392,-0.5792281,-0.889025,0.85729766
744,0.13476712,-0.10878889,-0.2440292,-0.3778377,0.20837072
745,-0.84508526,0.8732582,-0.64910996,-0.8578069,-0.5647259
746,-0.6135713,0.8404209,-0.68371314,-0.65993875,-0.6250891
747,0.045195144,-1.3805257,-0.41683426,-1.1993703,0.81418025
748,-0.18023266,0.4448999,0.32704815,-0.14136699,-0.48342407
749,0.6534386,-0.33468944,-0.40460038,-0.26087403,0.1982488
750,0.9834173,-1.1630808,-0.4965904,-1.1430513,0.2091795
751,-0.23758824,0.5223536,-0.99016285,0.3454939,-0.6420813
752,-1.3523293,0.8049022,-1.1482973,0.23329966,-0.62417996
753,-0.6634068,1.2051007,-1.0763928,-0.88659346,-1.0334224
754,-1.1463027,-1.1797005,0.9017742,-1.2149425,-0.48172677
755,-0.8889671,-0.77206355,0.90499645,-0.7410923,-0.938318
756,0.022776553,0.3830677,-0.19845816,-1.6097703,0.8345406
757,-0.7350636,-1.168707,0.51088184,0.19615814,-1.2914053
758,-0.57709664,-0.90215373,1.1205889,-0.8262218,-1.1472415
759,-1.0777003,1.2152196,-1.1111019,-1.0919925,-1.0429466
760,-0.48106036,0.031545576,0.4396455,-0.88252985,0.33463305
761,-0.9341476,-0.12810752,0.023978908,-0.2505192,0.49929592
762,-0.028104475,0.033794444,-2.5447235,0.16057245,0.093442105
763,-1.1609579,0.43311992,0.46108148,-0.016527258,-0.36934212
764,-1.5824425,-0.8707078,0.38864386,-1.8426962,-0.20288502
765,-0.96605974,0.5567178,-0.8026951,-0.75867707,0.61909956
766,-1.1105205,0.58695334,-1.4118191,0.54993165,-0.17436373
767,0.5652864,-0.8569437,-0.028138286,-0.59454876,0.075898774
768,0.15331993,-0.52941495,-0.7292894,0.32118124,-0.05295791
769,-0.871237,0.04284623,-1.3727503,0.3610495,0.047908936
770,-0.27068654,0.04942495,-0.12612675,-0.48581964,0.35965875
771,-0.4614534,0.23624843,0.4219609,-0.5729569,0.29339403
772,-1.1933676,0.082790755,0.6054584,-1.2845277,-0.6345114
773,-0.37271106,-1.0639268,0.03939303,-0.16342306,0.31613985
774,0.4128899,-0.121821456,-0.5305753,0.055617757,-0.3088878
775,-0.17120048,-0.7811035,-1.9393755,0.7537773,-0.5004529
776,0.22507025,-0.95213467,-0.6536668,0.7915399,-0.70892775
777,-0.6198458,-0.26713735,0.70070547,-1.2887324,-0.66427684
778,-0.8312188,0.3718816,-0.08977537,-0.29220203,0.12361724
779,-1.1259584,-1.2051321,-0.9033816,0.8946088,-0.7034824
780,0.3836356,-0.94395274,0.04379652,-1.622133,0.64305615
781,-1.4464622,-1.6660609,-0.024117967,0.5115712,-0.05786413
782,-1.372447,0.64154917,-0.19939108,-0.19758423,-0.331563
783,0.348027,-1.123199,0.4635828,-0.6320949,0.045241624
784,-0.9506978,-0.2070813,1.4105507,0.08593565,-1.138591
785,-1.5450044,0.684723,-1.1874776,0.49099848,-0.21339622
786,0.11004712,-0.28175792,0.13257691,0.0104059065,-0.12243795
787,0.37082896,-1.0766591,-0.9813397,0.5263013,-0.6666588
788,-0.6208917,0.5225008,-0.23740487,-0.20516066,-0.883694
789,0.2419242,0.21101211,-0.24480459,-1.1652145,0.6476858
790,0.9950204,-1.5952281,-0.0669337,-0.6996812,-0.45487526
791,0.6501648,-1.2906243,0.2464341,-1.0796013,0.3484279
792,-1.241673,-0.23701558,0.17735842,0.82238644,-1.1678385
793,-1.0512965,0.19062723,-0.39058766,-0.78059506,0.4180112
794,-0.94258547,0.89673245,-1.2243794,-0.24221861,-0.12061043
795,0.3136169,-1.0176779,0.08160316,-0.3203292,0.62340456
796,0.78193617,-0.57744247,-0.5083082,-0.9622645,-0.5151086
797,-1.1326466,-0.43903863,0.5913615,-0.19581108,0.1325984
798,0.058268834,0.0092166085,0.4719082,0.09100069,-0.61882335
799,-1.3035572,0.45551923,0.919829,-0.4910288,-2.2848248
800,-0.039068125,-0.052623186,-0.14114387,-0.090316705,0.02741727
801,-0.24997284,0.55300164,0.2107067,-0.22818674,-0.26022178
802,0.32845062,0.42975974,-0.3958436,-0.3980173,-0.4676885
803,0.89412034,-0.91051465,-0.69019145,-0.6287983,-0.7942456
804,-0.500375,-1.7636102,0.14205152,-0.090952866,0.25720182
805,0.29900396,-1.1457691,0.4918854,-0.37032753,-0.2537793
806,-0.91785055,-0.8493836,0.7588011,-0.6411026,-1.0323824
807,-0.47629774,0.3364927,-0.05525851,0.011236093,-0.35164076
808,-1.1399937,0.9233015,-0.6811334,-0.71315986,0.35744157
809,-0.7085882,0.5277257,-0.8298651,-1.1533401,0.9474586
810,0.022129,-0.17467366,0.63980055,0.17058338,-0.8482598
811,-0.20198956,0.27788636,-0.49663407,0.37814665,-0.35342324
812,-1.1560093,1.2755516,-1.121258,-1.0573725,-1.1628909
813,0.30829632,-0.2258307,0.55443764,-1.0206445,0.538397
814,-0.909251,0.48554286,-0.55227226,-0.8710708,0.5101362
815,-0.6539159,0.26323625,-0.8099581,0.51490223,-0.25968438
816,0.45325604,-1.7090222,-0.9845179,0.18244901,-0.009267588
817,0.21840979,-1.4447924,0.6207132,0.0020025906,-0.40448973
818,0.4062895,-0.22446935,-0.6824659,-0.9682333,-0.6383882
819,0.71794933,-1.3309336,-0.6193407,0.002811269,-0.5724835
820,-0.371714,0.65175825,-0.23256132,-0.21255516,0.05174532
821,-0.34693602,-1.2149166,-0.83166516,1.2367456,-1.1493078
822,-0.79604197,0.33025715,-0.8217611,-0.6457782,0.7223746
823,-0.80373573,-0.86496365,0.08650978,0.2676764,-1.0432881
824,0.85822415,-1.2274534,-1.6786565,0.1622689,-0.46881628
825,0.13106166,-0.12692277,-1.6125797,0.08174704,0.012415479
826,-0.63943255,0.55638325,-0.53893375,-0.9222469,0.48796564
827,-0.5436508,-0.5493858,-1.0499424,0.98738295,-0.8830576
828,-2.019495,0.37046528,-0.7443941,0.3041073,0.06675761
829,-0.9951578,0.27088028,0.08068912,0.16233955,-0.12946725
830,-0.22616428,0.2949825,-1.3324567,0.032804668,0.2973017
831,-0.052394826,0.03250405,0.17863865,-1.0256237,0.4306089
832,1.4005302,-2.0671115,-0.50993794,0.42514342,-0.32764965
833,-1.4524492,-0.2709528,-0.047302406,-0.11259331,0.5044086
834,0.19420864,0.384089,-0.01942593,-0.5988732,-0.009438533
835,-0.11108499,-0.5592129,-0.23900442,0.27874857,-0.15870565
836,-1.0195862,-0.47337842,0.9963852,-1.1518279,-1.2286164
837,0.18259887,-0.48375115,-0.8233242,-0.14337851,0.56984055
838,-1.3403226,-1.5309353,-1.29282,1.2095108,-0.86862373
839,-1.1659808,-1.3102298,0.934759,-1.3838929,-0.4654699
840,-0.4267438,-0.35626292,-1.3593966,-0.5429096,1.2100168
841,0.34005648,-0.66150135,-0.4725254,-0.831521,0.64455473
842,-0.15926068,0.75904703,-0.5851247,0.20423673,-0.55895823
843,-0.91941017,0.23598744,-0.7200421,-0.67939484,0.4564571
844,0.6250291,-0.4322532,-0.5977999,-0.4532434,-0.52457607
845,0.43619934,0.23507585,0.951979,-1.0362232,-0.5520401
846,-0.41108567,0.36024827,-0.7471291,0.1732809,0.010570674
847,0.28847748,0.3889379,-1.0077236,-0.39663115,0.014053766
848,-1.0241969,0.5308389,-0.90554476,0.61927944,-0.41588035
849,-0.35105866,-0.007809973,-0.8988563,-0.49924752,0.74281794
850,0.111260094,0.100509286,-1.5415114,0.17766015,0.016656874
851,-0.8814019,0.4097002,-0.081663355,-0.35260895,0.30493462
852,0.36060104,-0.6008857,-1.2176304,-0.5435581,0.7010156
853,-0.3726408,-0.6511156,0.09253464,0.18622696,0.026626958
854,-0.84822917,0.89427894,-1.0245597,-0.7591587,-0.7406412
855,-0.09277875,0.051375415,-0.3252323,-0.43993226,0.42144433
856,0.24748413,-0.31886926,-2.9800928,-0.020468812,0.22782564
857,-0.009265282,0.57079166,-0.53428173,-0.43462119,-0.6519469
858,-0.7856376,-1.0129602,0.37279764,-0.9290692,0.25119781
859,0.01751351,0.18558313,-0.35948524,-0.12891544,-0.65929514
860,-1.1643922,-0.2144489,-0.04385913,0.91235524,-0.82678866
861,-0.9911753,-1.2537185,1.46694,-1.1136662,-1.5074645
862,-1.0248057,-0.32758263,0.83692515,-1.0958933,-0.42997968
863,0.2988748,-0.62843484,-0.32463607,-0.93307614,0.85125655
864,-1.6319811,1.4451245,-1.2226428,0.41303387,-1.5318161
865,-0.1999523,-0.16230583,-0.047924545,-0.5060868,0.5994198
866,0.11821737,-0.079259045,-0.5845175,0.44097057,-0.44019797
867,-0.35248026,-0.17073445,0.68069607,-0.21800202,-0.9620988
868,-0.68608886,0.6326251,0.3256719,-1.3083359,-0.16208187
869,0.40467793,-1.3536625,0.5944119,-0.659477,0.31804875
870,1.1083779,-0.4576256,-2.3555279,0.5001461,-0.76787263
871,0.23904476,-0.28396,0.10318727,-0.028003387,-0.11360552
872,0.846528,-0.69214445,-0.9525235,-0.2124124,-0.06966738
873,-0.76450354,0.6452695,-0.45794585,-0.48387992,-0.4712594
874,-0.68337715,-0.13987932,-0.7129439,0.06386795,0.3922036
875,0.20090757,0.062046953,-0.7630736,-0.31987423,0.2755862
876,0.6806123,-0.96484417,-0.096350014,-0.7050845,-0.8339266
877,-0.29485473,0.21523927,0.3461999,-0.06698164,-0.43468347
878,0.53259295,-0.5116476,-0.5262492,-0.5014706,-0.444825
879,-0.8351913,-0.041869674,-0.2282061,-0.15641445,0.36052212
880,-1.0874499,-1.5026444,1.4011086,-1.0954616,-1.516693
881,0.34870544,-0.35540918,-0.17139252,-1.6059209,1.0798525
882,-0.13072929,-1.4330308,0.40687004,0.3580947,-0.51074404
883,0.019510735,-1.0771859,0.321866,0.34935468,-1.2127068
884,-0.39642572,-1.4118662,-0.49642396,0.8396296,-0.18517749
885,-0.021461142,0.09278779,-2.030559,0.07135524,0.08711911
886,-0.9940367,0.43962666,0.58663726,-0.9540088,-0.9690862
887,0.8266645,-1.1907437,-1.1771288,-0.09045697,0.18980283
888,0.24858455,-0.32326594,-0.35544875,-0.28978905,0.36633706
889,-1.0214025,0.5429661,0.43190923,-0.8354601,-0.7638942
890,0.36847332,-0.3503641,0.26950255,0.18554606,-0.6381143
891,-1.5453786,-0.66313267,0.96149886,-0.62377465,-0.51986086
892,-1.1834444,0.92129254,-0.7569911,-0.9150494,0.71498555
893,0.4820335,-0.75006115,-1.2824997,0.24982946,-0.4634515
894,-0.009363479,-1.3888158,-0.04635419,0.030194847,0.05703549
895,-0.85071725,-1.0813926,-0.65651304,0.43063882,0.30945408
896,-1.081782,-1.2828796,-0.41677898,0.35591555,-0.12245798
897,-0.16723096,0.046384525,-0.60917354,-0.4291175,0.39756092
898,-0.66406465,0.63741904,-0.7163263,-0.55014366,-0.70850164
899,0.31448823,-0.09896672,0.36261395,-1.9504391,0.86756694
900,-0.726905,0.44578263,0.44675374,-1.391413,0.30276823
901,-1.6484367,0.37587905,-0.28126281,0.36097613,-0.21486467
902,-0.88154495,0.7444382,-0.22952457,-0.17186399,-0.30955204
903,-0.646358,-0.17732301,-1.0318775,0.49818408,-0.19982229
904,-0.18071699,0.11794897,0.5359186,-0.5251886,0.06524161
905,-0.70252454,-1.1190999,1.1180022,-0.8388882,-1.1135668
906,-0.67138964,-0.3400285,0.18975148,-0.0838971,0.04514413
907,-0.56740785,-0.047271803,-0.5208432,-0.08637085,0.6431894
908,-0.48450428,0.067060776,0.32493362,0.2399046,-0.37079123
909,-0.2441471,0.54655296,-0.045835834,-0.8132864,-1.0627452
910,-0.43027395,0.08691185,-0.24071158,1.065901,-1.080525
911,0.23978466,-0.8279427,-0.95854115,0.06875635,0.4032092
912,-1.4859059,0.05279126,-2.5572836,0.9547387,-1.1606804
913,0.42028934,0.2918426,-0.20099136,-1.0400697,-0.4798478
914,-0.9308601,-0.21823868,-0.7572382,-0.09925107,0.4724105
915,0.25821227,-0.11294219,-0.012234979,-0.120531455,-0.1648328
916,0.3691509,-1.5540459,-0.314277,-0.4211962,0.22054052
917,-1.0188341,0.771982,0.0078995805,0.010003039,-0.28695402
918,-1.7715653,0.8321295,0.53727657,-0.49351,-0.27916697
919,0.18957436,-0.5496194,-0.17581123,0.29504842,-0.07544479
920,-0.6207565,0.33505225,-0.46530482,-0.92044115,0.55654776
921,-1.103125,-0.11490614,-0.9744211,-0.058054734,0.7627385
922,0.010692093,-0.21614648,-0.3844203,-0.032339565,0.10456076
923,0.44512272,-0.3228155,-0.3809476,-0.34892288,-0.49190953
924,-0.6606533,-0.96533424,-0.99626285,0.44064337,0.17679426
925,-1.0115169,0.30101612,-1.133769,0.83318377,-0.9736688
926,0.25569353,-0.15890473,-0.90800095,0.15569322,-0.31085572
927,-0.7754146,0.41182142,-0.9754905,0.27015734,-0.50046873
928,0.7505234,-1.4904667,0.55086184,0.37324083,-0.97057873
929,0.38707545,-0.08458867,0.22667028,-0.7132315,-0.28314525
930,0.40009633,-0.51249593,-1.7151699,0.69650334,-0.43859467
931,0.6564577,-2.8611343,-0.6977365,0.31801352,-0.19404207
932,0.6082214,-0.22438185,-1.140446,-0.08410955,0.30319604
933,-1.3865972,-1.701072,0.5298767,0.15622155,-0.22232474
934,0.6248113,-0.41824108,-0.6112167,-0.46414375,-0.4593255
935,-0.05516364,-1.7369674,0.99439204,-1.3871437,0.2772942
936,-1.6010997,-0.12947096,0.13925548,0.10167923,-0.07961515
937,-1.1472111,0.40394178,-0.01600192,-0.358506,0.04157057
938,-1.0309671,0.08717323,-0.022086909,-0.4541011,0.57412434
939,0.6978235,0.17565954,-1.1307322,0.2394495,-0.69965285
940,-0.3089191,0.14071983,0.4926347,-0.76339364,0.24269028
941,0.05357805,-0.2791541,-1.7545056,-0.0075460263,0.11979206
942,0.05583832,-0.3792368,-0.3849924,0.61469233,-0.37661237
943,0.97268254,-1.1990592,0.20482786,-0.9218921,-1.1798295
944,-1.2235723,0.75641114,0.22045042,-0.41470948,0.013069744
945,-1.2232901,-0.23507744,0.36486247,-0.4643053,0.26623282
946,-0.85299754,0.23803711,-0.9876143,0.54959905,-0.14242592
947,0.099224225,0.3593426,0.036945637,-0.7853308,-0.020450454
948,-1.199052,0.017899467,-0.19382626,0.06794191,0.05834101
949,0.081447445,-0.18206427,0.115743,-0.29019296,0.094689906
950,0.16461326,-0.62400097,-1.2259146,0.085011065,0.45999548
951,0.051809132,-0.47195765,-0.09037315,1.0036948,-1.0321269
952,-1.3632832,-0.81260026,1.3955681,-1.038698,-1.1479888
953,-1.0909572,0.22710565,0.20680031,0.65510184,-0.760449
954,-2.0614295,-0.99575204,0.5120137,0.022331413,-0.1797211
955,-0.7076015,-0.9721834,0.90905935,-0.76792675,-0.8635702
956,0.012350865,-0.3876118,0.3779967,-1.2762688,-0.23927397
957,0.06333205,-0.3475514,-0.34284133,-1.0642428,0.8093845
958,-0.4585511,0.43841523,-0.99209404,0.37452528,-0.5768955
959,-0.028311387,0.024973778,-1.4422057,-0.2840828,0.23942833
960,0.32275876,-0.13655035,-0.6396117,0.03362043,0.16504712
961,0.07642278,-0.2315789,0.07054971,-0.16919035,0.03505452
962,-0.8462362,-1.0265054,0.19254898,-0.2820932,0.19468412
963,-0.39553422,-0.0766757,-1.4559805,0.12281946,0.31772068
964,-0.11601154,-0.66030085,-0.63264,-0.14481503,0.5891818
965,-0.6563901,0.58178306,-2.5998049,0.36384767,-0.37827072
966,-0.59384495,0.61495215,0.79830605,-1.6910489,-0.034043595
967,-1.2816527,1.1570053,-0.46799308,-0.026218848,-0.21147007
968,0.30213913,0.17735478,-0.21294816,-0.4514469,-0.17606568
969,0.7606359,-0.8508565,-1.6280808,-0.3765144,0.33049077
970,-0.950476,-0.14911626,0.24440937,-1.1143556,0.65037316
971,-0.55424607,0.5083206,-0.51521426,-0.4061222,-0.47266716
972,1.2224847,-1.5081286,-1.5620877,-0.3788857,0.76513004
973,-1.3096553,-0.229701,0.11528186,0.7443172,-0.5740542
974,0.30597886,-0.9180959,-0.027524356,-0.034930747,0.25785217
975,-1.7997826,0.552184,0.13084885,-1.3800445,0.22407393
976,-0.08942387,-0.34776303,-0.515946,0.4432947,-0.31039277
977,0.66478515,-0.83042127,0.23723933,-1.7287711,-0.2603355
978,0.5596159,-0.2704576,0.4004518,-0.15224832,-0.237002
979,0.019915534,-0.18337916,0.24519128,-0.04671903,-0.023059472
980,0.43467087,-0.5770845,-1.0722952,0.79885787,-0.471174
981,0.3937449,0.23256163,0.034526527,-0.9048977,0.049953323
982,0.58748376,-0.569321,0.51835567,-0.726867,-0.07771617
983,-0.4423884,-1.6599833,-1.2830824,0.13247864,0.61084795
984,-0.6113189,0.7275356,-0.80039537,-0.6497766,-0.63890797
985,-0.10084755,0.41655418,-1.10516,-0.79462916,0.5939326
986,0.40283027,0.12257766,-0.7613263,0.042003434,-0.12931287
987,-0.48138103,0.72404915,-1.3013201,0.36344007,-0.18144275
988,1.3149405,-2.7623322,-1.4006684,0.15331057,-0.06515475
989,0.099001944,-0.45477808,0.051896024,0.44329855,-0.5794138
990,0.81487966,-0.74395514,-0.6913167,-0.8699715,-0.70714664
991,0.4300114,-0.93049645,-1.1135539,-0.8154653,0.80271274
992,-1.1325504,-1.3106428,0.4910471,-1.0298043,-0.21398547
993,0.16954042,-1.4958447,-1.205796,-0.5500201,0.6931729
994,-1.1647419,0.5537191,-1.3842831,0.4612246,-0.7120577
995,-0.3892764,0.2001343,-0.8242862,0.15572684,-0.2948881
996,-0.79849714,-0.83435595,0.89679927,-0.90919733,-0.8360315
997,-1.0667552,0.22720666,-0.30041766,0.02722766,-0.12262193
998,-0.5694038,-0.59366876,-0.42101136,0.36154833,0.20609704
999,-0.8360245,0.1257856,-0.96437496,0.33624303,-1.411927
1000,-0.80215555,0.54276866,-0.12289811,-0.35593835,-0.8513706
1001,0.2770101,0.26710856,-0.3693627,-0.6765668,-0.18707545
1002,-1.1782594,-0.31252828,-0.017241566,1.0541137,-1.2413393
1003,-0.059007075,-1.043864,-0.90887314,0.44399455,0.32071665
1004,-0.39412254,0.09248235,-1.0699419,0.26622447,0.4643936
1005,0.56111974,-0.34603852,-0.7495939,-0.9738921,0.7096366
1006,-0.13747042,-0.02732816,-0.24849805,-0.18409903,0.21487905
1007,-0.42527336,0.12456999,-0.8219476,-0.21857111,0.36914933
1008,-0.5328126,0.024374701,-1.020002,0.12982534,0.5802049
1009,-1.6744715,-0.79280555,-0.057300035,0.83243525,-0.13709831
1010,0.8479415,-1.4764827,0.52004427,-0.20848016,-0.3120174
1011,-0.7440789,-0.6935799,-1.1492037,0.93069255,-0.6701287
1012,0.4388849,-0.04660949,0.19205226,-0.74039286,0.25380957
1013,-0.19739424,0.07208533,-0.781822,0.2302542,-0.3206654
1014,0.88130915,-0.48490342,-0.26046854,-0.29827514,-0.28332058
1015,-0.9719216,-1.1126438,0.5426194,-0.9413464,-0.357136
1016,-1.0090148,0.21384268,0.4358186,0.38362563,-0.46268603
1017,-0.69805014,0.3745977,-0.10019412,-0.11379568,-0.0750863
1018,-1.1948072,-0.20467995,0.3409813,0.058570683,-0.31123665
1019,-0.38155365,-0.22829436,0.39796832,-0.92821026,0.4291146
1020,0.16547032,-0.3204657,-0.3347963,-0.07012844,0.046573043
1021,0.1906185,-0.6909868,0.6235023,-0.2594536,-0.13679063
1022,-1.1878142,0.6831299,0.8686442,-0.7000798,-0.5106238
1023,-0.46085978,0.24144746,0.39713982,-0.81925994,0.46011072
1024,-1.1259494,0.104095705,-1.1024686,0.58973336,0.30841604
1025,0.12657808,-0.5694483,0.39057958,-0.10878845,-0.19155785
1026,-1.3382139,0.604919,0.18743937,-0.059263438,-0.8601992
1027,0.7402936,-1.0806026,-0.8474928,-0.6270825,1.0375142
1028,-0.054276634,0.6153323,0.38702133,-0.3307757,-0.48176414
1029,-0.18667665,0.485429,-0.29512605,-0.68849486,0.35126108
1030,-0.7029882,-0.77651817,0.6652408,-0.73405623,-0.6039517
1031,-0.22636385,0.12208684,1.0670508,-1.2982929,-1.914972
1032,0.10593033,0.45948875,-0.20335707,-0.04316867,-0.5356725
1033,-0.4191777,-1.2200944,-0.7639737,0.24904047,0.061402988
1034,-0.13576545,-0.05281049,0.13302957,-0.20704803,0.18440773
1035,0.55542624,-0.5347553,0.30232576,-1.1658535,0.53395194
1036,-0.11880153,0.13448822,-0.7860493,0.37881166,-0.257232
1037,0.06689214,-1.0847754,-1.5053388,-0.037403736,0.25042063
1038,0.7360503,0.00083859346,-0.3652787,-0.7579753,0.42938188
1039,-0.8923118,-0.85897845,-1.2034564,1.2773738,-1.0471884
1040,-0.69781476,0.6872138,0.3279241,-0.26418853,-0.3056025
1041,-1.7002243,-1.2483547,-1.7025361,1.3657982,-1.171194
1042,-0.8902677,0.5490203,-1.1286558,-0.8335082,0.50528413
1043,-0.46435544,0.24141136,-1.2554401,-0.5145608,0.723682
1044,0.36303222,0.540605,-0.39820325,-0.16483073,-1.4203308
1045,-0.06907847,-1.4673953,-1.7507564,0.26622894,-0.09325767
1046,0.32362968,0.01811005,-0.78325653,-0.6016667,-0.841456
1047,0.09411129,0.0265448,0.62560874,-0.35039857,-0.8722242
1048,-0.8288256,0.9622479,-0.78546584,-0.8899218,0.045790832
1049,-0.30066523,-0.75468755,0.7202408,-0.030348085,-0.28845006
1050,-1.3165661,-1.6289542,0.067299835,0.13019702,0.09921715
1051,-1.0967876,0.08976843,-0.35885105,0.4975547,-0.2948002
1052,-1.198335,-0.2447861,0.61561096,-0.9960759,-0.36041674
1053,-1.3442008,0.28576106,-0.90062517,0.59452504,-0.48503867
1054,-1.2239006,-0.6795698,-0.122952566,-0.19231826,0.48378965
1055,0.7397597,0.08450745,0.069681056,-1.1269959,-1.5161448
1056,-0.51434714,-1.5424652,0.412136,0.17359419,0.0698454
1057,-0.593446,-0.44164392,0.4595105,-0.48314944,0.026100019
1058,-0.2851773,-0.75452745,0.7948201,-0.6459939,0.3687803
1059,-0.48010534,0.26224703,0.34068078,0.33346134,-0.91943765
1060,-0.9770487,-0.90874237,1.0702305,-0.8585115,-1.3313414
1061,-0.17473717,-0.46679226,0.4517657,-0.60376865,0.19702137
1062,0.38650364,-0.27647957,0.25024825,-0.9068496,0.1902251
1063,-1.262521,0.3416743,-0.068275005,0.026544014,0.14291587
1064,0.14720649,-0.13321453,-0.13643058,-0.6934176,0.57009995
1065,0.14356579,-0.091155216,-0.74482244,0.0943772,0.097931676
1066,-0.54465747,-0.19890913,0.5636053,-0.35894635,0.3732515
1067,-1.3135809,0.40029207,0.5760049,-0.573419,-0.24110956
1068,-0.754888,-0.16559853,0.29185116,-0.5566998,0.6623264
1069,-0.74039143,0.89186424,0.72419363,-0.44343504,-1.666152
1070,0.04764431,0.74903786,-0.8868153,-1.0157104,0.03772202
1071,-1.2120754,-0.2566134,-1.6615018,0.38960063,0.17236608
1072,-0.665578,0.6579157,-0.44907498,-0.69273347,-0.45281395
1073,0.40021357,-0.2828087,-2.0050583,0.4981058,-0.4227679
1074,0.078278854,0.5834468,-0.23286086,-1.0306178,0.47286606
1075,-0.7021509,0.015572096,-0.6290255,-0.15253986,0.40484893
1076,-0.63532495,-0.17546403,0.27460617,-0.20023607,0.09281481
1077,0.30789065,-0.44149122,-0.38455918,0.15159294,-0.13094886
1078,-0.5281752,0.80953026,-1.0519195,-0.6125092,0.611009
1079,0.53887075,-0.86437196,-1.1499921,-0.32150024,0.13449554
1080,-0.1515177,-1.4499754,0.06833132,0.34294683,0.07514555
1081,-0.22066605,0.09966975,-1.8958083,0.9148011,-0.576723
1082,0.32467556,0.35772607,-0.32989883,-0.6193177,0.217153
1083,-1.1853206,0.9809801,0.22539006,-0.6313043,0.24914409
1084,0.081965916,-0.5090417,-0.42557457,0.30155018,-0.15589893
1085,0.5882511,-0.633768,-0.46723,-0.44290426,0.35616088
1086,0.42447594,-1.1027492,-0.5772925,0.14052737,0.26441732
1087,0.41717225,-0.6764929,-0.3598324,0.07547751,0.028463537
1088,0.2237591,-0.081282645,0.48261067,-0.667534,-0.17082761
1089,0.6486897,-0.59331626,-0.7208261,-0.7256929,-0.73074865
1090,-0.8109778,0.72960466,-0.35451218,0.16428798,-0.34513235
1091,0.43780938,-0.8395799,-1.0499718,0.77540714,-0.64324003
1092,0.85752726,-0.99671197,-0.7920402,-0.43019754,-0.1805863
1093,0.70391315,-1.35981,-0.2862774,0.23839979,-0.82732385
1094,-0.884974,0.052922253,0.43287158,-0.46255302,0.50133145
1095,-0.06699372,-0.57714695,0.85248166,0.13890235,-0.39346236
1096,0.3588179,-0.73624754,0.08063856,-0.41014367,0.23951696
1097,-0.64617956,0.9886036,-1.0861582,-0.22986719,-0.27035916
1098,0.63515663,-2.8673823,-0.6099375,-0.33733052,0.76999354
1099,-0.2687653,0.0055009397,0.06422651,-0.14180395,0.04490224
1100,0.41284648,-0.6820009,0.3041594,0.54536,-0.8215583
1101,-0.72280246,0.37788334,0.58257025,-1.0000073,0.100783214
1102,0.24682711,-0.46590304,-0.27330452,0.8665133,-0.9773922
1103,0.66472703,-0.7331649,-0.35252377,-0.28997305,-0.034263004
1104,-0.86486924,0.67304593,0.4759978,-0.11136738,-0.9025544
1105,-0.04939975,-0.59090096,0.235111,-1.1993034,-0.2684328
1106,-0.76356626,-0.56736344,1.1292245,-0.9676854,-1.1815637
1107,-1.340692,0.34967598,-0.052919228,-0.1902722,0.17476752
1108,-0.18800582,-0.52981675,0.016337404,0.7162168,-0.52201736
1109,0.048366055,-1.8140628,-0.9181785,0.09861913,0.16708937
1110,-0.65873104,-0.62687784,0.6483785,-0.6323065,-0.5568012
1111,0.13378285,-0.33435574,-0.09538914,-0.4830072,0.4140638
1112,-0.33423015,-0.35508502,0.28393677,0.21962686,-0.51510173
1113,-0.8178573,0.31399927,0.17735521,0.0046426775,-0.29427934
1114,0.21910274,0.030603696,-1.4887737,0.46649596,-0.749934
1115,-1.1056796,-0.15581907,0.12975359,-0.039275028,0.20333788
1116,-0.5110383,0.34583858,-0.79876274,0.4908707,-0.20367076
1117,-0.019687057,-0.0076123406,-0.59981036,-0.6467177,0.66842437
1118,0.14803948,-0.19803235,0.9748213,-0.6083004,-0.23731607
1119,-0.95060843,0.5550722,-0.94295996,-0.0031059561,0.12645815
1120,0.47141054,-0.49324232,-0.4511193,-0.50435567,-0.42659745
1121,-0.87633497,0.14657173,-0.18685237,0.4616015,-0.3782047
1122,-1.176605,-1.6447939,0.25298628,0.05159524,-0.088555254
1123,0.052372113,-0.2361907,-0.15997422,0.27873525,-0.4123505
1124,-0.7694321,0.096618116,-0.093665734,0.0059420476,0.017078584
1125,-0.69489604,-0.08616144,0.6958509,-0.7413745,0.11403116
1126,-0.03984127,0.117444485,-0.6799281,-0.12145983,0.23364054
1127,0.14345084,-1.2175865,-0.40402696,1.2307895,-1.4601537
1128,0.33116555,-0.198944,-0.034357805,0.50749624,-0.92760295
1129,-1.1071562,0.27691624,0.19139515,-0.022144737,-0.5709308
1130,-0.14768663,-0.38521168,0.05854466,0.2915184,-0.14233173
1131,0.5073843,-0.48894823,0.34857604,-1.0976019,0.33281496
1132,-1.1966517,-0.5608955,0.78665537,-0.32570726,-0.4819877
1133,-0.5985713,-0.7446542,0.7893977,-0.5854487,-1.0856326
1134,0.48368043,-1.3863251,0.7389543,-1.0968113,0.18946773
1135,0.5159678,-1.5248415,-0.436843,-0.12852983,0.26258263
1136,0.38956192,-0.21508203,-0.256158,0.06067511,-0.36331972
1137,0.60590583,-0.6204754,-0.5870288,-0.3981945,0.21851406
1138,-1.2956582,0.96812373,0.010700675,-0.3677902,-0.3200704
1139,-0.036343463,0.8594872,-0.04954147,-0.83561885,-1.1144668
1140,-0.108670846,0.31459337,-0.13911787,0.22670572,-0.50441587
1141,-0.06597037,-0.33172974,0.017256003,0.2719887,-0.08807288
1142,-1.499698,-0.89868885,0.10622225,-0.6004765,0.6479762
1143,0.49086326,0.32229874,-0.8395553,-0.6897443,0.15544602
1144,0.12005932,0.23088147,-0.41221187,0.24102126,-0.3754817
1145,-1.2262146,-1.0812929,1.0289828,-1.0248479,-0.38611135
1146,-0.32622313,0.052148502,-0.94384897,0.01607434,0.26466724
1147,-0.24493638,-1.1137395,-0.6195427,-1.4010143,1.2499646
1148,-0.053416375,0.5437996,-1.2292669,-0.35344154,0.19942592
1149,0.08621091,0.25465012,0.1512874,-0.5252065,0.09570432
1150,-2.1050303,0.3487474,1.0255194,-0.2017539,-1.6474534
1151,-0.7521763,-0.91478735,-0.670041,0.22376958,0.015123102
1152,0.09598577,0.16771643,0.3641942,-0.993121,0.5303941
1153,0.3506053,-1.0020542,0.34256008,0.5935599,-1.0207319
1154,0.21141998,0.048687745,-0.44867623,0.6522266,-0.8615472
1155,-0.17931181,-0.26913828,0.4611613,0.053629022,-0.21458435
1156,-0.23515332,-0.41282868,-0.39167055,-0.15302286,0.45244282
1157,-0.01939648,0.23231876,-0.23518918,-0.6388137,0.4927718
1158,-0.5404091,-1.2344701,-0.041398577,0.29345307,-0.05468229
1159,-0.44645095,0.6976766,-0.73778075,-0.3813396,0.053763904
1160,-0.54124576,-0.79058784,0.7232014,0.16119465,-0.21259245
1161,-0.6972706,-0.62612337,1.0711242,-0.8899125,-1.157905
1162,-1.2374974,-0.38969496,0.846668,-1.154341,-0.24632916
1163,-0.47840235,-0.581099,-2.0807037,-0.14273447,0.69986254
1164,1.1317109,-0.989353,0.26349333,-0.1918638,-0.48755985
1165,0.918599,-2.033793,-0.6478485,0.4433533,-0.35684836
1166,0.4634501,0.18141846,-0.2564431,-0.44421506,-0.10563015
1167,-1.0021553,1.4322482,0.15490091,-1.2087709,-0.41113296
1168,0.4382592,0.018678393,0.39102224,-0.34961355,-0.56973815
1169,-0.57211316,-1.128899,0.6561699,0.49554837,-0.64745647
1170,0.0067652836,-0.25319105,-0.41824815,0.29899544,-0.63358665
1171,-0.56189597,0.28425154,-0.024756026,-0.9587544,0.51758134
1172,-1.7431092,-0.2648861,0.6989494,-1.7504342,0.7879472
1173,0.0155601,0.06357358,0.003290568,-0.51267684,0.19496912
1174,0.14591834,-0.91665584,-0.36698714,-0.40791914,0.3244615
1175,0.17605488,-0.5246316,0.30264285,0.34761563,-0.42130408
1176,0.4739866,-0.0074194423,-0.1657773,-1.4514437,0.13903151
1177,0.2826256,0.16554351,-0.37728915,-1.2310201,0.07813242
1178,-0.020793563,-0.1754645,-0.8379352,-0.6166069,0.77036285
1179,-0.40574083,0.19961421,-0.045381527,-0.104408,-0.13206509
1180,0.22260928,-1.1443037,-0.90944636,0.73342824,-0.72761
1181,0.16899502,0.10185444,-0.31775457,-0.08199347,-0.013550058
1182,-1.1501838,1.0552648,-0.19724268,-1.11689,0.6483202
1183,-1.1391636,-1.4171027,0.54440266,-0.72290283,-0.3469714
1184,-0.92781055,-0.89892846,-0.15437448,-0.8077133,0.789627
1185,0.4538667,-0.22139227,-2.565104,-0.2320972,0.40265176
1186,0.29414853,-0.26710317,0.10211719,-0.1045428,-0.25226247
1187,0.74638015,0.28662398,-0.55804944,-0.32394925,-0.08440654
1188,0.18119602,0.20931213,-0.954002,-0.036029648,-0.39793006
1189,0.7191936,-1.6418481,-0.43420547,-0.33068916,0.32901436
1190,0.6575664,-0.7260847,-0.6856738,0.2636674,-0.7910619
1191,0.7713693,-1.3423781,0.049694233,-1.1574918,1.0644867
1192,-0.7007172,0.5097277,-0.42921492,-0.34038854,0.34696335
1193,0.35538763,-0.1809761,-1.1044642,-0.45802414,0.36544284
1194,-0.63691264,-0.1096633,-1.0387131,0.55460095,-0.08881407
1195,0.45131654,-1.1359427,-0.9034442,0.030384261,-0.14935285
1196,-0.5666149,0.44718426,-1.1756047,0.39247194,-0.43736523
1197,0.2847557,0.17259058,-0.8333087,-0.33589277,0.1979531
1198,0.1574367,0.32326278,-0.49082342,-0.13264324,-0.18068813
1199,-1.1925409,0.1650714,1.0481108,-1.0099207,-1.5172032
1200,-0.7175382,0.025415618,0.23948398,-0.2371857,0.104714505
1201,0.21014951,0.2952475,0.14045036,-0.4986951,-0.17795534
1202,0.023037491,-0.004874655,-0.5299451,-0.012443148,0.12451968
1203,-0.1593351,0.14808463,-0.167025,0.2829564,-0.47070178
1204,0.009557205,-0.044109307,-1.184866,0.5098454,-0.66756356
1205,-0.5075287,0.22783396,-0.23587658,-0.10775123,0.23705363
1206,-0.6963987,-0.7030367,0.63806564,-0.9209155,-0.47447544
1207,0.3712799,-1.0258358,-0.5100324,0.6191046,-1.3525959
1208,0.20412292,-1.4603434,0.9925398,-0.30314374,-0.8928208
1209,0.7334254,0.20527369,0.3312904,-0.81677914,-0.3304145
1210,-0.27920407,-0.22863242,0.18771484,-0.06667133,0.15473165
1211,0.3841356,-0.2973742,0.12860692,-0.104853034,-0.3349258
1212,0.3159244,-0.3255352,0.23453483,-0.8812576,0.54629785
1213,0.2898277,-1.0628188,0.61144584,-1.4027234,0.6196036
1214,-0.862492,0.23800588,0.20001833,-0.16749762,0.11552132
1215,-1.0386146,-0.095251985,-0.08256314,0.27905273,-0.16137877
1216,-1.0436348,0.8483678,-0.28285015,-0.27522182,-0.4658652
1217,0.54438573,-0.8695084,-1.2985917,-0.10629244,0.014294307
1218,0.3785866,-1.6873713,-1.6220255,0.97293174,-0.35725948
1219,-0.25383955,-1.8572941,-0.88067937,0.2047143,0.46166536
1220,-0.4844864,0.35293674,0.5282486,-1.44548,-0.91979384
1221,-0.81635153,-0.38922918,0.5306252,0.095671006,-0.12591894
1222,-0.96606827,0.38662702,0.3826333,-0.99579805,-0.5657552
1223,-0.67810035,0.8741409,-1.024283,-0.99398273,0.5021956
1224,-0.6780964,0.30006236,-2.9515367,0.9298536,-0.5405397
1225,-0.33479485,-0.1365108,-0.33448422,0.04343616,0.34999192
1226,-1.2244416,-1.2921474,0.6411584,-1.0488467,0.1321964
1227,-0.4496929,-0.45343772,-0.2371596,0.085089795,0.2544835
1228,-0.9712194,-0.62740666,1.0138968,-0.9800706,-1.0265357
1229,-0.4429412,-0.9205203,0.27713612,0.3838153,-0.18362616
1230,0.2519126,-1.0026257,0.07833251,0.3493075,-0.1989462
1231,-0.3963356,0.06515855,-0.42966413,0.2431774,-0.046483617
1232,-0.44506115,0.072743356,-0.73596406,0.21767657,-0.110043555
1233,0.6928584,-1.6621679,-0.45217168,-0.4473088,0.6180047
1234,-0.6874356,0.22575924,0.08859968,-0.48530495,0.27126598
1235,-0.75546205,0.08059533,-0.07128269,-0.09799198,0.118005484
1236,-0.18385902,-1.7552577,-0.07122566,0.13290954,0.24574228
1237,-0.69394225,0.2947698,-1.386559,0.45162064,-0.39791167
1238,-0.6427857,-0.40392643,1.3732575,-0.40021464,-1.3500432
1239,1.0425644,-0.7988868,-1.1641088,-0.22666748,0.053092137
1240,0.28234002,-1.1842524,-1.3735018,0.33638468,0.119457774
1241,-0.5458048,0.7205095,0.46052116,-1.5391624,-0.16929036
1242,-0.52780324,0.22718216,-0.39333296,0.20399734,-0.21611
1243,-0.6243311,-0.6519707,0.35352328,-0.5753597,0.1853742
1244,-1.177578,0.7598065,-0.15840352,0.31348962,-0.5253169
1245,-1.1765084,0.1692485,0.8295055,-0.8142881,-1.1677682
1246,-0.47694996,-0.8171114,0.693749,-0.5449811,-0.8872116
1247,-0.25945392,0.8505907,-0.22500126,-0.49883646,-0.44013947
1248,-0.34006667,0.57283545,0.92527735,-0.2624712,-0.9678813
1249,0.14158985,-0.38048452,-0.4246265,-0.05171596,0.40248695
1250,-0.86498547,0.7432805,-0.37116662,-1.041469,-1.2731628
1251,0.15252449,-1.0178516,0.1896678,-0.74307233,0.26446894
1252,-0.44955182,-0.16464645,-1.7683512,-0.22673999,0.4344971
1253,-0.07176844,-0.037736267,-0.17804436,-0.11031551,0.22354063
1254,0.41066965,-1.2525116,-0.24965985,0.062046014,0.58519393
1255,-1.5653888,0.66779774,-0.5903421,0.24757816,-0.44959113
1256,-1.7716036,0.14571695,0.6924214,-0.70790565,-0.31529418
1257,0.52637845,-0.66583526,-0.5702374,-0.09375336,0.089308366
1258,-1.618131,-0.5719261,0.117948934,-0.26391733,0.708802
1259,-0.72895515,-1.3931235,-1.454205,1.429571,-1.3144712
1260,-0.019571215,-0.7890581,-0.092297055,0.7469014,-0.789263
1261,0.46446276,-1.0567807,0.13413472,-0.15828031,-0.16519384
1262,-0.3819128,-0.5798807,0.8783631,0.10932413,-0.55871296
1263,0.084247515,-0.5316475,0.1925935,0.038381763,-0.17653626
1264,-0.6716322,0.13214767,-0.10087934,0.42895067,-1.7318956
1265,0.07593081,-1.0474465,-0.8162883,0.8842229,-0.7028232
1266,-1.1627975,0.4108256,0.7644931,-1.2168674,-1.0814707
1267,-0.7196046,-1.0018259,0.9247533,-0.73572797,-1.0383807
1268,-1.3831459,-1.3370324,0.8680579,0.22798558,-0.8128634
1269,0.29355383,-0.9678925,-0.15709049,-1.1660477,0.4009574
1270,-0.9679854,0.2129632,0.09110801,-0.85150206,-0.11250003
1271,-0.04239862,0.615748,-0.40208223,-1.0380298,0.013818572
1272,-0.47172242,-0.8879455,-0.55164665,1.1135612,-0.45725894
1273,-0.016488481,-1.041301,-1.1809514,0.34911224,0.16719593
1274,-0.6044236,0.18480153,-0.32176745,-0.2994249,0.390618
1275,0.4574639,0.029963447,-0.57670546,-0.45279124,0.022387484
1276,0.14741132,0.21979061,-0.53880066,-0.6305898,0.54442114
1277,0.43582618,-0.49857274,0.22183739,-0.47281587,-0.5321493
1278,-1.0932548,0.54157156,0.4526125,0.2748406,-0.50787956
1279,-0.9384666,0.20833029,-0.68885803,0.4647961,-0.57537377
1280,0.050950278,0.06948902,-0.831354,-0.74569124,0.196073
1281,-0.50347996,-0.2255436,-0.7222546,0.061888203,0.11708857
1282,0.22067083,-1.2924954,-1.1844676,-1.044723,1.1721036
1283,0.16040652,0.84022444,0.7471246,-1.1161295,-0.9764782
1284,-0.45078233,-0.28054082,-0.26894394,0.89131635,-0.92326105
1285,0.5197141,-0.43300936,0.39354634,-0.7330627,0.23968019
1286,-0.8975709,0.2030368,-0.9342945,0.1786908,-0.17436115
1287,0.050538614,-0.05998675,-0.079317644,-0.253995,0.15812291
1288,1.1995273,-1.2781783,-0.6540357,-0.95392925,0.6262605
1289,-0.510492,0.20237496,0.39749384,-0.14672883,-0.293202
1290,0.052322756,-1.3026981,0.6719338,-1.4483528,0.2392752
1291,-0.106195785,0.09328116,-1.0919312,-0.16750488,0.34459147
1292,-0.53434706,0.6026591,-0.5653266,-0.58361197,-0.64810187
1293,-0.47210473,-0.13922383,-1.1913455,0.27132276,-0.064948164
1294,-0.87004805,0.64876753,-0.5354404,-0.6987196,0.32487977
1295,-0.8723939,0.6207561,0.57590556,-0.1599977,-1.243421
1296,0.37336215,-0.26872477,-1.1202881,0.5337825,-0.2993926
1297,-0.6279391,-0.43829125,-0.56210196,-0.030307239,0.6167056
1298,0.13290012,-2.5287733,0.6716266,-0.9098571,0.4222692
1299,-1.170785,0.33873695,0.10842385,-0.028029852,0.049361028
1300,0.0788506,-0.21658134,-0.48775113,0.80696064,-1.0654486
1301,-0.7293972,-0.80854267,1.0418236,-0.5378613,-1.1970181
1302,0.45796192,-0.45024696,-0.36041725,-0.43493557,-0.45069215
1303,0.06295851,-0.4295569,-0.12466805,-0.6044127,0.82708484
1304,-0.32115173,-0.41772756,-0.80391943,-0.10294777,0.52174723
1305,-1.3349155,-0.09704916,-0.40668303,-0.30887613,0.5073327
1306,0.30755383,-0.024468713,0.09855091,-0.43616074,-0.32246298
1307,-0.4825388,-0.7343667,0.16294579,-0.6590243,-0.058650732
1308,-1.60067,-1.5417402,1.42808,-1.6028566,-0.8632369
1309,-0.831779,-0.8106983,0.8454732,-0.6232206,-0.83417034
1310,-0.09884818,-1.40221,0.31501618,-0.2047694,0.32505918
1311,0.3224754,-0.95425045,-0.37613422,0.12219497,-0.24333958
1312,0.37444827,0.40861133,-1.0474008,0.20934537,-0.8486998
1313,-0.88863754,0.1952341,-1.3757005,1.1980224,-1.1418489
1314,-0.091785,-1.5364637,0.6729393,0.1202264,-0.116017304
1315,0.37542546,-1.1385926,0.7004844,0.62614673,-1.4037654
1316,0.5439009,-0.0059001865,-0.119454816,0.08768908,-0.8511972
1317,-0.03972804,0.04036261,-0.3497464,-0.1890733,0.09246764
1318,-1.0371422,0.44598168,-0.72370815,0.28522834,-0.22183242
1319,-0.7813186,0.8825956,-0.940017,-0.69083506,-0.7212019
1320,-1.4857523,1.0060859,-0.33598635,-0.32546476,-0.49084657
1321,0.7342341,-1.34229,0.4489212,-0.35869074,0.0001809398
1322,0.56206805,-1.279882,0.9931085,-0.51262337,0.28341225
1323,-1.3150432,0.8222816,-0.39371285,-0.6471887,-0.20384836
1324,-0.37757537,0.97794926,-0.7703598,-0.78133714,-1.0970014
1325,-0.07289582,-0.41486076,-0.036947004,0.04592709,0.055620268
1326,0.08730824,-0.33748013,-1.4521036,0.09350023,0.2952291
1327,-0.90980446,0.19880213,0.568082,-0.34359065,-0.071845554
1328,-0.7946839,-1.1781579,0.59030175,-0.6755757,-0.31903186
1329,-1.2312655,-0.2293774,0.5748301,0.12375907,-0.24335404
1330,-1.0348741,-0.17091265,0.39643976,-0.5929767,0.5042338
1331,0.05272925,-0.11215881,-1.1780852,-0.4387613,0.7511237
1332,-0.33844417,-0.30886465,-0.01440471,0.8171868,-0.80050904
1333,-1.1130558,0.48792243,1.1173036,-0.79609364,-0.63703513
1334,-1.444844,-1.6691134,1.6834235,-1.0902137,-1.5774429
1335,-0.36281413,0.15954041,-0.73889166,0.26585966,-0.18101704
1336,0.14570528,-1.1010734,1.1406937,-1.2456768,0.6950773
1337,0.64163846,-0.10600806,0.26337242,-0.80012417,-1.3747246
1338,-1.2824088,0.48915726,0.45723182,0.30658376,-0.4782973
1339,-0.38655633,-0.49547687,0.18715537,0.49949685,-0.2617696
1340,-0.19607095,0.5119354,0.1727512,-0.88633907,0.2464505
1341,-0.7210987,-0.0017990886,0.8388911,-0.94813025,-0.7749823
1342,1.000008,-1.7860085,-0.38435987,-0.57529867,0.1207058
1343,0.094905615,-0.43713504,-0.29663804,-0.8062463,1.0547249
1344,0.14117049,-0.2492363,-1.6887218,0.042549163,0.016556619
1345,-0.7206591,0.13019887,0.2640677,-0.7000617,0.6527544
1346,-0.2808883,-0.49109584,0.36604798,-0.40344155,0.09497921
1347,-0.031862773,-0.007177943,-1.426114,0.28234214,-0.3918147
1348,-0.90572196,0.47030032,0.13291147,0.5398902,-0.9782073
1349,-0.7359663,0.35875842,-0.54968375,-0.95061946,0.4588998
1350,-0.8666545,-0.0006050103,1.4878447,-1.4728694,-1.9272833
1351,0.45608398,-0.45203915,-0.4430541,-0.44745603,-0.38454363
1352,-0.049019173,-0.17562379,-0.30412948,-0.5173547,0.64825743
1353,0.8988105,-0.9098358,-0.7716203,-0.7985077,-0.8196477
1354,-0.46287268,0.20725198,-0.045208443,0.37433952,-0.54603547
1355,0.80007386,-1.0990285,0.33686814,-0.10509295,-0.95519274
1356,-0.50570345,0.01024155,0.3943475,-1.155938,0.7532366
1357,-0.67685527,-0.18866503,0.3749938,-1.0361484,0.048164956
1358,-0.2877104,-0.33030373,0.5815305,-0.4621764,-0.36167917
1359,0.10262717,-0.25783387,0.40256175,-0.2465475,0.03966831
1360,0.8017176,-1.5819764,-0.009419754,0.03571099,-0.49264947
1361,-0.4352043,-1.4611373,-0.9426521,0.6026034,-0.015804121
1362,-0.42474037,-1.2133079,-0.7665657,0.5023652,-0.1351025
1363,-0.8706291,-0.53399354,0.64688355,0.504968,-0.87984514
1364,-0.57153237,0.4220871,0.56160486,-0.09980599,-0.2980097
1365,0.8843688,-1.0466803,-0.5489002,0.25185546,-0.57400924
1366,0.20304313,0.06438201,-0.9440816,-0.5506872,0.5317079
1367,-0.44906014,-0.051946312,0.7994361,-0.11729801,-0.32386035
1368,0.064474225,0.0030195094,0.30507424,0.16307066,-1.7320265
1369,-0.44954225,-0.44770455,0.18354969,0.57151157,-0.39290306
1370,0.16655506,0.0989529,-0.47535774,0.1865122,-0.38297033
1371,0.351319,-0.24754883,-0.96729404,-1.2740386,1.3574318
1372,-0.37509176,1.0085086,-0.4613986,-0.5441267,-0.638373
1373,-0.18489115,-0.4485587,0.9063646,-0.27308965,0.05491203
1374,-0.5332927,-0.32919374,0.41397345,0.41740155,-0.47044885
1375,-0.17553556,0.55319285,-0.7863716,-0.627681,0.367007
1376,-0.44422308,0.0015825867,-1.9545234,0.07218786,0.059646584
1377,-0.40094042,-0.056035228,-1.4566785,0.5164238,-0.38117394
1378,0.48928368,-0.29864106,0.29281452,0.17921323,-0.8331253
1379,-0.4804834,0.19667064,0.017343285,-0.29252675,0.12134912
1380,-1.1157458,-0.81689835,1.0757883,-1.4609338,-0.40969735
1381,-0.15347761,-0.16674253,-0.26259768,0.44132033,-0.34265122
1382,0.011253716,-1.4678136,-1.377108,0.47296897,-0.25978425
1383,-0.29070327,-0.60736203,1.062535,0.09267414,-1.3246018
1384,-0.046797812,-0.9871401,1.0236956,0.029698517,-0.34437153
1385,-1.0665054,-1.2907673,-0.34175804,0.17504723,0.30478102
1386,0.91830105,-1.187766,-1.1299748,0.044268403,-0.19654004
1387,-1.5798963,0.39001575,-0.87812024,0.24297608,-0.1815734
1388,1.0318259,-1.0733925,-0.9589026,-0.75369424,0.22476415
1389,-0.11159564,0.2444367,-0.7220365,-0.44974142,0.5713028
1390,0.17057478,0.6496069,-0.5900186,0.16802824,-0.6835974
1391,-0.5643911,-0.9955635,-1.4091257,0.76845914,-0.5681552
1392,-0.7809423,0.6349269,-0.08121415,-0.9601136,-0.42771977
1393,-1.131157,-0.27372235,0.64615506,-0.530733,-0.047156274
1394,0.013958824,-1.1386571,-0.77632916,0.67570776,-0.48726648
1395,-0.7507742,0.67763823,0.04645986,0.17345402,-1.0125123
1396,-0.5336703,0.76025873,-0.6999215,-0.5304216,-0.6255535
1397,-0.1172675,0.42713565,-1.5833274,-0.67876345,0.4296663
1398,0.0003068695,0.30817646,-0.27022535,-0.4015275,0.079304084
1399,-0.10134817,-0.2888151,-1.696092,0.5617967,-0.1501902
1400,-0.54587185,0.41629928,0.50497305,-0.7571227,-0.59086293
1401,-0.55334854,-0.13531338,-0.43079552,0.055415012,0.17421137
1402,-0.47786915,0.42378405,-0.67800283,0.20954067,-0.49641493
1403,0.25393203,-0.24117103,0.23195831,-0.94029343,0.10216058
1404,-0.518634,0.19790706,0.015308367,0.38254163,-0.38395
1405,-0.14840122,-0.5431177,0.038527332,-0.115324154,0.23422664
1406,-0.24654526,0.12950708,0.276118,0.18029736,-0.43922943
1407,-0.40296602,-0.15747185,-0.14748143,0.38676506,-0.18479273
1408,-1.269347,-0.19564186,1.0117078,-1.4315052,-0.968311
1409,0.63267344,-0.6246143,-0.5226258,-0.5432504,-0.42603642
1410,0.30835167,-0.76011354,0.057134163,0.24035354,-0.24372207
1411,-0.7921977,-0.73417795,-0.94354093,1.1141461,-1.0941538
1412,-0.9321427,-1.2524,0.12750287,0.19969323,-0.50180507
1413,-1.0657002,0.9940298,-0.47740483,0.4651517,-0.8351497
1414,-0.7027956,-0.0041439766,0.5424413,-0.70737153,-0.71477187
1415,0.4642103,-0.82313925,-0.28295907,0.017282387,0.19248167
1416,-0.5547842,0.15820436,0.249521,0.039542664,-0.2107541
1417,-0.7040934,-0.67374444,-0.71601164,0.91860956,-0.93588907
1418,0.30102938,-1.0025011,-1.233944,-0.15427627,0.007589372
1419,-0.4281737,0.586329,-0.7266513,-0.46229368,0.114243545
1420,0.5412558,-0.54924166,-0.51555663,-0.5760114,-0.4523365
1421,0.3659036,-0.24188833,-1.7659209,0.182753,-0.19083948
1422,0.17052566,0.55779266,-0.21181254,-0.56344956,-0.0323836
1423,-0.13057229,-0.07910445,0.3520982,-0.063162744,-0.20501603
1424,0.5806084,-0.5409767,-0.24346265,0.18879955,-0.5149305
1425,-0.13395868,-0.44710034,-0.9154847,0.35553864,0.0374219
1426,0.32251766,0.23141204,-0.12890702,-0.99128896,0.27342793
1427,-1.045112,-1.1028491,0.22503862,-0.2111329,0.033084527
1428,0.28906763,-0.25746137,-0.5522239,-0.26494622,0.27491373
1429,-0.11351915,0.66757125,-0.15380299,0.21362083,-0.6868969
1430,-0.49959385,-1.0675184,0.24129486,-0.46570197,0.33545992
1431,0.5859319,-0.80501676,0.4285263,-1.0942413,0.47332913
1432,-0.13780558,-0.43077898,-0.05765447,0.043276884,0.3082809
1433,0.0944522,-0.050063364,-0.08721197,0.0022989744,-0.10979559
1434,-0.69225293,0.60224545,0.018495966,-0.11560789,-0.34274152
1435,0.015574896,0.31223583,-0.084854215,-0.13416496,-0.28442317
1436,-0.12018965,-0.584689,-0.4383959,0.16123995,0.15719268
1437,0.53020453,-0.066353194,0.060208943,-0.86432576,-0.36493295
1438,-1.8745931,-0.029767826,-0.7225825,-0.3972946,0.7595881
1439,0.44246572,-1.8866206,0.19150141,0.070670925,-0.3589613
1440,-0.850983,0.09693618,-0.24315993,-0.7750072,0.13204491
1441,-0.8758891,0.34456348,-0.7375703,0.47177494,0.01635234
1442,-1.0754237,0.4158506,-0.6171822,-0.107475944,0.33279994
1443,-0.28211778,-0.36796668,0.75746095,0.25494665,-1.2677823
1444,0.25288102,-0.8177979,-1.6728488,0.43533075,-0.2185535
1445,0.0075860284,-0.35057,-2.0115967,0.048047043,0.18159083
1446,-0.86892056,0.4189022,-0.16650042,-0.033071004,-0.09045427
1447,-0.4868522,0.60713,-0.9776866,-0.44058028,0.24475743
1448,-2.0123997,-0.05114128,0.4979172,0.8709558,-0.94188446
1449,0.31034654,-0.87331176,0.1361686,0.119698234,-0.4226759
1450,0.1543803,-0.3379492,-0.1295829,-1.5626556,0.7566096
1451,-0.55648017,-0.8318637,0.50130254,-0.41245526,-0.5223046
1452,-0.30567282,0.67439646,-0.38227016,-0.3185411,-0.18510833
1453,-0.52403647,0.17178464,-0.7467523,-0.4890965,0.5768846
1454,0.6219341,-0.4759263,-0.49533644,-0.4821105,-0.47785595
1455,-1.235254,0.19415888,-1.2981931,0.23744169,-0.14922474
1456,-0.06050374,-0.16618568,-0.71788657,0.18283737,-0.050996054
1457,-1.0546525,-0.52399516,-1.5786202,1.1408237,-0.7519168
1458,-0.740921,0.5286981,0.051592313,0.20046198,-0.51849973
1459,-0.050685547,-0.43580127,-0.3272098,0.2073084,-0.07850947
1460,-0.80505013,0.8518279,-0.94209254,0.28541785,-1.2278677
1461,-0.61625516,0.12752895,0.7568332,-2.5497332,0.8307162
1462,0.1956529,0.00070405705,0.3219703,-0.09386755,-0.383844
1463,-1.0451449,-0.77413297,0.9281203,-0.82764256,-0.83304834
1464,0.7154561,-0.27475658,0.24691194,-0.35476777,-1.530679
1465,-2.1386886,0.16881739,0.088114426,0.761477,-0.75016516
1466,0.38068262,-0.59888357,-0.06274532,0.12145094,-0.07815467
1467,-0.27008423,0.24448247,0.17926255,-1.3634638,0.9320893
1468,0.3852238,-0.33687013,-0.34084043,0.23785536,-0.20300645
1469,0.5258512,-0.22161478,0.22640888,-0.15007442,-1.1244057
1470,-1.5708294,0.38599348,0.81685805,-0.7252076,-0.23377474
1471,0.0552377,0.99019194,0.049558904,-0.4524121,-0.18732974
1472,0.7426056,-0.7271976,-0.6767842,-0.5204025,0.36739105
1473,0.5028445,-0.71080834,-0.69117653,-0.2622777,0.17147158
1474,0.9380383,-0.03571911,-1.0984945,-0.10593972,-0.15701918
1475,-0.2631996,-0.44353342,-1.3309667,0.028435577,0.49919632
1476,-0.31125712,0.21675402,-1.1428206,0.34075683,-0.07374479
1477,0.38990697,-0.62646997,-2.073942,-0.47372264,0.74336547
1478,0.108647056,0.12113509,-0.7023763,-0.22439523,0.010379148
1479,-0.020236667,0.0618814,-0.87441075,-0.040049158,0.14110114
1480,0.32326683,-0.53591967,-0.8170291,0.15122762,0.1330344
1481,0.25201267,-0.23326653,0.16671245,-0.6242972,0.326646
1482,-0.088319845,0.040679388,-0.3543863,0.14382678,-0.044248078
1483,0.8228772,-0.8624828,0.19805725,-0.30313128,-0.35715836
1484,-0.15625982,-0.7254361,1.0776777,-1.1287107,-0.49273515
1485,-1.3812019,-0.4527781,0.39289415,0.16987415,-0.13451895
1486,-0.49649498,0.45933232,-0.49167007,-0.48386264,-0.38868514
1487,-0.2245746,0.6016857,-1.1136107,-0.3947245,0.047477957
1488,-0.17580877,-0.7581636,0.2230991,-0.70185786,0.010936423
1489,-0.52971846,0.19162543,-0.6307877,0.19807701,-0.06417128
1490,-1.3984251,0.03802774,-0.55572253,-0.87291586,0.9046528
1491,0.31667432,0.17352861,0.023334907,-0.49379778,-0.00493413
1492,-0.070218734,-1.0715474,-0.39372498,-1.1020045,1.0231283
1493,-0.47900608,-0.07979276,-1.3098958,0.3229455,0.6939538
1494,0.15934324,-1.2998829,1.1316534,-1.2147084,-0.4947462
1495,-0.5260386,0.5166832,-1.0117779,0.6579963,-1.1896969
1496,-0.95124453,-0.2577407,1.0651696,-1.1177939,-1.2758498
1497,-0.2659918,-0.10814919,0.4552259,0.09394094,-0.23428738
1498,-0.11662675,-0.052361708,0.690024,-0.6295899,-0.25583285
1499,0.30588728,-0.89338094,0.1426715,-0.19545159,0.067064166
1500,0.36145884,0.29908168,-1.3573678,-0.14005122,-0.09807768
1501,0.29963765,-1.3158771,-0.21959391,0.017011907,0.048805833
1502,0.4060459,-0.26349676,0.3017349,-0.037008654,-0.4502937
1503,-0.46939915,0.77808887,-0.12853645,-0.88622826,-0.020866986
1504,-0.31620884,-0.4708797,-0.3239422,0.016546639,0.25456038
1505,-0.79964906,0.6126772,-0.04089202,-0.89870304,0.7040226
1506,-1.50098,0.67272127,-0.27662486,0.3120828,-0.65537965
1507,0.09663168,-1.018592,0.33576372,-0.47421265,0.19915754
1508,-0.24316242,-0.15744227,0.06657693,-0.28230163,0.33360088
1509,-0.26342747,-1.152158,-1.0272479,1.311651,-0.5416036
1510,-0.3876828,-1.1986912,-1.2010971,0.88913155,-0.6469937
1511,-0.77672046,0.6868425,-0.51623136,0.09651172,-0.03645577
1512,-0.23553416,-0.55299616,-0.4632595,0.3238544,0.21070646
1513,-0.81486756,-0.8347324,-1.0523124,0.8771871,-0.5631836
1514,0.39397496,-0.36553353,0.100401685,-0.13090165,-0.21880066
1515,-0.11141184,-0.54005617,-0.39363933,0.4923962,-0.19605398
1516,-0.6879239,-0.3777452,0.21678892,0.3040347,-0.031422056
1517,0.23225799,0.06542978,0.48167083,-0.71729565,-0.11701646
1518,-0.09554739,-0.567732,0.668396,-0.42365205,-0.034003623
1519,-1.1627446,1.1390485,0.5404207,-0.50494075,-0.25699008
1520,0.8122549,-1.1117734,0.77601725,-0.057897422,-0.4522776
1521,-1.1708205,-1.0724932,1.0728707,0.07256379,-0.8031738
1522,0.61548555,-1.3623046,-0.23862317,-0.89659923,0.641443
1523,-1.105189,0.6041087,0.07888299,-1.0197216,0.8507436
1524,-0.26681566,-1.0238038,0.021673918,0.13280173,-0.01287247
1525,-1.1151794,-0.47114787,-0.84965485,0.12645248,0.5808869
1526,-0.67475396,-0.66245466,0.6762519,-0.5813868,-0.83031815
1527,-0.2962438,-0.23013909,-1.4818023,0.027910734,0.344207
1528,0.15771344,-0.11507638,0.1538208,0.09811512,-0.25430608
1529,-0.6361665,0.453234,-0.185037,-0.32641214,0.2454168
1530,-0.20096874,-0.37605962,-2.758284,1.2564968,-1.2749559
1531,-0.5771122,0.8948205,-0.6615917,0.4120626,-0.5238809
1532,0.099273935,0.027833996,0.5869502,-0.828961,-0.76340234
1533,-0.71192443,0.72927725,-0.6658157,-0.6481906,-0.572349
1534,-0.040529843,0.57088256,0.3329159,-0.90894014,-0.38420883
1535,-0.61575073,-0.8208104,0.7551263,-0.6766909,-0.67997265
1536,0.020273505,-0.6914482,0.11730752,0.020378176,0.16484007
1537,-1.030975,0.9946242,-0.7945367,-0.365922,-0.5211709
1538,0.27800614,0.062270753,-0.09558226,-0.34287238,-0.032814305
1539,-1.7415087,-0.25818592,-1.8400235,1.4651899,-1.5434451
1540,-0.9043587,0.031885736,0.71539575,0.4876714,-0.906648
1541,0.75679463,-1.4193048,-0.9693681,-0.24983427,0.53442544
1542,0.025667282,-1.1217046,0.74516046,0.6946922,-0.50271744
1543,-0.042735454,-1.2745566,-1.9914733,0.3256449,0.045938686
1544,0.3121954,-1.0002364,-0.8452792,0.36331132,-0.2670372
1545,0.2579541,-0.1701901,-0.4708484,0.8853468,-1.5012234
1546,-0.3415089,-0.241557,0.106107175,0.10122258,-0.30554098
1547,-0.8044018,-1.3045619,0.026358405,0.046545938,0.0958736
1548,-2.6044157,-1.6867177,2.1298227,-3.174229,-1.1168433
1549,-1.4495716,-0.22663356,-1.2578633,-0.2505267,0.76659626
1550,0.4175568,-1.2096437,-0.1849164,-0.70387864,0.5421252
1551,-1.2004957,0.5665185,0.75327843,-0.6663796,0.046378702
1552,-1.0423553,0.87798303,-0.5139517,0.64382344,-1.113678
1553,-1.1354655,-1.1678054,0.959842,-1.5054932,0.48372498
1554,-0.83668846,-0.59223723,-1.3913102,0.8284985,-0.2573785
1555,0.0858338,0.051938325,-0.18732281,-0.5317926,0.2550876
1556,0.40116933,-1.8878639,-0.9200132,0.4260371,0.0066719204
1557,0.0038226603,0.34107536,-0.83875287,-0.68228257,0.34324357
1558,-0.11829544,0.38501757,-1.251641,-0.08383509,0.011530042
1559,-0.314499,0.43137643,0.08343853,-0.4819962,0.1688092
1560,-0.7425132,-0.5405761,-0.03987993,0.5322809,-0.04372631
1561,-0.5405536,0.28219864,-1.7012898,0.3096263,-0.1642
1562,-0.394515,-0.14545903,-0.23858754,0.15840897,-0.029870633
1563,-0.25959304,-0.12510146,-0.031305328,0.38598594,-0.3430841
1564,-1.252153,0.18649136,-0.37803346,0.7241642,-0.39906353
1565,-0.41066876,-1.6227164,0.38261092,-0.7172081,0.11446439
1566,0.050334286,0.19945577,0.25688753,-1.4466258,0.431744
1567,-1.4068993,-0.23363751,-0.23924595,0.6087987,-0.27412724
1568,-1.4667823,-0.74775374,-0.04493724,-0.18036272,0.38157833
1569,-1.0415848,-0.9155895,-0.5822987,0.5849483,-0.28402075
1570,0.53265715,-0.6423196,-1.2027928,0.041325435,-0.28604066
1571,-0.15805022,-1.6992795,-0.64029586,0.95727587,-0.5035023
1572,0.8534146,-0.78283566,0.19710003,-0.7146859,-0.028433481
1573,-1.8353032,0.52071035,-1.1862664,0.15404372,-0.27472696
1574,-1.2129853,0.9326222,0.025945712,-0.87719816,0.3122725
1575,0.4423447,-1.0018761,0.964097,-0.2815953,-1.3460666
1576,-0.97334844,0.10822195,-0.973931,0.5896041,-0.31741425
1577,-0.36361077,-0.395919,-0.14306115,-0.1127584,0.43751943
1578,0.7406741,-0.822391,-0.88579595,-0.9398463,-0.30797023
1579,-0.32449225,-0.049727652,0.8554654,-1.390529,-0.2888013
1580,-0.07302076,0.7574576,-0.28137314,0.19916852,-0.83797044
1581,0.26355475,-0.71372765,0.42568806,-0.44775942,0.38924047
1582,0.5379919,-0.46760926,-0.63769674,-0.36815026,0.48386866
1583,0.032750636,-0.22340754,-0.7107395,-0.6687583,0.73333395
1584,-1.3915317,-1.2410672,1.3443409,-0.9033523,-1.3535296
1585,0.2907176,-1.3232024,-0.41715762,0.9391748,-0.67311645
1586,-1.0096952,-0.07043047,-0.4494641,-0.8571502,0.7521095
1587,1.3978841,-1.0183249,-0.050081495,-0.908289,-0.7135273
1588,0.5840895,-0.83624876,-1.0999117,-0.21442285,-0.0020254608
1589,-0.3995945,0.597203,-0.45767936,-0.3879911,-0.5162696
1590,0.6867286,-0.19956096,0.7758598,0.11704198,-1.1918447
1591,0.32827917,-0.20725404,-0.121440835,-0.23942687,-0.05553878
1592,0.19484116,-0.16120878,-0.23851174,-0.2969651,0.30746788
1593,-0.6661515,0.07593556,-0.20986466,-0.09660206,0.40794387
1594,0.3477219,-1.4033371,-0.953655,1.0548176,-0.94893736
1595,0.011913374,-0.19711268,-0.08469445,-0.1549161,0.21829115
1596,-0.47509357,-0.36639336,0.008767744,0.095400184,0.22450078
1597,-1.0247431,-1.5001502,1.4724177,-0.6445314,-1.0644307
1598,-1.0353014,0.08487503,0.12796511,-0.555915,0.32086763
1599,-0.2636973,0.04751831,-0.4179758,-0.2000507,0.3407831
1600,0.46510783,-1.2968857,-1.1342425,0.4904727,-0.5556023
1601,0.12144072,0.26831326,-1.1597763,-0.886757,0.32441062
1602,-1.0254931,-1.138431,-0.16086848,0.70249635,-0.5184959
1603,0.17238624,-0.14847514,-1.7108586,0.57996184,-0.4579125
1604,0.6305576,-1.1962801,-0.18410723,-0.5817741,0.4362364
1605,-0.80074275,-0.3055537,-0.7234303,0.42262065,-0.076388605
1606,0.07097078,0.49307105,-1.73877,-0.96718633,0.47957358
1607,-1.4512855,0.92771125,-0.28708363,-1.674457,-0.98338115
1608,0.23544794,0.32123733,-0.8746202,-0.33376694,-0.017157085
1609,-0.27208295,-0.51263255,-0.30205557,-0.15603381,0.34512812
1610,0.108024396,-0.96945614,0.15584353,-0.9489628,0.68053466
1611,0.8034814,-0.93167007,0.12135081,-0.12907419,-0.1374666
1612,-0.6248093,0.50163263,-0.52668405,0.0043325876,-0.5053623
1613,-0.07765808,-0.13365835,-1.4234724,0.6170889,-0.44041255
1614,-0.8729942,0.034638673,0.3283327,0.11622323,-0.60692877
1615,-0.50987077,-1.0610843,0.5924494,-0.010574102,-0.09949698
1616,-0.19066395,-0.8075042,-1.3000069,0.7325013,-0.038815416
1617,-1.428682,-0.7874912,0.08451637,0.5299205,-0.03069757
1618,-0.921812,-0.6956366,-0.530894,0.49463663,0.21514748
1619,0.69680953,-0.66500807,-0.6014983,-0.8200732,-0.6572584
1620,-0.4136874,-0.86387014,0.13986231,0.61965394,-0.42764288
1621,0.6239759,0.26031473,-1.0625027,0.11779913,-0.26705363
1622,-1.1157923,0.18646969,-0.021347284,0.36440235,-0.27887475
1623,-0.53470397,0.79386854,-1.1125183,-0.09217267,0.03946985
1624,-1.335815,-0.50992256,0.3675853,-1.1601801,0.40200132
1625,-0.29981318,0.52562314,-0.6681095,-0.46170795,0.25342724
1626,-1.4530344,-1.3183838,1.5402225,-1.2731636,-1.3425729
1627,-0.012722162,-0.43671903,0.14393987,-1.2313267,0.46608463
1628,-0.10669778,-0.24501514,1.114003,-0.40284765,-0.40990356
1629,0.5380883,-0.33724448,-0.37126526,0.37621936,-0.459001
1630,-0.41437677,0.03955367,0.4013304,0.18286532,-0.320393
1631,-0.7965872,-0.9619363,0.79915494,-0.72475797,0.05780559
1632,0.7596724,-0.8912292,-0.77099776,-0.08152097,0.09274012
1633,-0.003647138,-0.34518707,-0.41640878,0.52342063,-0.36842898
1634,0.7201187,-0.71109164,0.89721274,-1.2904325,-1.0935466
1635,-0.1043782,-0.21354929,0.51949006,-0.060146023,-0.28380644
1636,-0.4617814,0.4441548,-1.487,0.14750795,-0.81072634
1637,-1.0100771,-0.021029247,0.8470101,-1.0468336,-1.4217225
1638,0.19104679,-0.43804157,0.66896063,-0.11150446,-0.6804754
1639,-0.5644139,-1.1135089,0.63952404,-0.59477466,0.35534674
1640,-0.019876279,-0.08390335,0.12179285,0.21829343,-0.40699357
1641,-0.8469846,-0.86306584,0.44307548,0.3942144,-1.228208
1642,-0.7572083,0.051380903,0.13637541,-0.037336666,0.153913
1643,0.24550004,-0.5946437,0.13718341,-0.79743654,0.7486312
1644,-1.11234,-0.68727183,0.97704357,-0.9740736,-0.91751665
1645,-0.98441947,-0.29839563,-0.2354816,0.10610967,0.24504791
1646,-1.0282499,-0.9392837,-0.29560497,0.60570335,-0.56424165
1647,-0.5792396,0.68766904,0.91957814,-0.6297697,-0.30090445
1648,0.11221986,0.14656073,-0.08907417,-0.38575333,-0.16569743
1649,-1.1269283,-1.3106192,0.5685593,-1.3882637,-0.060703125
1650,-0.8932404,-1.0255907,0.13190684,-0.7841617,0.42257828
1651,-0.29696953,-0.0597041,-0.021477412,0.2961275,-0.20965818
1652,0.1589576,-0.5330669,-0.99323416,0.37691605,-0.18466498
1653,-1.5336517,-0.4828986,0.3184874,-0.057645895,0.020203697
